-0.25342	-0.46623	-0.47822	-0.79367	-1.134	-0.63897	-0.48144	-0.56867	-0.5635	-0.54801	-0.6333	-0.62632	-0.86063	-0.76033	-0.67426	-0.9556	-0.58924	-1.3234	-0.72113	-0.34852	-0.43312	-0.52778	-0.72209	-1.1198	-0.68123	-0.50593	-0.31072	-0.66222	-0.11326	-0.54877
1.3133	-0.075294	0.19971	-0.098955	-0.32122	-0.071765	0.12021	-0.1023	-0.085434	-0.090925	0.0025841	0.038318	-0.031404	-0.025239	-0.062191	-0.087927	0.0084623	-0.010701	-0.03895	-0.016914	0.076564	-0.0083843	-0.067937	-0.22599	-0.051404	-0.14534	0.37131	0.19703	1.6563	0.59469
-0.082296	0.39187	0.035359	-0.4702	-0.42968	-0.22671	0.20726	-0.099518	0.0064	0.2902	0.37251	0.27707	0.0097191	0.018795	0.078768	0.0094655	0.43622	0.022378	0.085189	0.40955	0.53489	0.15438	-0.078571	-0.2309	-0.28055	0.24188	0.028263	-0.54436	-0.082234	0.12102
0.0031092	0.046754	0.044671	0.09129	0.12457	0.07487	0.064744	0.039528	-0.0038777	0.061932	0.1576	0.10685	-0.29179	-1.0833	-0.46508	0.15965	0.10218	0.12733	0.066064	0.091769	0.024357	0.042498	0.078435	0.099157	0.08456	0.058357	0.017076	0.075197	-0.0046515	0.035604
-0.089098	0.038999	-0.1101	-0.58773	-0.42995	-0.2843	-0.028713	-0.11455	-0.059638	-0.021605	0.064146	0.051236	-0.0089221	0.012125	-0.0079824	-0.0014282	-0.041323	0.01853	0.020318	-0.012638	-0.021299	0.04806	0.12388	0.40391	0.35075	0.0098359	0.039856	0.66483	-0.067211	-0.0094324
-0.0024655	0.046319	0.054297	0.099504	0.16406	0.088502	-0.021722	0.095428	0.095239	0.045163	0.12045	0.13133	0.10752	0.12432	-0.42232	-0.97346	0.12906	-0.19564	0.015857	0.10067	0.09261	0.076482	0.058805	0.16697	0.082035	0.10371	0.036253	0.086477	-0.01141	0.036699
-0.0021688	-0.043078	-0.019171	-0.1284	-0.27578	0.039337	0.0341	1.0276	0.29851	0.0015377	-0.036229	-0.086087	-0.17776	0.013262	0.0037979	0.0031824	-0.043881	0.012684	0.01742	-0.031233	-0.021135	-0.0056319	-0.0053098	-0.073629	-0.012292	-0.014599	-0.0047989	-0.012707	0.012904	-0.0074088
-0.010378	0.0064685	0.0071026	0.035507	0.044121	0.023021	0.014033	0.017722	0.023258	0.013732	0.013415	0.011395	-0.0016508	0.00090937	-0.0041884	-0.0069741	0.055119	0.14283	0.081039	0.019271	0.022378	0.031332	-1.0846	0.13038	0.10148	0.041319	0.010603	0.13569	-0.017684	0.0037513
0.0079555	0.030798	0.033734	0.073799	0.10531	0.065324	0.083806	0.05896	0.068836	0.038234	0.078787	0.064584	0.026522	-0.0020864	0.062028	0.29019	0.14013	-0.87397	-0.086149	0.056417	0.06145	0.062976	-0.061846	0.11121	0.063099	0.0068513	0.059757	0.11985	0.0032972	0.033406
-0.003159	-0.030973	-0.025882	-0.06798	-0.080607	-0.042124	-0.018862	0.070292	0.07915	-0.015076	-0.0023507	-0.062961	0.78279	-0.26775	-0.0048685	-0.0027149	-0.058145	-0.023509	-0.03305	-0.041971	-0.041527	-0.016716	-0.032783	-0.051315	-0.037398	-0.015996	-0.012787	-0.039306	0.0081176	-0.01926
0.019057	0.68073	0.13514	-0.00092574	-0.026031	0.0038943	0.13875	0.00065227	0.0013503	-0.085712	-0.22748	-0.028094	-0.0020305	-0.019649	-0.0217	-0.032978	-0.053295	-0.026957	-0.0017092	-0.15458	-0.25877	-0.0079121	-0.013732	0.031848	-0.0091338	-0.036073	0.052347	-0.03729	-0.083787	0.18137
0.010888	-0.045022	-0.030486	-0.024267	-0.01461	-0.037447	-0.15101	0.011745	0.016269	-0.086088	0.082008	0.0045076	0.0080034	0.0075452	0.042104	-0.007963	0.59768	0.029751	0.07765	0.014713	-0.37858	-0.11758	0.013365	0.04562	-0.051465	-0.20753	-0.032088	-0.02748	0.017174	-0.021262
0.024684	-0.035027	-0.0021103	-0.079072	0.031076	-0.060829	-0.053819	0.032654	-0.027978	-0.022228	0.015181	-0.038426	-0.022976	-0.017317	0.011411	0.01012	-0.11318	-0.013297	-0.065436	-0.031717	-0.0046162	-0.0049704	-0.0075834	0.59781	-0.18716	-0.02755	0.0046352	-0.32662	0.1024	-0.031473
-0.0042577	0.022639	0.0062962	0.021533	0.016768	-0.0014046	0.12238	-0.007439	-0.078032	-0.08779	-0.039986	-0.61492	-0.0011782	-0.01598	0.0030309	-0.025543	0.17538	0.0055036	0.052036	0.070642	0.1831	0.033654	0.028888	0.046984	0.023651	0.071821	0.031178	0.038505	-0.0048922	0.0091411
0.51316	-0.044969	0.060069	-0.031294	-0.020851	-0.011637	0.0015105	-0.0014348	-0.0064118	0.0052327	0.02817	-0.0088941	-0.0010146	0.0023538	-0.0081861	0.0018279	-0.0063806	-0.0085454	0.0070866	-0.0074269	-0.0052673	0.0025613	-0.00090328	0.023246	-0.0080462	0.026126	-0.05996	-0.011295	-0.37618	-0.074267
0.02268	0.094121	0.044494	0.013549	-0.015373	0.0025798	-0.48499	0.0068634	0.02331	0.060576	-0.03694	-0.048093	-0.01539	-0.031156	0.03667	0.023096	0.066884	-0.018573	-0.030586	-0.17405	0.10796	0.088768	0.0034562	-0.019935	0.10287	0.192	-0.05348	-0.040082	0.030244	0.0543
-0.085959	-0.094258	0.54406	-0.074918	-0.012871	-0.022369	0.0039617	-0.006271	-0.010526	-0.017924	-0.0043272	-0.0054815	0.001148	-0.0012298	0.0013627	-0.0013103	-0.0015152	-0.00042796	-0.0028029	-0.0078842	-0.0038822	-0.0011669	-0.0032924	-0.013887	0.00031781	-0.040231	-0.021852	0.010383	0.010177	-0.06823
-0.027066	-0.013103	0.030824	0.29547	-0.41726	0.21053	0.0051458	-0.050836	-0.059665	0.018953	0.018574	0.017224	0.0172	0.0046726	-0.0050344	-0.0017928	0.013216	0.00095501	0.0018448	0.0061309	0.0098349	3.1175e-05	0.009321	0.093375	0.0065894	-0.017738	-0.0039051	0.0021132	-0.027577	-0.0099016
0.0073937	0.023578	-0.0083178	0.0016672	0.0030931	-0.002558	0.084954	-0.00085748	-0.0020717	0.017455	0.026434	-0.0090688	0.0016426	0.010181	-0.0078083	-0.00034721	-0.0013888	-0.016216	0.0044715	-0.0049273	-0.0064911	0.0063747	0.0007469	0.015591	0.028139	0.015246	-0.51948	0.019703	0.085622	0.071945
0.0025533	-0.024244	-9.5716e-05	-0.01206	-0.049913	0.020432	0.023862	-0.17875	0.47811	0.026337	-0.010542	-0.072745	-0.049923	-0.0087616	-0.0047659	-0.0027341	-0.017065	0.005741	0.002833	-0.019357	-0.015287	-0.010183	0.00256	0.013276	-0.0038595	-0.011654	0.0021918	-0.018063	0.0049353	-0.0020876
-0.00080402	0.0061362	0.018857	0.26379	-0.035619	-0.44005	0.01082	0.032105	0.037592	0.005335	0.0067044	0.013506	-0.0048524	0.00065154	-0.0026784	0.00015289	-0.0035262	-0.0014464	0.0055264	0.010165	0.012416	0.0087617	0.0050666	0.0088317	0.0066752	0.0064128	0.003921	0.018608	-0.0087274	-0.0035076
0.0043287	-0.025087	0.0034412	-0.014841	0.0011321	-0.015392	0.017069	-0.0026775	-0.0477	0.41614	-0.07059	-0.080271	-0.0022387	0.0011347	-0.0098694	-0.015925	-0.0093962	-0.020764	0.046442	-0.016061	-0.098212	-0.046516	-0.001114	0.0062383	0.011414	-0.022292	0.017975	-0.0038721	0.012687	0.0033394
-0.016986	-0.024233	-0.016962	-0.0061324	0.0022249	-0.0080136	0.11445	-0.0047616	-0.016454	0.02302	0.1184	0.0097516	-0.0054764	0.0084071	-0.027763	-0.0079581	0.064085	0.0059646	0.008772	-0.36262	0.083452	0.035381	-0.0024237	-0.01214	-0.035432	-0.051752	0.02036	0.0022183	-0.010299	-0.014123
0.00048006	0.027933	0.014796	0.0066298	0.0090751	0.0032968	0.0067487	0.0091517	0.0072481	-0.0037572	0.016832	0.020334	0.0039648	-0.00085579	0.0082629	0.0019962	0.019393	0.0018721	-0.040302	-0.024838	0.085343	-0.38219	0.0014731	0.021584	0.017518	0.091879	0.0033707	0.021742	-0.0020156	0.012753
0.0086305	-0.025364	-0.0080109	-0.012684	-0.0095566	-0.012585	0.055159	-0.0024408	-0.0095897	-0.019908	0.0021469	0.0029781	0.0019746	0.0032185	-0.00040875	-0.0051304	0.0065972	-0.0020304	-0.033931	-0.0074435	-0.0093434	-0.0091552	-0.00076433	-0.0079873	0.32951	-0.052651	0.018987	-0.19084	0.0066147	-0.0033191
-0.0021073	-0.01414	-0.0037006	-0.01188	-0.013792	-0.0062754	-0.025202	-0.010676	-0.0076204	-0.048599	-0.0093161	0.010612	0.001664	-0.0029341	-0.006133	-0.0018144	-0.059011	-0.065489	0.35363	-0.021032	0.0031566	-0.040642	0.0054823	-0.003439	0.011027	0.012511	-0.0018519	-0.042287	0.0095646	6.8149e-05
0.0093378	0.073444	-0.0029942	0.0097402	0.024046	0.0070574	-0.086114	0.010452	0.011948	0.028979	-0.010912	-0.0029996	0.0061623	-0.0059845	-0.0026502	-0.0011437	-0.017343	0.0090508	0.013456	0.039041	0.16651	-0.033398	-0.0006459	0.0068618	0.0015622	-0.29839	-0.023417	0.031502	-0.0208	0.0022871
0.037272	0.10926	-0.01294	0.010579	0.0056867	0.01054	0.010388	0.0029308	0.0073471	0.012886	0.0058565	0.00751	0.0024582	0.003328	0.0038677	0.0034444	0.011247	0.0027569	0.0090591	0.0048368	0.0070656	0.0060275	0.0044631	-0.0055683	0.016929	0.024839	-0.018605	0.014321	0.099622	-0.31623
0.0024979	0.0058905	0.0025685	0.012945	0.010592	0.0073204	0.013881	0.00060531	-0.0027241	0.0053004	0.052377	-0.0014538	-0.032749	-0.10664	0.25141	-0.11653	-0.025383	-0.01381	0.0029618	-0.0042528	-0.011029	0.0037835	0.0010332	0.00068507	0.0070295	-0.0073193	0.0016592	0.015187	-0.002015	0.0036067
0.0048517	-0.049867	-0.01025	-0.0069019	-0.0032116	-0.0024748	0.048315	-0.001229	0.0055007	-0.0062947	-0.23448	0.077023	0.0035349	-0.03508	0.03903	-0.020598	0.090751	0.003366	0.0074195	-0.023783	0.077992	0.019626	0.008915	0.028217	-0.0054684	0.016604	-0.010655	0.0028445	-0.003816	-0.012265
