-0.18447	-0.22209	-0.20168	-0.32103	-0.82352	-0.31227	-0.064416	-0.36252	-0.6525	-0.44663	-0.19122	-0.23012	-0.15264	-1.268	-0.25312	-0.28244	-0.26199	-0.28511	-1.1473	-0.51142	-0.034148	-0.24143	-0.6284	-0.85087	-0.37456	-0.16287	-0.29723	-0.10132	-0.20005
-0.035158	-0.031171	-0.01582	-0.092391	-0.10073	-0.074603	-0.082188	-0.041673	-0.072286	-0.050078	0.0091962	-0.0085557	-0.080348	-0.2052	-0.054858	1.4128	1.5998	0.048319	-0.067073	-0.04472	-0.085072	0.0023779	-0.073599	-0.12927	-0.051772	-0.05097	-0.065057	-0.030619	0.031968
-0.064508	-0.21913	-0.17195	-0.24361	-0.28375	-0.24985	-0.30942	-0.25987	-0.26788	-0.25746	-0.22317	-0.17667	-0.25955	-0.27024	0.032624	-0.048935	-0.085363	0.15705	1.4415	0.30562	-0.2697	-0.26741	0.01476	-0.1932	-0.1963	-0.25984	-0.2841	-0.10355	-0.15679
-0.23239	0.0090146	-0.15134	-0.60791	-0.54732	-0.36188	-0.12652	-0.2052	-0.26869	-0.12491	-0.012342	0.019438	0.064978	-0.041073	-0.0012976	0.0075496	-0.0034392	-0.021569	-0.071917	0.022714	-0.12853	-0.062078	0.21909	0.77067	0.38219	0.27631	0.87193	0.31801	0.030635
0.027521	0.035409	-0.0068766	0.076409	0.10881	0.060281	0.12463	0.025971	0.052707	-0.0091475	-0.0057616	0.090431	-0.052766	-0.12941	-1.5675	-0.27251	0.22004	0.061576	0.12612	0.072461	0.029858	-0.011077	0.06108	0.10049	0.070904	0.018025	0.048592	0.029758	0.010418
1.1698	0.052878	-0.018735	0.0030038	-0.13568	-0.037782	0.0016146	-0.092227	-0.053356	-0.027422	-0.082163	-0.01137	0.038503	0.019967	0.011736	-0.016055	0.012847	-0.0065535	0.03857	-0.0099793	-0.13326	-0.081609	-0.060323	-0.20631	-0.055692	0.045138	-0.019619	0.9716	0.40992
-0.065912	-0.19446	0.054961	0.27318	0.35621	0.21254	-0.23357	0.028555	0.18566	0.14714	-0.47191	-0.35368	-0.065314	-0.038728	-0.018435	0.0015772	-0.0010895	-0.29947	-0.18798	-0.16044	-1.0778	-0.57207	-0.046835	0.2499	-0.0011785	-0.082392	0.14887	0.0068603	-0.03337
-0.017646	-0.11206	-0.053877	-0.19273	-0.28915	-0.20109	-0.12792	-0.16613	-0.16351	-0.17901	-0.055983	-0.2754	-0.38336	1.2477	-0.24346	0.066991	-0.038221	-0.17345	-0.21405	-0.13725	-0.030273	-0.0027826	-0.12379	-0.15072	-0.11999	-0.17665	-0.17621	-0.071271	-0.084562
-0.01474	-0.19549	-0.12741	-0.12792	-0.11859	-0.094301	0.005001	-0.026969	0.0089454	0.136	0.19662	0.48247	0.8341	0.21451	-0.062857	0.0075808	0.0049626	0.092158	0.0087514	-0.056408	-0.18627	-0.3562	-0.10915	-0.079586	-0.12816	-0.13747	-0.10407	-0.038069	-0.12212
-0.019354	0.020232	-0.066812	0.26028	-0.61685	0.42678	0.083844	0.19077	0.057878	0.070893	-0.0079145	-0.0049667	-0.029367	0.022015	0.0054258	0.013524	0.0054165	0.012538	0.046341	0.029196	-0.031958	-0.025448	0.0091734	0.086285	0.0024349	-0.026917	-0.026833	-0.012159	-0.0036181
-0.01716	0.008864	-0.0064419	0.10407	0.16939	0.24738	-0.0073567	0.042915	-0.67089	-0.024798	0.026989	0.015297	0.06762	0.057588	0.005326	0.0039846	0.0091368	0.016634	0.0098091	0.018316	-0.0099047	0.0014054	0.014434	0.033169	0.028007	0.0025978	0.018826	0.0098676	0.035032
0.27353	-0.24819	-0.068116	0.07896	0.038861	0.0186	-0.10783	0.0073534	-0.0022366	-0.030573	0.049368	0.006152	-0.044809	-0.050545	0.010242	0.013073	0.0093983	-0.014451	-0.060766	0.0083991	0.10161	0.075586	0.057846	0.1559	0.05786	-0.14986	0.041196	-0.013144	-0.51966
-0.069079	-0.031156	-0.65296	0.047116	0.10022	0.0096115	-0.13294	0.071156	0.048127	0.048324	0.0076313	-0.015783	-0.034579	-0.00086948	0.00046703	0.0010411	-0.0038679	-0.013747	-0.028511	-0.0052312	0.052226	0.037648	0.0057444	-0.016511	0.0027181	0.010886	-0.018688	0.05963	0.11632
0.0081102	0.0045803	-0.00022715	0.0080651	0.026696	0.0080349	0.0011837	0.0085961	0.015246	0.010252	0.0014357	-0.00048501	-0.00057463	0.010256	0.0025806	0.0029445	-0.0037305	0.019496	0.056746	0.070674	0.0038254	0.076232	-0.5386	0.11775	0.1151	-0.010355	0.031937	-0.00054567	0.0032986
0.029909	0.025251	0.011418	-0.086355	-0.0078233	-0.0097122	-0.0055268	-0.024012	-0.0079631	-0.00062465	-0.014674	-0.010945	0.014867	-0.049719	0.0062673	-0.010836	-0.002603	9.3386e-05	-0.074452	0.0386	0.012671	0.0065251	0.058925	0.20145	0.12519	-0.30304	-0.21942	-0.04109	0.15926
0.023117	0.05563	-0.11407	0.015755	0.038128	-0.018494	0.38263	-0.13849	-0.018103	-0.00023672	-0.041772	0.044068	-0.089756	0.0090983	0.032251	0.044189	-0.01648	-0.0096029	0.010431	0.0050084	0.0032355	-0.13272	-0.0086747	0.076386	-0.039531	-0.0021548	-0.013769	-0.010401	-0.073265
0.0054253	0.03609	0.040819	0.031668	0.021928	0.016672	-0.12151	0.030703	0.013863	-0.0048798	0.057615	-0.032147	-0.047236	-0.0038726	0.00068541	0.015001	0.0022277	-0.058791	0.015163	-0.041262	0.25069	-0.34942	-0.037274	0.054328	-0.00024554	0.016036	0.01546	0.0060503	0.028571
-0.032182	0.011205	0.011326	0.35523	-0.054495	-0.22984	-0.04467	-0.12193	-0.032345	-0.047785	-0.0066441	0.028795	0.039623	0.0069595	0.0037435	-0.0010353	0.0052769	0.014218	-0.0074543	0.0029325	0.0050428	0.024177	0.014675	0.045467	0.029082	-0.0045415	-0.0013442	-0.0021267	0.049912
0.0039065	-0.0064335	0.01557	-0.01127	0.0074053	-0.006697	-0.040541	0.01301	-0.0071748	-0.0083758	0.0017281	-0.003989	0.005517	-0.017342	-0.0064652	-0.006002	0.0034387	0.0038036	-0.014498	-0.0011054	0.016229	0.066161	-0.028755	0.21572	-0.37604	0.044755	-0.04083	0.01209	0.030794
-0.020749	-0.0053656	-0.0018343	-0.0053516	0.015423	0.21035	-0.087536	-0.34628	0.068148	-0.019901	0.017562	0.013622	0.02891	0.004644	-0.00040588	-0.0047303	0.0061381	0.007244	-0.0056618	-0.0051614	0.032219	0.034375	0.0018403	-0.0080263	-0.002235	0.013443	0.016794	0.0029005	0.019705
0.0051255	0.016727	9.2995e-05	0.00014574	-0.0078595	-0.0015347	0.015836	-0.0018972	-0.0046378	-0.0039683	0.024524	0.05875	0.041669	-0.013314	-0.0031549	0.0008584	0.017082	-0.3866	0.072484	0.013627	0.013906	0.065623	0.0039573	-0.0013618	0.0022577	-0.0012919	-0.0041792	-0.0090275	0.0068223
0.0068779	0.0079122	-0.00083653	0.0016343	0.0056854	0.0067765	0.017312	0.0077725	-0.00057622	0.0034996	-0.00063048	0.0096159	0.0012396	-0.0058115	-0.00038131	-0.0022974	0.00041729	0.022648	0.10403	-0.36979	0.0085654	0.054379	-0.0057871	0.044002	0.031325	-0.022119	-0.0053037	-0.0016992	0.0096692
-0.20263	-0.014869	0.042227	0.016215	0.024045	0.012061	0.015681	0.011459	0.01309	0.0095097	-0.0033594	0.0067824	-0.0086941	0.0038021	0.0037513	-0.00063149	0.0054143	-0.0076449	0.0036249	0.0010399	0.024925	0.010121	-0.0031271	-0.0018556	0.003558	-0.05908	-0.085289	0.29802	-0.095803
-0.0076632	0.0024829	-0.015165	0.0091092	0.033552	0.056801	0.023407	0.060383	0.064619	-0.35625	-0.00079781	0.02688	0.047266	0.015468	0.011516	0.0023572	0.0019431	0.0071639	-0.0054035	0.00066267	-0.019396	-0.012623	0.001408	0.011852	0.0087623	0.00036125	0.0072205	0.0060179	0.013974
0.00039531	-0.005509	0.011766	0.0050811	0.006669	0.0071783	-0.019554	0.0060054	0.0033642	0.00064822	-0.0023026	0.016726	0.0058034	-0.023868	-0.075161	0.25926	-0.2325	-0.002485	0.0023879	0.0017499	-0.00040601	0.01727	0.0066462	0.0016171	0.0035457	0.0021427	0.00015848	0.007533	0.012827
-0.017687	0.018714	0.0049071	0.023404	0.014559	0.0085273	0.021099	0.010665	0.010256	0.0076444	-0.0042012	0.0049566	-0.0066336	0.0028806	0.0018669	0.00015827	-0.0013153	0.0046358	0.010834	0.0050438	0.028962	0.01261	-0.0098825	-0.068668	-0.087571	-0.22857	0.21352	0.0083034	0.038648
0.00045043	0.04288	-0.0048848	0.0081204	0.002324	-0.0075758	0.00061046	-0.010317	0.0021761	-0.0079498	0.27064	-0.030207	-0.06432	-0.017626	-0.0006575	-0.0028912	-0.010194	0.0017343	0.0010337	-0.0038734	-0.10254	-0.013388	-0.0028777	0.0028798	-0.0061864	-0.017012	-0.004089	0.0089704	-0.003902
-0.0019903	-0.007067	0.013569	-0.0051397	0.0016666	0.0063822	-0.055845	0.010397	-0.0060877	0.0011941	-0.021543	0.24855	-0.15143	0.0027085	0.014583	-0.014458	-0.00068677	0.0063909	-0.019986	-0.0044303	-0.039214	-0.014861	-0.0054985	-0.0019069	0.00035469	-0.0011984	-0.0035549	-0.0029726	0.016769
0.018329	0.23628	-0.024145	-0.008305	-0.0044213	-0.0048389	-0.060489	-0.0011561	-0.0047448	-0.00257	-0.040925	0.0097689	0.026728	0.0042143	-0.0041391	0.0032854	-0.0018964	0.0063538	-0.0058194	-0.00083923	-0.0242	0.0017332	-0.0021147	-0.0012558	-0.0082607	-0.018537	-0.013457	-0.003993	-0.096696
