2.0297	0.45747	0.63166	-0.021164	0.094673	0.20931	0.00054048	-0.24349	-0.22081	-0.047854	0.053033	-0.047409	-0.048325	-0.03491	0.046897	-0.0585	-0.064863	-0.081118	0.043549	-0.16957	-0.040162	-0.14403	-0.071235	0.11479	0.059418	0.38573	0.76596	1.4552
0.12365	0.1391	0.49946	0.28816	-0.17518	-0.040592	-0.0054723	0.41677	0.44998	0.4311	0.12658	0.10552	0.0618	0.20595	0.13151	0.083187	0.56133	0.12217	0.05934	-0.024994	0.066792	0.25612	0.93026	0.13456	0.037075	0.029554	-0.048323	-0.14864
0.28547	0.058483	0.76798	0.36155	0.28518	0.026431	0.080422	0.14637	-0.033895	0.052112	0.0042126	0.043244	-0.012737	0.030214	0.0040501	0.036833	-0.017606	-0.03164	0.032049	0.011956	-0.022652	-0.19239	-0.57537	-0.3243	-0.041066	-0.087822	-0.88049	-0.27781
-0.06574	0.77153	-0.47193	-0.14062	0.24215	0.66761	-0.16201	0.064399	0.38541	0.14191	-0.022732	0.037558	0.056289	0.0012708	-0.016224	0.094009	0.081317	0.12244	0.15682	0.20719	0.0084118	-0.048433	-0.10371	-0.11107	0.30984	0.53401	-0.31288	0.064189
-0.0079378	-0.17028	0.13158	-0.077321	0.046459	-0.05991	0.4017	-0.18041	-0.30088	-0.023332	0.093817	-0.18586	0.0031753	0.024513	0.0012648	0.038826	0.13985	0.15142	0.44067	0.91694	0.22577	0.044118	0.072522	0.01243	0.23164	0.1273	0.024445	-0.007506
0.0080074	0.26056	0.0046802	0.10252	-0.013522	0.045606	0.25145	0.048997	-0.1609	-0.070017	-0.62573	-0.46046	-0.26586	-0.16038	-0.013882	-0.17167	-0.0084444	0.091781	-0.20366	-0.037465	-0.020725	0.13863	0.17136	0.069043	0.0296	-0.08201	-0.099305	-0.033619
0.017185	0.31095	0.035064	-0.023368	-0.28837	-0.22672	-0.58942	-0.12203	-0.39335	-0.29213	0.14869	-0.060262	0.029305	0.033109	-0.010689	-0.059021	0.030558	-0.00094145	-0.014984	0.083104	0.04482	0.12229	0.17377	-0.056455	0.059952	0.025886	-0.25219	-0.022967
0.002938	-0.0024762	0.082046	0.040127	-0.02365	0.0078337	-0.0019767	0.067854	0.051185	-0.0083955	0.078922	0.10981	-0.11036	-0.2934	-0.79685	0.028884	-0.13561	0.01501	0.049052	0.025483	-0.021813	0.056019	0.096799	0.047148	0.016585	0.036792	-0.0047567	-0.0080532
-0.47189	0.17741	0.44843	0.067691	0.16248	0.059255	-0.1006	-0.063377	-0.057554	-0.0093112	0.0011225	-0.020138	-0.020075	0.005551	0.026242	-0.00019967	-0.017965	-5.0412e-05	-0.053577	-0.011782	-0.055803	-0.048714	-0.072117	0.031411	0.054246	0.11127	0.29172	0.16158
-0.022831	0.026097	-0.033267	-0.0086117	-0.062195	-0.075385	-0.012026	-0.033163	-0.018346	0.028038	-0.067378	-0.023922	-0.015181	-0.014201	-0.054782	0.011866	0.088556	0.026928	-0.023132	0.019539	0.00068832	-0.70544	0.18087	-0.0082489	0.0011787	-0.024324	-0.034505	0.024108
0.038443	-0.0094629	0.17696	-0.63146	0.12092	-0.067603	-0.071179	0.085224	0.0089715	0.1049	-0.12151	0.015002	0.018173	0.021938	-0.011017	0.00072721	-0.068204	0.056477	-0.021313	-0.00045999	-0.022428	0.013739	0.046365	0.02241	-0.012724	-0.036384	-0.05817	-0.063818
-0.1671	-0.10648	-0.041411	-0.017642	0.014254	0.06738	0.022662	-0.004985	-0.014342	0.06377	0.0086174	0.018001	0.025507	0.017589	-0.012165	0.01029	-0.0029592	0.036658	0.017541	-0.0016065	0.017629	0.061759	0.099158	-0.040843	-0.045248	-0.20458	-0.29126	0.50152
0.0020001	0.017169	0.0103	0.030418	-0.032733	0.0042958	0.036698	0.0014369	-0.038351	0.037893	-0.090776	-0.15746	0.56474	0.051215	-0.13757	0.00049287	0.016523	0.027582	-0.050283	-0.027516	0.0095554	0.01004	-0.032251	-0.0038444	-0.015741	0.0098759	0.023826	-0.0070824
0.036749	0.22208	-0.01082	0.012418	0.013304	-0.0026859	-0.033816	0.028346	0.11449	-0.063548	0.0047978	0.059615	0.021213	0.011227	-0.015371	0.075932	0.029326	0.056745	0.011741	0.12832	0.065047	-0.013389	-0.11776	0.13957	0.043474	-0.4523	0.10313	-0.02273
0.0039441	0.083372	-0.010989	0.018282	-0.060752	0.15743	0.060815	-0.077572	-0.29483	0.32336	0.1084	0.0019923	-0.024903	0.023363	0.022762	0.16896	-0.18457	0.0057532	0.016746	-0.11014	0.043168	-0.010468	0.050064	0.09714	0.035868	-0.079003	-0.0053759	-0.095991
-0.0025941	0.047842	0.036507	0.051448	0.0035026	-0.070845	0.069529	0.083682	0.12866	-0.15863	0.017327	-0.00017516	0.065363	0.034037	0.10608	0.055682	-0.44148	0.0085293	0.052763	0.034466	0.020202	-0.033299	0.15842	0.022666	0.029666	0.037821	-0.037952	0.0083035
0.003014	0.066177	-0.010899	-0.0095881	-0.029856	0.0052521	0.025298	0.012573	-0.014339	0.0468	-0.018335	0.019669	-0.014506	0.0050439	-0.015717	0.021324	-0.038623	0.034644	0.010717	0.019308	0.0060462	0.02371	0.062257	-0.47426	-0.032323	-0.097027	0.13996	-0.01455
-0.0039132	-0.022342	-0.00030515	-0.021689	0.018493	-0.053879	0.021045	-0.021771	0.006876	-0.14444	-0.014265	-0.10451	-0.034893	-0.0063208	-0.0091783	0.40783	0.09414	0.17055	0.067318	-0.13239	-0.013267	0.018117	-0.020381	-0.014026	-0.02386	0.0473	-0.0064375	0.014246
-0.007446	-0.062588	0.021085	0.00992	0.01728	0.025481	-0.085178	0.007637	0.034192	0.0050172	-0.054695	-0.018692	-0.016994	-0.029421	-0.0046936	-0.056155	-0.015851	0.063402	0.043419	-0.11014	0.46985	-0.015206	-0.032281	-0.015492	0.027558	0.025946	0.022252	0.00098825
0.0083178	0.00089471	-0.03247	0.012791	-0.023216	-0.11577	0.030591	0.054839	0.010522	0.07754	0.055199	0.03872	-0.02601	0.025921	-0.0097318	0.10419	-0.024031	0.074309	-0.40471	0.14515	0.082723	0.012956	-0.059899	-0.011281	0.05352	0.080847	-0.010997	0.050047
0.033592	0.023027	-0.098694	0.066348	0.40485	-0.12011	-0.031795	-0.05181	-0.078451	0.0039541	0.047458	0.001708	0.017812	0.031811	-0.029824	-0.024513	0.017265	-9.923e-06	-0.024078	-0.029605	0.010581	0.01549	0.12483	-0.0033035	-0.0054916	-0.028346	0.00064107	-0.029042
0.01159	0.016046	0.044069	0.0083991	-0.033342	-0.065825	-0.0054881	-0.40568	0.18012	0.080368	-0.070815	0.024931	-0.0012281	0.00017313	-0.010175	0.0091665	-0.034676	0.013305	-0.022613	0.004589	-0.0038802	0.037325	0.027825	-0.0051909	-0.00727	-0.00067076	-0.050217	-0.029631
0.0014798	-0.011715	-0.011006	0.055623	-0.0060289	-0.0047854	-0.002403	0.011319	-0.11876	-0.034207	-0.26762	0.34068	0.042821	0.071273	-0.0045248	0.060665	0.0071178	0.032903	0.02603	0.026165	-0.00033102	0.018288	0.013387	0.02172	0.020774	0.046858	0.0069491	0.0058429
0.0035348	-0.0043941	0.0072655	0.00706	0.021167	-0.015861	-0.022359	0.0040107	-0.013456	0.026621	0.0075774	0.06077	0.090321	-0.3966	0.14274	0.033839	0.01888	0.0048807	-0.0097635	0.025001	-0.0083915	0.0037907	0.027272	-0.006684	0.0025461	-0.0055641	-0.0070679	-0.0027715
-0.039221	0.13083	-0.055478	0.014772	-0.041415	-0.29077	0.048403	0.069101	0.012005	0.15901	-0.022377	-0.0049337	-0.016806	-0.0082543	-0.0025792	-0.026491	-0.0042569	-0.0038929	0.1432	-0.047392	-0.00011627	0.01432	-0.11518	0.012448	0.001845	0.055083	-0.00099485	0.070209
-0.034867	0.14065	0.020629	-0.087011	-0.0311	-0.008338	0.25352	-0.054766	-0.041096	-0.14081	0.12387	0.11076	0.027518	-0.010332	-0.0028205	-0.066217	0.079082	-0.019729	-0.046165	-0.11109	0.072505	0.0027534	0.029653	-0.0033965	-0.025861	0.014721	-0.043085	-0.010047
0.0051311	-0.065159	0.0046796	-0.0063518	-0.0080928	-0.029712	0.015529	-0.0055935	0.0061132	-0.015108	0.0058347	0.0013284	0.0094879	-0.0020256	-0.001457	-0.021557	0.013458	-0.00052258	-0.0062648	-0.094072	-0.04696	0.00063777	-0.0024263	-0.036925	0.36924	-0.04397	-0.0064478	0.0047562
0.0073715	-0.014383	-0.0015691	0.016832	-0.0067677	0.010706	-0.0063963	-0.0045284	-0.010603	0.0056511	0.040362	0.020887	0.00038	4.1326e-05	0.011047	-0.10099	-0.022577	0.2548	0.0076153	-0.021565	-0.050732	-0.0078471	-0.018082	0.012696	-0.016899	0.0027305	0.006622	-0.009828
