2.141	0.23379	0.29639	0.046682	-0.43616	-0.076645	-0.20098	0.0010715	-0.10866	0.039847	0.10655	0.045938	-0.14705	-0.014093	0.078218	0.014385	-0.12549	0.028261	0.1137	0.076887	-0.11111	0.1754	-0.070121	-0.10987	-0.24547	-0.024557	-0.10744	0.30296	0.12218	1.8806	0.83676
-0.1256	-0.2058	-0.14921	-0.68117	-1.1514	-0.4254	-0.09692	-0.1058	-0.58537	-0.73573	-0.30414	-0.20906	-0.27924	-0.80599	-0.26638	-0.37818	-0.22389	-0.30503	-0.82787	-0.80477	0.013439	-0.34001	-0.20179	-0.67971	-1.1953	-0.46451	-0.14728	-0.1626	-0.6873	-0.10715	-0.078797
0.083319	-0.48987	-0.22504	0.27644	0.29112	0.045897	-0.70129	-0.46273	0.13974	-0.20785	-0.66735	-0.54929	-0.38451	-0.11036	-0.10612	0.018671	-0.20707	-0.29741	-0.041052	0.19006	-1.0079	-1.1921	-0.52849	0.071364	0.80762	0.03568	-0.892	-0.29356	-0.056301	0.21187	-0.12409
0.12563	0.027535	0.19906	1.0287	0.49718	0.36682	0.065814	0.075234	0.21061	0.0076418	0.058264	-0.014062	-0.024822	-0.0012549	0.0079872	0.018151	-0.024934	-0.0364	0.0071268	0.0022835	-0.02303	0.051432	-0.091318	-0.20859	-0.57831	-0.35216	-0.078657	-0.17242	-0.85958	-0.095394	0.027247
0.015458	0.023559	0.019431	0.014976	0.28563	0.079089	0.017694	0.023346	0.13598	0.092753	0.059852	-0.010907	0.15475	0.16934	0.03131	-0.37391	-0.98128	-0.15992	-0.72146	-0.2086	-0.02556	0.10981	0.28943	0.067234	0.12168	0.055908	0.015779	0.045511	0.122	0.068328	-0.011689
0.019952	0.021773	0.039956	0.05082	0.045826	0.03499	0.046	0.10837	0.0099325	-0.078913	-0.011759	-0.036858	-0.12268	-0.25554	-0.72944	-0.84814	-0.030867	0.070771	0.30859	0.19787	0.18733	0.063406	-0.094283	0.077866	0.15703	0.047538	0.028649	0.031211	-0.031748	-0.010914	0.043176
-0.0049064	-0.097312	0.086467	0.049647	-0.024014	0.089362	0.082871	0.28153	0.015887	0.067935	-0.98166	-0.0056259	0.22683	0.0033097	0.0076479	0.068513	-0.0010807	0.12467	-0.014939	0.012231	0.25686	-0.012986	0.155	0.010505	-0.052421	0.059644	-0.033498	0.088729	0.028136	0.018095	0.139
0.024292	-0.10957	0.088106	0.076775	-0.0058069	0.042925	0.25161	0.097871	-0.0011153	-0.10908	0.28365	-0.22014	0.32588	-0.039197	0.044481	0.0044384	0.01407	-0.048774	0.02705	-0.010335	0.37111	-0.79614	0.14036	0.0077165	0.013975	0.048017	0.19391	0.058156	0.027624	0.076138	0.099808
-0.009799	0.27874	0.073157	0.025891	-0.042969	0.015363	0.23704	-0.035943	0.0093171	-0.014172	-0.19127	-0.19941	-0.11054	-0.015726	0.046423	-0.04679	-0.018372	-0.11198	0.018197	0.012823	-0.4677	-0.068316	-0.095647	0.017149	0.017078	0.035819	0.66325	0.067149	-0.0268	-0.042541	0.079807
0.0025879	-0.018659	-0.0062052	-0.034194	-0.24203	0.028842	0.015992	0.040677	0.75208	-0.086618	0.014998	-0.012466	-0.039885	-0.028004	0.022318	-0.028624	0.044167	0.00021787	0.010019	-0.054251	-0.018307	0.0019237	0.023736	0.0318	-0.067363	-0.0079123	-0.031708	-0.0073805	0.064226	-0.0046361	-0.02815
0.002153	0.014907	-0.014873	-0.0097349	0.02269	-0.012302	0.02593	0.014023	-0.0022767	-0.039605	0.053865	-0.081414	-0.040323	-0.0018086	-0.055675	0.04881	-0.092081	0.74964	-0.044843	-0.14108	-0.12386	-0.069979	-0.0054716	-0.01356	0.015101	-0.016506	0.013932	-0.011316	-0.024193	0.0024226	-0.0047634
-0.0068407	-0.025844	-0.0235	-0.11636	-0.020859	-0.019431	-0.0083966	0.51678	-0.0026354	0.42858	0.093149	-0.0088665	0.081487	0.056072	-0.073399	-0.030154	0.025883	-0.05154	-0.0018867	-0.092874	-0.19371	-0.095255	-0.2067	-0.048931	-0.064771	-0.025305	-0.07405	-0.021636	-0.014382	0.0027418	-0.026931
0.0026302	0.015146	0.0044522	0.01875	0.10691	0.037429	-0.007413	-0.012238	0.027342	0.15516	0.034192	0.019953	0.099708	-0.68842	0.074893	0.092091	0.0011293	0.00090861	-0.025308	-0.012531	-0.068484	0.053804	0.10184	0.036431	0.044803	0.034838	-0.0082521	0.019205	0.047451	0.013076	-0.0053419
0.0065058	0.0058554	-0.016795	0.011143	0.072604	0.012082	0.023492	0.0083073	0.040134	-0.0022963	-0.0036497	0.00043064	-0.0029233	0.014337	-0.0085533	-0.042466	0.056879	-0.0054505	0.036336	0.0069151	-0.037428	0.015221	0.15515	-0.68655	0.14765	-0.00091013	0.011096	-0.016176	0.12392	0.0039722	-0.017045
0.49005	-0.042804	0.00095397	-0.047149	0.0023241	-0.012851	-0.0045033	0.0048658	-0.009315	-0.0012756	-0.011287	0.0041423	0.0013469	-0.0060935	0.0055805	0.010379	-0.022812	-0.0044189	-0.0056339	-0.016279	0.014472	-0.03162	0.001482	0.013088	0.034943	0.0089918	0.0074716	-0.019934	0.045764	-0.51909	-0.039345
-0.063088	0.085351	0.038134	0.036119	-0.25523	0.044188	-0.093502	-0.029339	0.031201	0.070061	0.032239	0.051156	0.073815	-0.057515	0.0023088	0.15421	-0.27544	0.049668	-0.031692	0.29303	0.15403	0.01423	-0.30819	-0.14561	0.1448	0.040651	0.053023	0.044477	-0.12692	-0.074182	0.10082
-0.011552	-0.032909	-0.02769	-0.070031	-0.088763	-0.043887	-0.047979	0.04108	-0.02429	0.084417	0.023153	-0.036926	-0.062943	0.023957	0.0018672	-0.015859	-0.076513	0.050968	0.018245	0.46956	-0.15004	-0.076893	0.37289	0.018873	-0.21212	-0.033894	-0.032848	-0.02814	-0.043803	-0.026475	-0.048109
0.03113	0.0031127	-0.00050484	0.073895	-0.0016552	0.014721	0.03596	0.020268	0.002232	-0.0028664	0.014212	0.018256	-0.0049327	0.00033777	-0.0056709	-0.1051	0.35524	0.058892	-0.50468	0.1929	0.014263	0.0045932	-0.084168	0.014116	0.061905	0.024012	0.012153	-0.00072434	0.038345	0.011238	0.010094
0.12044	-0.063959	-0.052113	0.017313	-0.024686	-0.0031469	0.027963	0.012494	-0.0024056	0.0084092	-0.058105	0.012556	0.039834	-0.012015	0.0043776	0.018132	-0.035468	0.01562	0.0091755	0.043027	0.081909	0.014473	-0.060517	-0.0044314	0.037933	-0.0022031	0.15296	-0.051419	-0.052441	0.16201	-0.5715
-0.0058032	-0.010063	0.0066357	0.017965	-0.00040791	0.013284	0.03372	-0.022948	0.008396	-0.0245	-0.04235	0.56598	-0.027552	-0.00085441	-0.074131	0.0010547	-0.02313	0.0052979	-0.0045709	-0.02438	-0.10114	-0.19271	0.020205	0.0057101	-0.0094177	0.0089462	0.059806	-0.0053206	0.0010715	0.0096776	0.012057
0.033879	0.007696	-0.58101	0.090057	-0.00050789	0.0019975	-0.013737	0.024176	0.0091134	0.0068985	-0.010765	0.0059954	0.025411	-0.0027542	0.015925	-0.014868	-0.0068	0.00031605	0.012196	-0.0036826	0.042182	0.0025414	0.0089871	0.0088757	-0.0080704	-0.006963	0.081986	0.023451	-0.027393	0.010593	0.098401
-0.00045506	-0.029335	0.0064162	-0.021254	-0.04668	0.030791	-0.033353	-0.3652	0.033904	0.40123	-0.050471	-0.016697	0.03025	0.048627	0.0010587	-0.12986	0.057129	0.041234	0.0088968	-0.072877	0.070592	-0.071489	-0.0092667	-0.022726	-0.093983	-0.017678	0.04197	-0.01441	-0.0017381	-0.0047735	0.0090686
-0.0397	-0.038526	0.0030679	0.27022	-0.073225	-0.030287	0.020822	-0.0021296	-0.064712	-0.016724	0.0010107	-0.016957	-0.02663	-0.024896	-0.022302	0.0049377	-0.079612	0.010438	0.016048	0.030264	-0.021331	-0.0081659	-0.12888	-0.012077	-0.22447	-0.018017	-0.020754	-0.0098161	0.43182	-0.029284	-0.042328
-0.0046381	0.017389	0.0081444	-0.031383	-0.0063823	0.0042877	0.015953	0.0075651	0.001755	0.01362	-0.018917	0.0082061	0.0095221	-0.0097032	0.00098825	0.0081758	-0.0072634	-0.0011276	-0.0014974	0.026289	0.027913	-0.0063939	0.0123	0.044839	0.13243	-0.54272	0.031526	0.012083	0.080778	0.0050304	0.017566
0.015581	-0.016942	-0.027219	-0.26931	0.33669	0.00034079	-0.0039701	-0.045384	0.092429	-0.068625	-0.031497	0.0016433	0.017763	-0.015655	-0.015505	0.038148	-0.031568	0.012812	-0.0047833	0.13539	0.055306	-0.027115	-0.19863	-0.049836	-0.20733	-0.02568	0.051808	-0.0021059	0.059944	0.028303	0.032365
-0.010895	-0.0018393	0.0055538	0.0057589	0.050075	0.019755	-0.0058721	0.082695	0.009551	0.11218	-0.0087896	-0.021699	-0.46908	-0.033785	-0.027628	0.12008	-0.034722	-0.022126	-0.054492	-0.038507	0.19471	-0.073203	0.045703	0.0023918	0.026877	0.021676	0.063173	0.025132	0.017596	0.0076292	0.0062861
0.0034114	-0.016694	-0.030979	-0.10419	-0.077487	0.52531	0.0046092	0.0015271	-0.07139	-0.040693	0.027053	-0.010276	-0.019816	0.0072793	0.002076	-0.0046799	0.010278	0.00049906	0.0051422	-0.0078767	-0.036007	0.006828	0.0036325	0.0058331	-0.028446	0.0043777	-0.020871	-0.010882	0.053943	0.0042451	-0.020327
0.0094591	0.013768	0.0052606	-0.016848	-0.018208	-0.0078796	0.023679	0.022963	-0.0042401	0.0050956	-0.012707	0.0038505	0.0052397	-0.01192	0.018459	-0.00064299	-0.018671	0.003487	0.0035368	0.0071551	0.043605	0.020476	0.0083141	0.018773	0.031115	0.01875	0.06005	-0.48995	0.031605	0.03192	0.083802
0.015087	0.0030401	-0.012939	0.0089903	-0.0045145	0.0066963	-0.0027097	-0.063067	0.025707	0.01726	0.015993	-0.055888	0.088894	0.035076	-0.39077	0.25137	0.015826	-0.058712	-0.069735	-0.030431	-0.028697	0.028074	0.071249	0.0081135	-0.0091976	0.0016642	0.035011	-0.016535	0.011331	0.011972	0.0062174
-0.019851	-0.061346	0.052066	0.029727	0.015163	0.016781	-0.40739	0.06584	0.0050322	-0.037138	0.014743	0.0032202	0.043858	0.0053783	0.0070671	-0.030324	0.042481	0.014825	-0.003906	-0.04218	0.021049	-0.0059999	0.040984	0.0035117	-0.020853	-0.0058812	0.20359	0.0055769	0.023067	-0.010197	0.020989
-0.004411	-0.37128	0.014511	0.0046702	-0.016425	-0.0070487	0.09135	-0.00937	-0.0013067	0.0074533	0.028781	0.0031489	-0.020177	-0.0039406	0.0076075	0.0094632	-0.019488	0.0010051	0.0043339	0.018181	-0.045468	0.083825	-0.022494	-0.0049268	0.031135	-0.0014369	0.08735	0.019149	-0.028014	0.012103	0.075638
