3.5557	0.47822	0.84633	0.38102	-0.45179	0.089157	-0.048835	-0.028747	-0.11034	-0.0036909	-0.070797	0.086925	-0.091698	0.027015	0.0044202	0.070464	-0.0061277	0.065723	0.07546	-0.15539	0.060239	-0.0068858	0.054182	-0.12149	-0.46819	0.046119	-0.11887	0.85558	0.90126	3.994	1.632
-0.089233	-0.21896	-0.74867	-0.95323	-1.579	-0.76252	-0.34569	-0.59135	-1.1347	-1.0167	-0.15003	-0.55886	-0.84557	-1.0423	-0.50374	-0.45255	-0.25285	-0.75501	-1.3051	-0.79137	-0.84689	-0.64962	-0.72654	-1.0321	-1.9634	-0.8827	-0.47128	-0.39185	-0.6149	0.19152	-0.10803
-0.65849	-0.15703	-0.62746	-1.5668	-0.75605	-0.63413	-0.052205	-0.28285	-0.45151	-0.066102	0.24614	-0.040842	-0.17653	-0.00048456	-0.021956	-0.01852	0.050229	0.08119	-0.0077979	0.14725	-0.11556	-0.17181	0.23666	0.41824	1.1697	0.60627	0.23699	0.44713	1.7454	0.51277	-0.10985
0.094171	-0.27526	-0.20608	0.813	0.39942	0.19176	-0.18485	0.0063817	0.23674	-0.10416	-0.77946	-0.63115	-0.44375	-0.15417	-0.033925	0.075382	0.048179	-0.39456	-0.40784	-0.31941	-0.38712	-0.90692	-0.31147	0.05596	0.85797	0.038793	-0.42148	-0.26745	0.49816	0.0081195	-0.025177
0.00015853	-0.027269	0.01611	0.057586	0.071977	0.048115	0.044114	0.016686	0.087269	0.072452	0.053859	0.068145	0.13604	0.21086	0.20086	-0.90435	-1.7316	-0.088927	-0.2859	-0.023159	-0.090714	0.066067	0.018272	0.037704	0.14278	0.03821	0.074379	0.016796	0.048402	0.021718	0.027575
0.0060645	0.015691	0.018962	0.096174	0.078139	0.052747	-0.0095711	0.044947	0.053047	-0.043752	-0.036756	0.16086	0.073468	-0.22072	-1.5228	-0.85096	0.22508	0.062496	0.1998	0.054834	0.031816	0.071446	0.021366	0.072809	0.13986	0.039767	-0.033435	0.0048669	0.035151	-0.010444	0.050305
-0.044751	0.2286	0.13542	0.15776	0.081758	0.1282	0.19246	0.078472	0.011716	-0.12958	0.38309	-0.42746	-0.97239	-0.27251	-0.049586	0.052238	-0.070809	-0.25213	-0.034758	0.00079401	0.0046396	0.54646	0.14599	0.070993	0.075738	0.12966	0.27235	0.16689	0.011386	-0.070238	0.065086
-0.010825	-0.089169	-0.14187	-0.087391	-0.045963	-0.084413	-0.045623	-0.087693	-0.04819	-0.056284	-0.20734	-0.24666	-0.27781	0.015962	0.074179	-0.042895	-0.25349	-0.088937	1.259	0.11429	0.0077432	-0.22786	-0.076343	0.0098959	-0.14632	-0.066105	-0.089896	-0.14471	-0.074275	0.044581	0.039273
-0.028775	-0.013041	-0.041477	-0.0028954	0.1119	0.012194	0.0054053	0.017224	0.026458	0.013852	0.034422	0.0053041	0.02239	0.0011517	-0.012719	0.0074244	-0.0071336	-0.01324	0.071414	0.11711	0.048204	0.012227	0.14528	-1.2112	0.21399	0.20498	0.029835	0.071869	0.057302	0.011817	-0.0042516
0.16794	-0.080328	-0.026871	-0.44097	0.98916	-0.16374	-0.013373	-0.17068	-0.21988	-0.13393	-0.020119	-0.03337	-0.014045	-0.0635	-0.032822	0.020398	-0.023403	-0.066203	-0.054537	-0.090844	0.039941	-0.037614	-0.0063488	0.055038	-0.12637	-0.01766	-0.0025789	0.15845	-0.042889	0.049965	-0.17948
0.02302	0.13885	0.02802	0.028606	0.030977	-0.041455	-0.94154	0.081572	-0.027226	-0.025951	0.013464	-0.023009	0.03421	-0.0017125	0.040974	-0.013468	0.0015122	-0.022798	0.043114	0.016237	-0.11329	0.31671	-0.064891	-0.0038744	0.05209	-0.029966	-0.034816	-0.0089952	0.059856	-0.042128	-0.023926
-0.058037	-0.51298	0.291	0.017264	-0.033134	-0.0015279	-0.074665	-0.10087	-0.0053631	-0.027244	0.31438	0.046704	-0.075668	-0.071953	0.061126	-0.063607	0.018796	-0.054574	-0.0017544	0.010217	0.24674	0.032202	0.033071	0.0090707	0.073461	-0.031745	-0.46507	-0.016827	-0.0018578	0.035305	0.025558
0.0012322	0.024962	0.097002	0.0043883	-0.0051263	0.019197	0.026988	-0.0047474	0.022725	0.085662	-0.083355	0.10089	0.15269	-0.70002	0.10848	0.037623	-0.075402	0.05004	0.068634	0.0064289	-0.064338	0.012445	0.019192	0.016934	0.042277	0.027673	0.029146	0.024684	0.030545	-0.015821	-0.033722
0.018662	0.1446	0.014793	-0.0027152	-0.02268	-0.024352	-0.19413	0.055544	0.013305	-0.011581	0.15295	-0.054837	-0.041053	-0.08832	0.023133	-0.070876	-0.0027124	-0.0028221	-0.048303	-0.078545	0.4698	-0.40454	0.14869	0.022347	-0.013763	0.044708	0.22569	-0.08373	-0.056263	-0.014153	0.0079284
0.48228	-0.081167	-0.16297	-0.0056412	-0.12379	-0.022346	0.043327	-0.0014767	-0.008391	-0.0019798	0.11461	0.045487	-0.028018	-0.0082181	0.0063701	-0.014218	0.0057503	-0.026961	0.021923	0.058482	0.020897	0.061812	-0.027768	0.0044328	0.14532	-0.029156	0.043621	-0.13426	-0.0040853	-0.15585	-0.45063
-0.016224	0.058179	0.02649	0.057345	0.070061	0.023319	-0.017217	0.016486	-0.011856	0.045716	0.40887	0.10842	-0.013946	0.0074164	0.091421	-0.14051	0.10965	-0.024578	0.067655	0.04936	-0.40062	-0.27278	-0.022107	0.0033891	0.031046	-0.046892	0.055417	0.058733	-0.045853	0.014376	0.014102
0.25647	-0.032954	-0.053324	-0.070407	-0.018853	-0.021253	-0.0029872	-0.01107	-0.026124	-0.029871	0.015029	0.023227	0.0037422	-0.010407	-0.00023024	0.021891	-0.017281	0.0038859	-0.0016918	0.014046	-0.0055415	-0.045945	0.013035	0.0031268	-0.024766	0.03647	-0.050667	0.11299	0.116	-0.4342	0.40423
0.027699	-0.019415	-0.039949	-0.14236	0.0049444	0.024373	-0.044148	-0.054021	0.084505	0.61015	0.0092979	-0.10386	-0.093834	0.0017586	-0.072126	0.025279	-0.0072057	-0.045245	-0.045688	-0.024231	-0.0080841	-0.014965	-0.023936	-0.01762	-0.067663	-0.016114	-0.043993	-0.024591	-0.026667	-0.00064385	0.012324
-0.040988	-0.039129	-0.02336	0.1752	0.057605	0.053475	0.010531	0.071423	0.026093	0.027559	0.069867	0.0045269	0.02319	0.0071725	-0.0047757	-0.0076751	-0.006208	0.017925	0.03325	-0.035427	0.034117	-0.0087706	-0.0016951	-0.02752	-0.36713	0.012202	0.0041406	0.023352	0.43802	-0.052775	-0.14594
-0.018149	-0.00024326	-0.014328	0.1615	0.0052279	0.083728	0.023122	0.043178	-0.57716	0.14229	-0.01273	-0.0077211	0.034924	0.0087921	0.0087225	-0.012649	-0.0011563	-0.0089332	0.012508	0.016967	0.048058	0.019363	-0.0017288	0.0084658	0.061943	0.011275	0.010713	-0.021402	-0.0014391	-0.0083688	0.023118
0.042675	-0.010415	0.40231	-0.029542	-0.084561	-0.026171	-0.036509	-0.12807	-0.060974	0.0026251	-0.076059	-0.061399	-0.043653	0.08967	-0.10299	0.10244	-0.075987	0.16383	0.024662	-0.13013	-0.10811	-0.10391	0.043084	-0.024941	0.0074604	0.032773	0.096855	0.10254	0.011774	-0.1065	-0.14289
-0.0087953	0.025438	-0.043414	-0.0062997	0.0032952	0.00081499	0.040533	0.025656	0.011963	0.010968	0.091572	0.048016	0.05282	0.0074864	0.0070684	0.0064073	0.0079768	-0.012087	0.093932	-0.44998	0.026196	0.08246	-0.09175	-0.032562	0.087734	-0.047388	0.012375	-0.02907	0.01821	-0.0032463	0.03777
-0.0001951	0.028062	-0.108	0.019105	0.033269	-0.0055364	-0.0008308	0.017859	-0.0052087	-0.0015336	0.028786	-0.056318	-0.11983	-0.029611	0.034198	-0.046331	-0.013933	0.44308	-0.028259	6.4564e-05	0.015177	-0.0041471	-0.059792	-0.019358	0.016022	-0.062989	-0.092148	0.0061429	-0.012525	0.01429	0.0067151
-0.024572	0.065684	-0.092295	0.17205	0.0087832	-0.09108	-0.022574	-0.40642	0.01452	0.020955	0.020754	0.12818	-0.036073	0.00055122	-0.0045812	0.023993	-0.010179	-0.0043897	0.00069516	0.0039116	0.037862	0.026069	0.015396	0.0067595	0.003168	0.015244	0.020447	0.010038	0.010936	0.0025844	0.016831
-0.00033055	0.0038375	0.040026	0.10008	0.015253	-0.37721	0.036709	0.12082	-0.0020687	0.052612	-0.0015769	-0.0060517	-0.0051299	-0.00025594	-0.0016619	-0.0020532	4.7341e-05	-0.0087068	-0.0029672	0.0068869	-0.0044842	0.01329	0.0030996	0.00045022	0.0074364	0.0029657	-0.010715	-0.0046553	-0.0053921	-0.0065793	0.0082866
-0.011039	-0.035093	-0.083783	0.054502	-0.048019	0.0077877	-0.022299	0.031513	0.013557	0.014064	-0.023789	-0.017349	0.013649	-0.0035104	0.004588	-0.011146	0.00097281	-0.034728	0.016354	-0.020279	0.053082	-0.030832	-0.046668	0.011635	0.0053515	-0.0083746	-0.025834	0.35853	-0.080074	-0.0047789	-0.077224
-0.012489	-0.00098996	0.01349	-0.004379	0.0071005	0.00077508	0.0088225	-0.0019206	0.0033106	0.0087465	-0.023988	0.0090058	-0.0072198	0.0012032	-0.0057029	0.0093448	-0.003653	-0.021874	0.0013836	0.028623	0.01725	0.0053745	0.12377	-0.024118	0.057554	-0.34958	0.043459	0.030333	0.065506	-0.0071365	0.01283
0.007307	0.2368	0.038837	-0.025065	-0.0083673	-0.0019552	0.04651	-0.032783	-0.0075589	-0.012726	0.048006	-0.10495	0.079259	0.0019551	-0.00059288	-0.0072025	-0.0050163	-0.037475	0.0083836	0.017099	0.026291	-0.007036	0.010849	-0.0010708	0.018046	-0.015325	-0.20491	0.010166	0.028371	-0.028056	-0.04891
-0.014518	0.027574	0.074796	-0.0187	0.0072471	-0.0027026	0.018257	-0.011875	0.0050854	-0.00062387	0.02882	0.015874	-0.0042731	-0.0031732	-0.010027	0.016494	-0.010326	-0.020469	-0.0063311	0.090935	0.077055	-0.0065303	-0.3027	-0.026251	0.032794	-0.059764	0.06744	-0.00029791	0.044353	-0.008302	0.017992
0.0068021	-0.089979	-0.027209	0.037663	-0.0027439	-0.018629	0.0038708	-0.075666	0.014796	-0.01545	0.077788	-0.24633	0.16244	-0.019339	-0.014159	-0.0030594	0.011613	0.02377	0.0013749	0.013338	-0.01794	0.039978	-0.00015784	0.0055758	0.0009977	-0.0082226	0.096616	-0.0081452	-0.010771	0.01176	0.03466
-0.012866	-0.0060639	-0.055852	0.019446	0.0073181	0.0071832	-0.018433	0.043223	-0.0030253	-0.019086	0.089051	0.025753	0.019797	-0.0086895	-0.13219	0.21615	-0.12519	0.0073316	-0.00094477	0.019516	-0.015032	-0.038692	0.0069036	0.010381	0.0084036	-0.0046187	-0.026847	-0.0087293	-0.018933	0.025136	0.0069774
