0.143	-0.23493	-0.0082485	-0.35282	-0.93858	-0.35951	-0.40189	-0.36045	-0.23567	-0.7329	-0.26494	-0.16996	-0.128	-0.95774	-0.12038	-0.2878	-0.13349	-0.24219	-0.78992	-1.2048	-0.16457	-0.094896	-0.23322	-0.48307	-0.42986	-0.10303	0.069733	-0.18858	-0.47162	-0.03828	-0.41122
-0.01463	0.62558	0.41607	-0.51029	-0.38142	-0.19306	0.52093	0.34433	0.01682	0.079402	0.32832	0.31674	0.26221	0.014906	-0.014168	0.0081911	0.011956	0.21203	0.03846	-0.10662	0.24707	0.68349	0.28361	0.22009	-0.23214	0.21574	0.74708	-0.14216	-0.58745	-0.032024	0.18165
0.006679	-0.0034166	-0.023579	-0.0010352	0.17923	0.064939	0.02865	-0.010252	0.0099156	-0.020853	0.036296	0.055912	-0.13334	-0.26235	-1.2861	-0.55095	-0.1054	0.16606	0.13569	0.16713	0.00023178	0.093121	0.0021413	-0.02023	0.067412	-0.0039272	0.035372	0.073496	0.015292	-0.0117	0.02439
0.03797	-0.083607	-0.049961	-0.11001	-0.57691	-0.19293	-0.089961	-0.16971	-0.28777	-0.31675	-0.14902	-0.13213	-0.11631	0.20564	0.0053629	-0.047178	-0.17431	-0.029827	-0.010442	0.98087	-0.11656	-0.074346	-0.19262	0.27799	-0.039005	0.019286	0.013355	-0.14209	-0.30262	-0.052366	-0.10985
0.0012204	0.016723	-0.0057959	0.02699	0.12353	0.053532	0.066858	0.042523	0.03343	0.077163	-0.00046086	0.090577	0.022394	0.070508	0.30269	-0.4721	-1.1496	0.038216	-0.12114	-0.03967	0.021491	0.015712	0.020479	-0.046287	0.029981	-0.0070264	0.0058421	0.038489	0.041848	0.0030579	0.043216
-0.064571	0.12995	-0.024106	0.051426	-0.029869	0.058712	0.079755	0.10103	-0.37368	-0.0017618	0.10501	-0.013716	-0.229	-0.0089302	0.064118	0.018831	0.044505	-0.006518	-0.057842	0.23505	0.063402	0.16592	0.26485	-0.61106	-0.22608	-0.67864	0.012301	0.23901	0.047191	-0.0054241	0.087923
-0.032691	0.33871	0.14824	0.083122	0.061963	0.067133	0.18033	0.040263	0.044018	0.0072866	-0.22424	-0.81934	-0.28985	-0.0095055	-0.01082	-0.033149	-0.029671	-0.30081	-0.027869	-0.054239	-0.29681	0.00048984	0.058757	0.071429	0.046896	0.11637	0.30389	0.10403	0.0804	-0.031718	0.12274
-0.010973	0.039922	0.053672	0.10164	0.10918	0.067626	0.07469	0.088103	0.014115	-0.15648	0.050742	0.063721	0.031097	-0.89033	0.24054	0.065113	-0.017734	-0.010304	0.13756	0.29101	0.030299	-0.0013604	0.049557	0.12176	0.09631	0.051095	0.00019634	0.030221	0.06652	0.0029038	0.041383
-0.11769	-0.24947	-0.14104	0.51149	-0.42036	0.16347	0.044378	-0.088959	-0.014878	0.054782	0.14627	0.05027	0.10546	0.013744	-0.025542	-0.014869	-0.0048886	0.015044	0.0026383	-0.044481	-0.0049629	0.13903	0.024102	0.10314	-0.16285	0.11743	0.37281	0.23924	0.30916	-0.014486	-0.040159
-0.020973	0.040866	0.0064734	-0.014081	-0.18642	-0.11453	0.0014837	-0.072015	0.8321	-0.0849	0.029411	0.025889	-0.10587	0.0073794	0.0023174	0.0071873	-0.0033746	-0.0029203	-0.020161	0.14937	-0.004126	-0.021149	0.069262	-0.16548	-0.063059	-0.16151	-0.020289	0.013613	0.03665	-0.0054081	0.040093
0.0019679	-0.045905	-0.020635	-0.042817	-0.11624	-0.060978	-0.0030887	-0.051776	-0.024229	-0.10344	-0.048065	-0.02914	-0.012061	0.025361	0.040832	-0.030159	-0.092774	-0.10224	0.81742	-0.18535	-0.01612	-0.0015856	-0.066045	-0.10253	-0.051674	-0.0725	0.0093575	-0.014882	-0.052065	0.0011708	-0.0041116
0.010831	-0.085256	-0.13051	-0.12577	-0.12325	-0.0062327	-0.10415	-0.053872	0.027433	0.72581	0.0011106	-0.097312	0.020632	-0.20036	0.0082705	0.0018369	-0.010617	-0.014919	0.033812	0.069956	-0.10586	-0.034389	-0.077053	-0.054707	-0.042052	-0.055387	0.051936	-0.053232	-0.16435	0.0075927	-0.035525
0.010192	-0.06226	0.0080521	-0.12893	0.25446	-0.026516	-0.033585	-0.039336	0.024067	-0.026986	0.013591	-0.040989	0.024828	-0.014532	0.0051202	0.0059535	-0.011343	-0.011527	0.011188	0.069249	-0.035189	-0.0059126	-0.050713	0.11307	-0.66352	0.060903	0.0082558	0.011027	0.10077	-0.015512	-0.022234
0.13411	-0.25735	-0.14579	-0.17828	0.22697	0.073742	-0.064155	-0.1667	0.05432	-0.10092	-0.066941	-0.016493	-0.070182	0.017188	0.098526	-0.0038234	0.04307	0.079165	-0.0062099	0.05502	-0.048129	0.27144	-0.015985	-0.10709	0.14534	0.04656	0.29177	0.11823	-0.091508	0.026538	-0.047135
-0.46181	-0.0022141	-0.090024	-0.023404	0.043651	-0.0050955	0.0089818	-0.016075	0.0065986	-0.039635	-0.0047495	-0.023517	-0.015574	-0.0032139	0.00022148	-0.00019921	-0.0042756	-0.00052101	-0.012173	7.0974e-05	0.014393	0.0020732	-0.021073	0.0065887	-0.006209	0.01878	0.0070506	9.3359e-05	-0.10848	0.47757	-0.026329
0.013867	-0.014739	-0.025396	-0.037479	0.023402	0.0077401	-0.027757	-0.02695	0.02419	-0.015797	0.031032	0.0072304	-0.023581	-0.0055133	0.0045094	-0.016584	-0.00084275	-0.0038492	-0.011545	-0.10635	-0.05288	0.027103	-0.020545	0.41594	0.043805	-0.42238	0.037933	0.071117	-0.020337	0.0077864	-0.0046786
-0.012761	0.034664	0.013336	0.027339	-0.037776	-0.0088657	0.00508	0.0065375	-0.0063068	-0.015577	-0.040234	-0.16164	-0.034639	-0.018386	0.0439	0.028747	-0.0061186	0.54773	0.033511	-0.044911	-0.023962	-0.06835	-0.047457	-0.0086061	-0.022139	-0.019083	-0.007306	-0.0063958	0.0185	-0.010306	0.0015531
0.014953	-0.099419	-0.039939	-0.01825	-0.027892	-0.024218	-0.094803	-0.021734	-0.012136	0.013309	-0.052195	-0.068196	-0.042907	-0.00088812	-0.0061121	-0.0069903	-0.017936	0.024016	0.031598	-0.015216	0.073699	-0.021937	0.48869	0.091575	-0.016103	0.052775	-0.051961	-0.055182	-0.025882	0.014019	-0.041421
0.014757	-0.17818	-0.029108	-0.01914	-0.02224	-0.013533	-0.020935	0.4054	0.036274	-0.039928	0.038835	-0.066013	0.017228	0.014407	-0.010653	-0.004491	-0.0034471	-0.0074453	-0.0017303	0.0039195	-0.1039	0.038538	-0.018314	-0.010569	0.00049661	-0.010623	-0.012122	-0.026979	-0.012125	0.013863	-0.052052
0.010829	-0.084021	-0.046925	-0.029878	0.004602	-0.015562	0.29764	-0.11422	-0.016438	-0.017892	0.17844	-0.0083985	0.020203	0.0010808	0.0067001	-0.0104	0.010069	0.010526	-0.009087	-0.015735	-0.22964	-0.029763	0.066334	-0.014099	0.01197	0.011189	-0.10198	-0.03239	-0.028454	-0.0049432	-0.034227
-0.0047563	0.015146	0.044901	-0.01907	-0.016437	-0.014477	-0.017592	0.027697	0.014066	0.010124	0.010567	0.014333	-0.0069523	0.0065811	0.0059866	0.0059176	0.00096788	0.0055079	0.0093151	-0.0089029	-0.012701	-0.050713	0.010611	0.024468	-0.0083954	0.086048	-0.10428	0.38929	-0.16138	-0.034451	-0.045218
-0.00050257	0.010394	0.03925	-0.12303	-0.088487	0.4079	0.0026127	-0.00019277	0.025863	-0.026602	-0.014732	0.0018116	0.0013606	0.010032	3.7225e-05	0.00075702	0.0021086	0.00017679	0.0081913	0.00076996	-0.00057594	-0.018251	0.0024822	0.0045997	-0.02749	0.001529	-0.055843	-0.02698	-0.01593	0.0087726	-0.013702
-0.00545	-0.11027	-0.026374	-0.020936	-0.012939	-0.0099566	0.21954	0.032321	0.0054167	0.023414	-0.23786	0.042916	-0.0069602	-0.011151	-0.023553	0.041874	-0.0044419	-0.0074834	-0.020151	-0.010627	0.10438	-0.074639	-0.011077	0.0091315	-0.019739	-0.030408	0.026474	0.023034	-0.010232	-0.01597	0.042046
-0.00036811	0.00023713	0.0046092	0.0094885	-0.0083924	-0.0051672	0.02544	0.014686	0.004486	0.014551	-0.032008	0.0030293	0.0041332	0.010602	0.1177	-0.31624	0.16355	0.0058729	0.0062157	0.012488	0.025462	-0.01355	-0.0033996	0.0099764	-0.010207	0.0052422	-0.014649	-0.0026231	0.0046009	0.0045342	0.0041936
0.044602	0.11558	-0.30551	0.005569	-0.010601	0.018507	0.0095607	0.041362	0.0058603	-0.035526	0.016288	-0.0041121	-0.020391	-0.0053546	0.0031719	0.0021866	0.0029927	-0.0027262	-0.0045975	-0.020174	0.027334	-0.00075847	-0.0079123	0.020524	-0.025043	0.03433	-0.024586	0.0026635	-0.039159	-0.024325	0.077533
-0.071165	-0.098567	0.037673	-0.023962	-0.019027	-0.0035283	-0.060058	-0.017295	-0.014483	-0.015538	0.018489	0.00091516	0.0098998	-0.0041846	0.00095231	-0.0059799	0.0038627	0.0036418	-0.012606	-0.013123	-0.052339	0.0014928	0.0043824	0.0021408	-0.00050609	0.014523	-0.019785	0.0048294	-0.030854	-0.050959	0.3089
-0.003631	0.078704	-0.0015537	0.047815	-0.010969	0.00068661	-0.035199	0.012388	-0.0024462	0.015884	-0.17933	0.13797	-0.006437	-0.0016117	0.0032163	0.0060052	0.0074727	0.023952	0.0063572	-0.0027557	-0.21348	0.10869	0.038768	0.0049238	-0.022558	0.011617	-0.044025	-0.0047074	0.020434	0.01975	-0.0045124
0.00060644	-0.029332	0.026231	0.015831	-0.012053	0.00063327	0.016339	0.017291	-0.011164	0.034911	0.051181	0.077822	-0.29411	-0.00040025	0.024101	0.01014	0.0021008	0.004705	0.0046567	-0.029268	0.023881	0.019517	-0.034093	0.040867	-0.013778	0.054145	-0.016551	-0.028347	-0.0010062	0.00048374	0.00039487
0.0068294	0.026248	-0.0045011	-0.013068	0.024943	0.012282	-0.032871	0.026448	-0.0092784	-0.016775	0.021847	0.084003	-0.018417	0.010454	0.0013658	-0.0062089	0.0078227	0.0042605	0.0059926	0.0060599	-0.074001	-0.19395	0.036103	-0.021506	0.00269	-0.0057131	0.14669	0.00049468	-0.015123	0.0073168	0.00099359
