-0.005942	0.13771	0.19883	0.67031	0.51271	0.49987	0.14357	0.27716	0.54871	0.79457	0.20817	0.16575	0.33471	0.20539	0.61464	0.72879	0.23158	0.15636	0.24674	0.47793	0.85162	0.43016	0.22572	0.16347	0.50722	0.059855	0.13541
1.4145	0.29366	0.27044	-0.016917	-0.24337	-0.0045102	0.051182	-0.026578	-0.023374	0.054188	0.078626	0.1284	0.050662	0.058995	0.04217	0.013699	0.080858	-0.091421	-0.0036617	-0.049472	-0.28191	-0.024677	0.0052456	0.27052	-0.03341	1.0588	0.75257
-0.28953	0.47357	0.082944	-0.44384	-0.2902	-0.17548	0.42774	0.2743	-0.048142	0.11694	0.47562	0.46387	-0.067875	0.219	-0.062359	0.26016	0.36491	0.45007	0.32023	0.00097411	-0.31028	-0.14269	0.72783	0.13897	-0.42606	-0.25021	0.20991
0.17197	-0.037035	0.21797	0.83213	0.46107	0.40725	0.019167	0.097151	0.22757	0.072202	0.0093259	0.016973	-0.017128	0.0035056	-0.024612	-0.080323	-0.043877	0.08973	-0.064001	-0.22591	-0.55196	-0.36408	0.0081579	-0.19016	-0.74655	-0.27503	-0.0092686
0.038114	0.061605	0.049326	0.10281	0.11507	0.063883	0.088045	0.035489	0.00095832	-0.2652	-0.076821	-0.1601	-0.81326	-0.1372	0.028528	0.05813	0.10365	0.096212	0.026221	0.078816	0.10984	0.06919	0.13288	0.056173	0.070025	0.023321	0.036282
0.0076516	0.076823	0.04299	0.065556	0.087875	0.074601	0.034312	0.052588	0.072446	0.097557	0.040653	0.0024411	0.050747	-0.19555	-0.82809	-0.0099223	0.011673	-0.006596	0.054357	0.028653	0.12523	0.066047	0.038678	0.040276	0.088242	0.018825	0.031084
-0.0048319	0.02479	0.027299	0.13211	-0.027234	0.24165	0.0092935	0.10547	-0.78072	0.14266	0.019764	0.00065285	0.0049682	-0.011886	0.000878	0.030157	0.015409	-0.028526	-0.012357	0.017351	0.039423	0.017029	0.011162	-0.011294	0.01672	-0.015421	-0.010108
0.012518	-0.0071282	0.0029205	-0.0023292	-0.0068953	-0.0034761	0.0039521	0.0060601	-0.0032748	-0.015429	0.0071213	0.021384	0.024347	0.0029163	-0.0062145	-0.2347	0.015088	0.0016686	-0.074071	0.69098	-0.038694	-0.12405	-0.0013063	-0.014979	-0.089088	-0.0046339	0.0061577
0.024844	-0.063879	-0.027093	-0.10081	-0.043736	-0.055243	-0.073865	-0.074695	-0.032163	0.019952	-0.098294	-0.16017	-0.019546	-0.0095517	-0.074821	0.55545	-0.1659	-0.034545	0.065809	0.15927	0.004078	-0.063344	-0.093302	-0.028964	-0.26995	0.010954	0.01269
0.39442	-0.0062263	0.033454	-0.084355	-0.039171	-0.030425	-0.020198	-0.012686	-0.0087574	0.0048312	-0.0022754	-0.012708	0.0037341	0.0098213	-0.0011773	0.00070324	-0.0066637	0.0099184	0.028164	0.014537	0.058778	0.04558	-0.0002541	-0.03891	0.093571	-0.52923	0.024051
-0.024469	0.026837	-0.035914	-0.12179	-0.03238	-0.061929	-0.030181	-0.0010161	0.053658	0.57456	-0.065344	-0.085908	-0.23098	-0.059525	0.025418	-0.11009	-0.027803	-0.074092	-0.050742	-0.031522	-0.091655	-0.034275	-0.031071	-0.039224	-0.017	-0.0077058	0.021087
0.049415	-0.34182	-0.013726	-0.0090273	-0.049259	-0.0032347	0.17408	-0.045664	-0.018896	0.071074	-0.1861	-0.083329	0.078195	-0.056774	-0.024763	0.012007	0.17478	0.38715	-0.08836	-0.0088587	-0.03846	0.018293	0.028853	0.051506	0.013023	0.038682	-0.017026
0.045921	0.012689	-0.024763	-0.20558	0.54375	-0.1561	0.0079061	-0.014831	-0.10744	-0.0013458	0.043092	-0.025085	0.04338	0.016614	0.011723	0.0080353	0.010046	0.043996	-0.018651	0.0012601	-0.062283	-0.0060333	0.015153	0.0080807	0.027362	0.034091	0.0077092
0.047746	0.0025708	0.0055772	-0.048614	0.01181	-0.050979	0.027148	0.012797	-0.015902	0.015824	0.034657	-0.012582	-0.0027473	0.0034726	0.016367	-0.12198	-0.0013835	0.056423	-0.04128	-0.098955	0.46475	-0.24788	-0.016454	-0.015726	-0.24198	0.03142	0.021459
-0.0097978	0.081224	0.010962	-0.00040572	0.030357	0.0052055	0.040064	-0.11222	-0.0032013	-0.014579	-0.33946	0.038809	0.07646	-0.015849	0.0055508	0.022056	0.11817	-0.23076	-0.1044	-0.0094199	0.035562	-0.018241	0.28267	0.010422	-0.037021	-0.02536	0.0076804
0.0099432	-0.092283	-0.024713	-0.011363	0.0096997	-0.008132	-0.075525	-0.022019	-0.00026529	0.0062195	0.045055	0.097467	-0.065063	0.1191	-0.053652	0.057363	0.41463	-0.14173	0.036968	0.0017244	-7.4353e-05	-0.027478	-0.187	-0.051882	-0.034723	-0.00018643	-0.034442
-0.00034056	-0.013521	-0.0030013	-0.2509	0.024873	0.37705	0.020764	0.025685	0.066434	-0.031779	-0.0057146	-0.025141	0.0048425	0.004001	0.011667	-0.013809	-0.0048187	-0.014426	-0.017935	-0.011318	-0.010604	-0.019156	-0.021177	-0.01051	-0.015715	0.0092705	0.0011254
-0.06028	-0.032526	0.41646	-0.058114	-0.006714	-0.031441	-0.019167	-0.032303	-0.0083832	0.0036057	-0.0073447	-0.0086644	-0.00013092	0.0018832	0.00489	-0.0035162	-0.0024683	-0.0089161	-0.011016	-5.4987e-05	0.0023027	0.0045099	-0.032814	-0.0029881	0.013607	-0.00078264	-0.023773
0.0059872	-0.0081507	-0.0018099	-0.023882	0.007556	-0.0083112	-0.0046741	0.0044732	-0.0035916	0.00061724	0.0059857	0.0027429	0.0034881	-0.00049357	0.0075121	-0.07242	0.0043722	-0.010201	-0.024038	0.0067135	0.041123	0.34132	-0.014613	0.008679	-0.21963	0.00075658	0.0049926
0.014417	-0.0054228	0.0048952	-0.009001	-0.0076383	-0.0080186	0.011178	0.0028587	-0.00034233	-0.0081321	-0.0057449	0.0016693	0.0026294	0.0028831	-0.0052324	-0.00049938	-0.0019276	0.033676	0.041735	0.0057483	0.013508	0.031322	0.061232	-0.35246	0.0291	0.055852	0.031449
0.0037995	-0.0061102	-0.0040188	-0.0030752	-0.008215	-0.0061352	0.0041746	0.022474	0.010086	-0.0022007	0.067689	0.12409	-0.041994	0.014386	-0.022185	0.082301	-0.034339	0.010447	-0.30653	-0.0033948	0.0060619	0.010023	-0.0045946	-0.033779	0.023388	-0.0072903	-0.0036539
-0.094842	-0.035632	-0.0065783	0.010175	0.013962	0.0019881	-0.015251	-0.013169	-0.0078686	-0.018046	-0.022796	-0.0067286	0.0053648	0.0014605	0.00020174	-0.011607	0.00068675	-0.0035834	-0.014834	-0.0054926	0.0041804	-0.0016232	-0.046284	0.0018751	0.010922	-0.058375	0.28574
0.0023739	-0.0057857	0.00027114	-0.0090711	-0.0039088	0.016104	-0.26649	0.023602	0.00083735	0.0024537	-0.013844	0.01338	-0.0012863	-0.005786	-0.0045442	-0.0061993	0.022949	0.087921	-0.0043755	-0.0023622	0.0034483	-0.0026565	0.086885	0.016482	-0.0035043	0.010441	0.004114
-0.00017298	-0.0025114	-0.00085796	0.011501	0.0033638	0.0072417	0.0049763	-0.0088921	-0.0036596	0.0085464	-0.051549	-0.026775	-0.036863	0.26237	-0.062342	-0.02616	-0.057453	0.025815	-0.00078466	-0.0013297	0.0074965	0.0090892	0.010832	0.010309	0.014518	0.0074928	-0.0043702
0.015574	-0.20113	-0.0013986	-0.0049852	0.0090961	-0.0023746	0.0058809	0.015889	-0.0011709	0.0080622	0.064761	0.064957	-0.034319	0.0025971	-0.00567	-0.0070525	-0.059419	-0.097765	0.047798	-0.00019894	0.0062594	-0.0066271	0.10528	0.019732	-0.0032464	0.011107	0.010864
-0.0053001	0.01476	-0.0093477	0.015278	0.0036022	0.038889	-0.0044536	-0.24185	-0.013326	0.020358	0.067383	0.034773	-0.016909	-0.0040082	-0.0023945	-0.0048668	-0.0088264	0.033465	0.012322	0.0029173	0.0074733	0.004307	0.015857	0.0022583	-0.00023152	-0.0023151	-0.0021576
0.0029003	0.0067823	-0.0013979	-0.011313	0.018646	0.0035567	0.0020428	0.0073021	-0.0062127	0.0053865	-0.107	0.18129	-0.032084	-0.020195	0.0010523	-0.00076363	-0.052953	0.038581	0.060174	0.0041722	0.0079869	4.0444e-05	-0.068604	0.0019344	-0.0022929	0.0026632	-0.0080698
