-0.16401	-0.12716	-0.2644	-0.50383	-1.0857	-0.50147	-0.16345	-0.44685	-1.0044	-0.63105	-0.20066	-0.37628	-0.37199	-1.034	-0.10145	-0.25075	-0.73877	-0.54946	0.54782	-0.19189	-0.15528	-0.29976	-0.32551	-0.27249	-0.75528	-0.35928	-0.15487	-0.31835	-0.62756	-0.13754	-0.2023
0.15918	-1.2801	-0.15854	0.12692	0.25976	0.070826	-0.67455	-0.048856	0.16695	0.091181	-0.018967	0.022492	-0.23199	-0.018617	-0.048866	0.026169	-0.062563	-0.17632	-0.075159	-0.021462	-0.16909	-0.53299	-0.038432	0.065579	0.23841	0.00063452	-0.73679	-0.13844	0.14246	0.15004	-0.19683
0.0083707	0.16407	0.0826	0.12113	0.18322	0.11007	0.058269	0.028168	0.13529	0.037765	-0.281	-0.81016	-0.35777	-0.062051	-0.074797	0.017968	-0.16974	-0.23633	-0.099109	-0.049618	-0.52023	0.064904	0.0079021	0.073245	0.16989	0.074229	0.093354	0.070499	0.11372	-0.00076263	0.029167
0.0079758	0.020557	0.025601	0.03793	0.099343	0.046916	0.022167	0.015625	0.044156	-0.0047517	-0.040643	0.11907	0.07915	-0.23821	-0.98481	-0.39941	0.11083	0.032029	0.17074	-0.0017276	-0.0018237	-0.014915	0.035375	0.055392	0.08595	0.039072	0.034016	0.033003	0.050084	0.00087779	0.031456
0.011325	0.0027936	0.09588	0.57828	-0.11564	0.056928	0.027113	-0.10538	-0.40648	-0.49547	0.028471	0.010111	0.16539	-0.15746	0.14197	-0.017862	0.048362	0.018381	0.060812	0.086329	0.01346	-0.04657	0.12981	0.15112	0.39105	0.14673	-0.0062751	0.088049	0.23593	0.022297	-0.012084
0.011214	-0.039932	0.022473	0.021619	0.14065	0.036693	-0.019791	0.064202	0.14383	0.048532	0.042075	-0.0035987	0.059302	0.12051	0.046057	0.22189	-0.31091	-0.046484	0.91069	0.044296	0.035786	0.098753	0.05481	0.14635	0.074865	0.032058	0.048072	-0.013094	-0.019691	0.0033793	0.027696
0.024003	-0.39502	0.10797	-0.058583	-0.15895	0.040999	0.013142	0.2285	-0.019322	-0.066718	0.37266	-0.16454	0.19698	-0.065909	-0.022263	-0.04461	-0.030471	0.0623	-0.081724	-0.076944	-0.17903	0.48783	0.1426	-0.019598	-0.042929	0.057268	0.094407	0.015984	-0.1385	0.027472	0.1346
-0.013956	0.026228	0.0095576	0.024413	0.073595	0.029056	0.025832	0.012698	0.037251	0.03502	-0.0033278	0.10933	0.022932	0.13427	0.17575	-0.6123	-0.57996	0.104	-0.091894	-0.047699	0.013785	-0.010155	0.0096731	0.0080773	0.058837	0.020628	-0.012191	0.026201	0.040935	-0.0062668	0.0097954
0.010286	0.016874	0.011104	-0.011209	0.063705	0.037449	0.015159	0.0227	0.11897	0.31568	-0.041852	0.022405	0.13504	-0.6283	0.24479	-0.077032	0.067542	0.024314	0.044148	0.0074431	0.028151	-0.0047431	0.017721	0.054636	0.053834	0.028006	0.0060264	0.030409	0.05269	0.015941	0.015514
0.020074	-0.014984	-0.043667	0.12013	0.22818	-0.67187	0.0047959	-0.081079	0.090012	-0.048902	0.04471	-0.029421	0.03603	-0.030897	-0.0025892	-0.002037	-0.0063277	0.01172	-0.02575	-0.011974	-0.017079	0.058988	0.022318	0.00039423	-0.020339	0.0041643	0.024551	0.014974	-0.0055266	0.019683	0.030557
0.021794	-0.037813	-0.006013	-0.029052	-0.023491	-0.023278	-0.066648	-0.026898	-0.016311	-0.012373	-0.11501	-0.1329	0.074494	0.1548	0.16797	-0.36664	0.38988	-0.016436	0.21332	-0.024781	-0.073016	0.019678	-0.045286	-0.030098	-0.041905	-0.02716	0.0055095	-0.026839	-0.028777	0.014061	-0.015102
-0.005388	-0.02681	0.0052819	0.014972	0.026781	0.0025397	-0.0051857	0.0042793	-0.0055956	-0.048499	0.080534	0.21881	-0.5521	-0.07823	0.066271	-0.082137	0.10122	0.027487	0.0575	0.037526	-0.0087388	0.17206	0.050014	0.024347	0.028358	0.029997	0.083508	0.023126	0.0013174	0.018413	0.031145
0.45078	0.0036892	-0.0068466	-0.05174	-0.030776	-0.018565	-0.0016378	-0.0059705	-0.001593	-0.0016833	0.016732	0.0046566	-0.0094825	-0.0022667	0.003162	-0.0022755	-0.0039829	0.0048268	-0.001634	0.0036066	-0.005282	-0.0017164	0.017959	0.0098028	0.041504	0.0096699	0.029044	0.025216	0.022028	-0.38826	-0.070638
-0.0026147	0.027831	-0.015059	-0.014002	0.00036769	0.0024235	0.0055296	-0.026998	0.0046359	0.015656	-0.029357	0.0098404	-0.004826	0.014924	0.0090144	-0.0067199	0.015085	-0.034772	0.0025451	-0.044219	-0.0060427	-0.10711	0.25341	-0.05145	-0.0809	0.45618	-0.036643	0.017746	-0.19618	0.0022763	-0.022443
-0.0048264	0.019438	-0.0097223	-0.044195	-0.085909	0.046169	-0.0010447	-0.053319	0.39935	-0.32026	0.00301	0.0043128	0.023561	-0.071873	0.032566	-0.01478	0.0050599	-0.0053783	-0.012203	0.0027035	0.020596	-0.027756	-0.0082362	-0.0044601	-0.018645	-0.0053906	-0.0054094	-0.0027287	-8.8052e-05	0.0030016	-0.0036156
0.017677	0.01762	0.014795	0.040013	0.040071	0.023096	0.024777	0.0081523	-0.0051789	-0.018456	0.052104	0.011931	-0.026625	-0.016077	0.0057815	0.031041	0.018104	0.034579	0.044283	-0.46623	0.026051	-0.04416	-0.027043	-0.13054	0.029052	-0.01808	0.0089444	0.028065	0.05581	0.013384	-0.0028405
0.0023795	0.0029535	0.0081067	0.014219	0.025767	0.0083085	0.019261	0.013051	0.014743	0.013614	0.01923	0.12495	0.055104	0.023485	0.013654	-0.029828	0.0061333	-0.45062	-0.040086	-0.0335	0.019407	0.06701	-0.02558	0.0074507	0.026448	0.0066965	0.041814	0.014165	0.015762	-0.0027205	0.013587
-0.027553	-0.032367	-0.00016741	0.0736	0.0088567	0.026473	-0.012479	0.0028826	-0.0036473	-0.0012992	0.0043742	7.6677e-05	0.0032115	-0.003698	-0.0036854	0.00017056	-0.011831	-0.006748	0.026186	0.029452	-0.017895	0.030779	0.011331	-0.032422	-0.33746	0.073426	-0.019677	0.10206	0.2984	-0.051159	-0.026255
-0.014285	-0.035453	0.00077675	0.0041549	0.0097432	0.00095055	0.029358	0.0288	0.0031425	0.013456	0.10247	-0.22577	-0.076552	-0.00090681	-0.012857	-0.053306	0.012773	-0.049653	-0.0070399	0.025123	0.37317	-0.019752	0.022312	0.0060244	0.010673	0.008331	-0.0097052	0.010442	0.017811	-0.016899	-0.0013949
-0.032945	-0.011426	0.40996	-0.063074	-0.0041474	-0.044457	-0.026926	-0.042824	0.0027787	0.0056175	-0.010816	0.016241	-0.012703	0.0032008	0.0017676	0.0031893	8.3585e-06	-0.0049864	0.0023733	0.0044237	0.0086354	-0.037593	0.0012566	-0.00053995	-0.0036371	-0.0029077	-0.026823	-0.0020678	0.0060375	-0.0279	-0.038819
-0.0072144	0.0051161	-0.0081203	0.00039401	0.0032529	0.0073479	0.002604	-0.0046626	0.0029356	0.0055438	-0.0090094	0.0011673	0.00015147	0.0056333	0.0051508	-0.00768	0.0062885	-0.027569	0.0016224	-0.0030584	-0.01821	-0.055415	0.3071	-0.012771	-0.024356	-0.20744	0.0072206	0.066255	-0.0086514	0.0033343	-0.010753
0.025977	-0.00043334	-0.0042128	-0.15666	0.26307	0.067834	0.0025262	-0.0067425	-0.10245	-0.148	0.0074319	-0.0070805	0.032428	-0.046395	0.025891	0.0027171	0.0035347	0.0031042	-0.011924	0.018364	0.0054517	0.0044255	-0.0023655	-0.00076639	-0.035719	-0.002695	0.0074856	-0.000372	-0.010192	0.021845	0.014285
-0.0036221	-0.0028498	0.00030613	1.307e-05	0.0085225	0.00011782	-0.0044062	0.0038708	0.0059336	0.0037541	0.0023357	-0.0023703	0.0037154	-0.013555	-0.0025547	0.0042904	-0.015471	-0.0079321	0.032245	0.10454	-0.0072685	0.012122	0.001121	-0.33088	0.085834	0.0085111	0.0042873	0.010763	0.035955	-0.0004495	0.0017532
-0.045721	-0.015866	0.0080706	0.0034609	-0.0028406	0.00091647	-0.023932	-0.0079659	-0.0049058	-0.0038889	-0.019203	0.0053392	-0.0076019	0.0035943	0.0087886	0.0021439	0.0075096	-0.0035244	0.0036677	-0.0030635	-0.0010988	-0.063782	-0.0031093	-0.0027318	-0.004977	-0.0022104	-0.02768	0.0043426	-0.00018291	-0.11578	0.32688
0.01511	-0.048902	0.0070154	0.02752	-0.00073183	0.0092705	-0.15244	-0.010267	-0.002179	-0.012944	-0.21393	0.013061	0.017143	-0.0048334	-0.0098486	0.029747	-0.032403	0.022036	-0.032808	-0.036338	0.098246	0.11028	0.029524	-0.013104	-0.010969	0.0054451	0.12448	-0.021495	-0.013837	0.007275	0.011813
0.016239	0.018498	0.0039458	-0.0018637	0.00088296	-0.0022886	0.017706	0.0041751	0.0019098	0.004175	0.028817	-0.0031378	-0.0017962	-0.0028187	0.00046643	-0.0069532	0.0009696	-0.0068042	-0.0051357	-0.0053582	-0.011181	-0.013704	0.071803	-0.0033248	-0.01035	0.011831	0.037584	-0.3101	0.10131	0.0088194	0.01495
0.00023123	-0.013596	-0.014318	0.0037606	0.013344	0.053227	-0.007177	-0.29206	0.010011	0.054298	0.066844	-0.019466	0.014784	0.013437	-0.010723	0.0028708	-0.0047087	0.0056171	-0.0042757	-0.0047763	-0.0034261	0.059469	0.0057475	-0.00035219	0.0040596	-0.0016474	0.01966	0.0014073	-0.0044689	0.0023112	0.012205
-0.0055048	-0.087361	0.0025663	-7.8672e-05	-0.0025815	-0.00051367	0.020406	-0.00011505	0.0033077	0.0081262	0.044935	-0.0013457	-0.00057726	0.0054371	0.006376	-0.0033959	-0.00092305	0.0021954	-0.00048271	0.021429	-0.024498	-0.15082	-0.033142	0.0038795	-0.0098501	0.0085912	0.2421	0.029283	-0.00088014	0.014781	-0.0054622
0.0047628	-0.076733	0.0029744	-0.0040284	-0.0016837	-0.0019223	0.14882	-0.018267	0.0010253	-0.0025379	-0.079321	0.011364	-0.0040341	0.0048112	0.0016132	0.0060909	0.00041416	0.0052929	0.0028001	-0.0030926	0.01294	0.013709	0.001771	-0.003382	-0.00028148	-0.0016372	-0.013878	-0.0053952	0.0014167	-0.000251	0.0039055
