-1.2571	-0.18632	-0.55877	-0.3257	0.24848	-0.063101	0.23428	0.0034769	0.063036	0.035131	0.035699	-0.099714	-0.089779	-0.064126	-0.034532	-0.032902	-0.054151	0.011164	0.057037	-0.070262	0.10911	0.052612	0.026606	0.28149	0.061522	0.10013	-0.37276	-0.20903	-1.0204	-0.93261
0.11633	-0.44783	-0.016403	0.085952	0.26019	0.0087452	-0.48823	0.054246	0.043103	-0.032083	-0.80473	-0.28818	-0.074904	-0.024818	-0.0040598	-0.071334	-0.22763	-0.088904	-0.023785	-0.41752	-0.61142	-0.16193	0.059429	0.21739	-0.053554	-0.78954	-0.24338	0.057271	-0.01313	-0.082829
-0.052952	-0.10862	-0.0079155	-0.11827	-0.88905	-0.20914	-0.12326	-0.24104	-0.50071	-0.30267	-0.15572	-0.13142	-0.36926	-0.042384	-0.096466	-0.11684	-0.11564	-0.43448	-0.16903	-0.138	0.014706	0.041737	-0.2548	-0.63703	-0.28568	0.085409	-0.24281	-0.14171	-0.064835	-0.11051
-0.033228	-0.019407	-0.034831	-0.031465	-0.057978	-0.02487	0.00671	-0.013479	-0.011742	0.058852	-0.028469	-0.017169	0.26644	1.1434	0.42076	0.11007	-0.031524	-0.072271	-0.041778	-0.019804	-0.035751	-0.039035	-0.067996	-0.080545	-0.029146	-0.005169	-0.03899	-0.0098202	-0.029485	-0.039323
0.18396	-9.3778e-05	0.19581	0.47208	0.26413	0.22296	0.096352	0.1294	0.097677	0.063572	0.071127	0.019507	0.010388	-0.021613	0.0018004	0.010956	0.0092028	-0.012817	-0.049827	0.014023	0.037748	-0.11296	-0.13792	-0.27722	-0.25498	-0.040481	-0.21047	-0.86263	-0.26429	0.0091554
0.0037075	-0.22766	-0.088903	-0.1275	-0.10324	-0.10328	-0.3594	0.002541	-0.0072453	0.029686	0.45384	0.40849	0.084707	-0.03113	0.0093221	0.042287	0.19034	0.083014	0.012852	0.22355	-0.10766	-0.080606	-0.0092977	-0.053805	-0.095321	-0.3848	-0.076517	-0.038604	-0.017506	-0.056039
-0.012513	-0.0065989	-0.0093732	0.0063804	-0.046875	-0.018822	0.0041523	-0.023462	-0.03889	-0.032021	-0.040111	-0.07858	-0.10348	-0.15914	0.30109	0.78145	0.0136	0.11742	0.051229	-0.041203	-0.0068893	-0.014683	-0.0018916	-0.048477	-0.0075217	-0.0076429	0.0058884	-0.0074576	-0.0043628	-0.010732
0.033394	0.04113	0.086046	0.022636	0.17757	-0.44889	0.0085084	-0.4256	0.092194	0.02203	0.015788	-0.0086524	-0.0023611	-0.0034876	0.0030824	-0.0056764	-0.00035952	-0.021015	0.0028592	-0.028	0.020042	-0.020789	-0.0067963	0.020586	-0.027581	0.011564	-0.031644	-0.058032	-0.0028111	0.013294
0.037274	0.0024474	0.049596	0.0035776	-0.035766	-0.0194	-0.049083	-0.010986	-0.019484	-0.013812	-0.016358	-0.012755	0.0026992	0.0041426	-0.0026861	-0.0049734	-0.01101	-0.0052422	-0.0068115	0.0029648	0.0038798	-0.015548	-0.003183	-0.02796	-0.0084894	-0.061968	0.28713	0.075792	-0.43482	0.22314
-0.013543	-0.0089453	-0.014275	-0.0073999	-0.095287	-0.022755	0.010875	-0.015506	0.018298	-0.03006	-0.025218	-0.11592	0.49988	-0.13532	-0.002207	0.018902	-0.016701	-0.010992	-0.021064	-0.014088	-0.0027888	0.012213	-0.028006	-0.04248	-0.022651	-0.0017824	-0.022873	-0.0097665	-0.0077135	-0.011292
0.0082505	0.034256	-0.30687	-0.16222	0.049851	-0.037651	-0.042414	0.033012	0.0135	0.0014414	-0.043374	-0.034627	-0.011466	0.00023424	-0.0062464	0.0025918	-0.0055146	-0.0056168	0.00683	0.0070487	0.03633	0.012561	-0.010011	0.014794	-0.028976	0.030453	-0.068272	-0.13993	0.030896	0.26769
-0.0050644	-0.0080247	-0.064883	-0.059016	0.21896	0.0052452	-0.0050794	0.038489	0.051869	0.022403	-0.010517	-0.0142	-0.0019202	-0.018337	-0.0085122	-0.0056292	-0.0089902	0.0063057	-0.042397	0.00047302	0.012181	-0.0064138	-0.054886	-0.36327	-0.0080945	-0.010687	0.045628	0.14588	0.022685	-0.05733
0.0079062	-0.0054662	-0.0042926	-0.0032698	-0.069856	-0.025296	-0.0014362	-0.02886	-0.045697	-0.02162	-0.037625	-0.04775	-0.017335	0.021211	0.022451	-0.096753	-0.011207	0.43952	-0.0046536	-0.039062	0.0045734	-0.0030449	0.027998	-0.056538	-0.034433	0.0081133	-0.014963	-0.024274	-0.0066229	-0.010564
0.00028175	-0.0068096	0.0045993	0.0074733	-0.011352	0.00074667	-0.0028713	-6.1331e-05	0.004989	-0.001431	-0.018582	-0.0036372	0.009005	0.0099473	-0.0032729	-0.028499	0.021184	-0.013839	0.43013	-0.025199	0.0089391	0.020875	-0.04908	-0.047743	-0.042023	-0.0045823	0.0019419	0.0071531	0.0013135	-0.0020513
0.0065204	0.0092894	0.0019859	0.0018756	0.17093	0.0061425	0.024441	-0.01888	-0.38077	-0.070523	0.013697	0.040603	0.057074	-0.0041941	0.008483	-0.0018964	0.00018415	-0.0032629	0.013937	0.0066703	-0.011735	0.00077984	-0.004644	0.033587	0.012758	-0.0051685	0.0037343	-0.0055544	0.004092	0.0056605
-0.0015145	7.5726e-05	-0.0020587	-0.00038101	-0.011083	-0.0036766	0.0086561	-0.0045683	-0.012178	-0.0070609	-0.00052049	0.010434	0.015087	0.0082846	0.0074078	-0.00034561	-0.010702	-0.047882	0.031195	-0.015505	0.016748	-0.0056468	0.40918	-0.092139	-0.019472	-0.0056025	-0.0056504	-0.034058	-0.0044717	0.00016167
-0.0016904	0.0041292	0.0023402	0.0034471	0.045289	0.010065	0.0055678	0.0099571	0.097757	-0.3844	0.031754	0.010798	-0.0021929	0.023985	0.0065381	-0.0028753	0.0053124	0.0043971	0.003307	0.010311	-0.015259	-0.0047808	0.0013752	0.012049	0.0073437	0.0020315	-1.2219e-05	-0.00156	0.0015337	0.0022525
0.010214	-0.00011169	0.057857	-0.011518	-0.0091491	-0.26185	0.071471	0.28351	-0.016886	-0.0016774	0.004562	0.0012507	-0.0044768	0.0001668	-0.008349	0.0031627	-0.0059145	0.00058505	0.0022751	-0.018596	-0.032546	-0.0103	-0.00080601	0.002093	0.0043949	0.0046024	-0.010676	-0.0098496	-0.0047895	-0.0003467
0.29805	-0.015081	-0.13058	-0.059005	-0.010556	-0.0077142	0.038471	-0.0049832	0.0027362	-0.0033423	0.0038281	-0.00044775	-0.0015781	-0.00094265	-0.0012244	0.0037525	-0.00043071	-0.0096415	0.0068438	-0.0087867	0.011947	0.014096	0.0071634	0.042478	0.013051	0.039363	0.010046	0.0001629	-0.086463	-0.17967
-0.0080338	0.016889	-0.013024	-0.013097	0.026031	0.017547	0.049522	0.012567	0.0056679	0.0020019	0.016109	-0.0065802	-0.0032194	-0.0053207	0.0032693	0.0017255	0.0032675	-0.0073583	-0.02041	-0.018545	0.011746	-0.090715	0.0079293	0.074746	-0.35471	0.019601	0.021672	0.093591	0.015897	-0.0084817
-0.027414	0.0048832	-0.19581	0.31172	-0.027354	-0.064947	-0.069773	0.014129	-0.016186	-0.0077866	-0.0024938	0.016928	0.0013079	0.0027362	0.0006736	-0.0041895	0.0036684	-0.0023243	-0.0043411	0.015672	0.018503	0.0031708	0.0060348	0.00044419	0.003896	0.035357	0.023906	0.07342	0.0092722	-0.011179
0.056973	0.052061	0.038737	0.033104	0.0046401	0.026015	0.036187	-0.0017631	0.0044502	0.0066312	0.037427	0.018041	0.0014114	-0.0034392	0.0035383	0.0070445	0.00049988	0.0095622	0.0038123	-0.0010795	0.0011683	0.005275	0.0073993	-0.010618	0.021333	0.0047327	-0.30095	0.16359	-0.11941	0.099209
-9.3319e-05	-0.0094309	-0.025551	-0.0025359	-0.03233	0.0029603	0.060929	-0.0066859	-0.010357	-0.0082116	-0.00080009	-0.0004468	0.00051548	-0.0087562	0.0041266	-0.014521	0.0034969	-0.0085662	0.015376	-0.054084	0.14454	-0.31759	-0.013276	-0.0040379	0.094713	-0.068483	0.00097469	0.0072207	0.017561	0.0042576
0.012642	-0.013831	0.0010177	0.013526	0.015711	-0.0015887	-0.026906	0.0094786	-0.024327	0.0045541	0.16483	-0.28513	-0.0408	0.022238	-0.017626	-0.0096414	0.015904	-0.012415	0.0075765	0.050256	0.01968	0.01124	0.012532	0.014497	0.0056541	-0.070173	-0.0012796	0.0079935	0.013452	-0.0025311
-0.0045177	0.010271	-0.048425	0.027276	-0.028257	-0.00024224	0.19012	-0.021699	0.0038524	-0.006663	0.0048072	0.035888	-0.0078674	0.0033924	0.0033714	-0.0035493	0.018243	-0.002958	-0.017552	-0.063616	0.077109	0.13359	-0.011512	-0.0055951	-0.012775	-0.21532	0.021821	0.0048943	0.024183	0.017696
0.0033809	-0.0050711	-0.0031945	0.00086858	-0.0025891	-0.0014038	0.0064498	-0.0025442	0.0051831	0.0022032	0.047206	0.029801	-0.0003042	-0.0025681	-0.0059555	0.01415	-0.3071	0.012232	0.022823	0.068071	0.019805	0.0019851	-0.0060536	0.0058622	-0.0055276	-0.026905	0.003757	0.00023088	0.010462	0.0006464
-0.012366	0.0092402	-0.057536	0.011948	-0.029573	0.014439	0.14029	-0.042712	0.0030862	0.01423	0.067192	-0.0040322	-0.0094932	-0.010056	0.0022209	-0.010022	-0.0049193	-0.0010564	0.012026	-0.0032536	-0.24817	-0.072547	-0.000477	-0.028808	0.026939	0.020068	0.02361	-0.0063558	0.0042258	0.026614
-0.0013778	0.016073	-0.0014849	-0.0024803	0.011271	0.01443	-0.063896	0.011445	0.0040166	0.0055234	0.12394	0.020998	0.007033	-0.0031743	0.0076484	-0.002108	-0.038637	-0.0046748	-0.0069249	-0.25276	0.00034634	0.025549	-0.0065892	0.0055547	0.0091065	0.034812	0.013214	-0.0049694	0.0043521	0.0081905
0.0013417	-0.0018079	0.0010197	-0.0027854	0.0025563	-0.0020001	-0.0037942	0.008514	0.0044151	0.0023321	0.0076307	-0.005361	-0.014552	-0.072468	0.22926	-0.098671	-0.0052806	-0.026584	-0.0024647	0.014806	0.0048789	0.0085356	-0.0030559	0.0038711	0.0019431	0.0015602	0.00098369	0.0005422	-1.8869e-05	0.0015795
-0.0052104	0.16509	-0.0053008	-0.0091406	-0.0090027	-0.0012929	-0.039621	0.0076156	-0.0026895	-0.00066293	-0.0094813	-0.00013865	-0.00024213	-0.0009984	0.00081455	-0.0014037	-0.0011938	-0.0010232	0.0020941	0.006871	-0.019774	-0.011505	-0.0012731	-0.0032134	-0.0012256	-0.047859	0.002896	-0.010207	-0.0049376	-0.035813
