-1.1436	-0.099765	-0.40579	-0.26023	0.21986	-0.03307	0.12039	0.0078606	0.065446	0.022509	0.11432	-0.11813	-0.08186	-0.061135	-0.053381	-0.028744	-0.089804	-0.017676	0.04881	-0.13786	0.064333	0.015337	0.025385	0.27672	0.12537	0.16617	-0.28901	-0.23576	-0.97925	-0.91343
-0.098496	0.56839	0.14671	0.065086	-0.1739	0.0072888	0.55473	0.16113	-0.050031	0.066745	0.77515	0.21974	0.057403	0.052801	-0.014375	0.087018	0.14015	0.060481	-0.0090074	0.27619	0.59788	0.15228	-0.054256	-0.22501	0.16066	0.89972	0.35073	0.010411	0.015247	0.041356
0.034547	0.096401	-0.046254	0.046238	0.69139	0.19527	0.060706	0.17019	0.42812	0.22955	0.12388	0.097142	0.26988	0.02321	0.074358	0.090519	0.093431	0.37501	0.17632	0.10416	-0.030833	-0.10446	0.20539	0.51952	0.26579	-0.15492	0.19391	0.099859	0.061039	0.12052
-0.19275	-0.0030026	-0.15838	-0.52187	-0.26316	-0.2693	-0.053084	-0.10527	-0.098654	-0.042399	-0.039643	-0.0044703	-0.0032744	0.013716	-0.0037379	-0.005836	0.0032394	0.0090812	0.024767	0.010815	-0.017881	0.096732	0.12917	0.27024	0.20719	0.0352	0.15806	0.75938	0.23937	0.0055837
0.027957	0.0055361	0.031151	0.022376	0.030586	0.011285	0.0079005	0.0098222	0.0124	-0.050431	0.021273	0.044712	-0.2273	-0.9429	-0.33651	-0.06876	0.036877	0.060451	0.027414	0.0336	0.041723	0.045264	0.049806	0.053805	0.015753	-0.017861	0.028958	0.0076828	0.022319	0.031834
-0.005975	-0.19899	-0.089306	-0.14904	-0.11702	-0.15156	-0.18548	0.017897	-0.018888	0.076989	0.42267	0.42109	0.11269	-0.014841	0.013133	0.060306	0.21692	0.10315	0.0079256	0.26271	-0.00067658	-0.085929	-0.033173	-0.088848	-0.19103	-0.29434	-0.11779	-0.059875	-0.025072	-0.042492
-0.016861	-0.0029381	-0.01219	0.012824	-0.034294	-0.018901	0.0043592	-0.020408	-0.030647	-0.023119	-0.044353	-0.061587	-0.086074	-0.12025	0.25482	0.66529	0.0045349	0.073272	0.039273	-0.032039	-0.0097414	-0.010747	-0.0033907	-0.046233	0.0011064	0.00050869	0.0068359	-0.0024264	-0.005316	-0.010869
-0.014796	-0.09426	0.14036	0.27748	-0.079315	0.11175	-0.024925	0.072442	-0.046699	0.015371	0.028371	0.051403	0.012894	0.0069146	-0.0019372	0.00060743	0.0047587	0.015473	-0.015747	0.011737	-0.033613	0.018707	0.015981	-0.03185	0.083625	-0.063982	0.055026	0.21133	-0.010741	-0.22081
-0.0037328	-0.01683	0.038295	0.0036531	0.049819	-0.0081454	-0.0023246	-0.0049997	0.021696	0.005176	-0.069186	0.0098303	-0.0010727	0.022699	-0.0089249	0.023035	0.023224	0.016496	-0.017596	0.21395	-0.1537	0.37409	0.030059	0.024929	-0.10127	0.072881	-0.020585	-0.0065921	-0.034239	0.0019615
-0.047275	0.0090233	-0.038449	0.0039755	0.03499	0.020913	0.039616	0.013458	0.023088	0.011775	0.012673	0.0083861	-0.006572	-0.0046131	0.00392	0.0027462	0.0059911	0.00425	0.0061081	-0.012406	-0.0083919	0.012617	0.0032203	0.022289	0.0085571	0.067005	-0.23396	-0.067478	0.35918	-0.18079
0.00074514	0.007439	0.005089	-0.0095398	0.029107	-0.003376	0.016543	-0.0033001	0.0020304	0.0047884	0.025956	-0.0026543	-0.00098557	-0.0070056	-0.0068542	0.031279	-0.027261	0.01609	-0.41641	0.012897	-0.015426	-0.033638	0.034142	0.055048	0.0022773	-0.0083964	0.00382	-0.0034268	0.0033333	0.00040649
-0.0028409	-0.0064749	-0.0018679	-0.002666	0.064444	0.029411	-0.0051956	0.026983	0.04979	0.029242	0.042986	0.049107	0.013434	-0.016763	-0.018455	0.071841	-0.00088667	-0.3949	0.0051693	0.037344	-0.0038154	0.001473	-0.028815	0.05121	0.033577	-0.023457	0.012035	0.021341	0.0109	0.017976
0.00057707	0.0053955	-0.033266	0.20031	0.081657	-0.32369	-0.026264	-0.1163	0.043434	-0.03199	0.032927	0.0061877	-0.0095613	0.0070241	-0.0017878	-0.0071195	-0.0024843	-0.014541	0.0053971	-0.033784	-0.00089179	0.00097767	0.0020835	0.021417	0.0070661	0.032323	0.0072588	0.016246	0.0064531	-0.004021
-0.0091601	-0.019719	-0.055977	-0.074893	0.19798	-0.0057787	-0.0032734	0.013002	0.061812	0.0098303	-0.024963	-0.017828	-0.0056968	-0.012846	-0.00678	-0.010725	-0.0064332	0.0072875	-0.031193	0.0021878	0.012944	0.0068884	-0.049531	-0.30395	-0.0011793	-0.010326	0.042059	0.11318	0.01872	-0.045641
-0.0092099	-0.00096713	-0.0063917	0.0070391	-0.060254	-0.014886	0.013067	-0.0024344	0.035155	-0.080253	-0.003957	-0.095796	0.3622	-0.094652	-0.0086034	0.017978	-0.011503	-0.010949	-0.0082797	-0.0090739	-0.0075681	0.015336	-0.020312	-0.02836	-0.012591	0.0057207	-0.017779	-0.0016581	-0.0044638	-0.0094705
0.0019623	-0.00024877	0.0024143	-0.0011147	0.0067876	0.0045249	-0.009074	0.001495	0.011589	0.0051618	-0.0027943	-0.010247	-0.01457	-0.0056819	-0.0055361	-0.00064109	0.010402	0.043007	-0.015826	0.014472	-0.014168	0.0084879	-0.35044	0.080286	0.015722	0.0062656	0.0056418	0.027767	0.0042762	-0.00064651
0.25929	-0.010963	-0.11591	-0.048604	-0.0073138	-0.0098363	0.037333	-0.0054964	0.0030683	-0.003119	0.0041681	0.00038466	-0.0011972	-0.0013564	0.00091588	0.0041147	-0.00052539	-0.0084547	0.0035917	-0.0094812	0.011267	0.015442	0.0081847	0.039714	0.017609	0.037031	0.0074819	0.0012956	-0.066251	-0.16058
-0.0035526	-0.0053785	-0.0011618	0.004404	-0.14437	-0.0018561	-0.023112	0.015032	0.29763	0.035181	-0.0077282	-0.029089	-0.053114	0.010377	-0.007156	0.0010828	0.00066301	0.0062979	-0.012972	-0.0018879	0.010343	0.00045365	0.0063631	-0.024485	-0.0099472	0.0071998	-0.0027707	0.0045318	-0.0068367	-0.0036465
0.010017	-0.038284	0.058047	-0.0076001	0.034083	-0.023881	-0.082419	0.036351	0.0006619	-0.016545	-0.10734	0.0051824	0.014538	0.01391	-0.002604	0.012571	0.012151	0.00089507	-0.015296	0.043032	0.28282	0.046299	0.0032116	0.041303	-0.03161	-0.02237	-0.035325	0.0085282	-0.0043857	-0.019765
0.04498	0.058663	0.018864	0.02165	0.019311	0.017879	0.024253	0.0061699	0.0049165	0.010567	0.035324	0.0049278	-0.0043026	-0.0023418	0.00015954	0.0062804	-0.0098423	0.0066213	0.0017684	-0.023086	-0.0010044	-0.0053886	0.0036307	-0.0081234	-0.0031414	0.01838	-0.24407	0.13496	-0.097188	0.084794
0.012187	-0.021084	-0.0090426	0.0092887	0.0078389	-0.0055175	-0.0081862	0.015191	-0.026484	0.0014157	0.13251	-0.25031	-0.04877	0.01719	-0.013388	-0.0074412	0.025316	-0.0078282	0.011039	0.086523	0.026732	0.0040344	0.010584	0.0081367	-0.0017809	-0.075908	-0.0064972	0.0051574	0.016292	0.00059413
-0.0044854	0.01233	0.0060699	0.0021097	0.0037244	0.0037817	-0.0049226	0.0028322	-0.0032092	-0.005297	-0.04492	-0.027304	0.00026845	0.0018229	0.0071104	-0.010751	0.28542	-0.020229	-0.025889	-0.057524	-0.01902	-0.0062905	0.0066483	-0.0027236	0.012106	0.028328	-0.0045793	0.0022512	-0.013111	-0.0030399
-0.0063264	0.0049652	-0.022053	0.019251	0.010399	0.11592	-0.033626	-0.24426	0.019317	-0.023085	0.031282	0.0092109	0.0032316	0.0017641	0.0068618	-0.0017787	0.01108	0.00013113	-0.0013831	0.014517	0.040168	0.011871	0.0021244	0.0019328	-0.002807	0.0014804	0.0057581	0.013898	0.0047844	-0.0040652
-0.010889	0.009582	0.00063638	0.012823	0.026901	0.019831	0.034413	0.012234	0.0081143	0.0029332	0.01114	-0.014271	-0.0031065	-0.0034398	0.0019075	0.00076806	-0.0010156	-0.0092052	0.011769	-0.039581	-0.0022725	-0.04641	0.0041113	0.049304	-0.24554	0.029782	0.044048	0.069927	0.012719	-0.029287
0.00060393	0.00551	-0.0015089	0.0056868	-0.025576	-0.022551	-0.0057678	-0.042368	-0.041341	0.26242	-0.028499	-0.030628	0.037224	-0.025173	-0.00868	0.0019295	-0.004766	-0.0026059	-0.0036802	-0.017634	0.01275	0.01192	-0.0031795	-0.013287	-0.0073601	0.0053153	0.00074865	-0.0045736	-0.0010144	-0.0035307
-0.014153	-0.09779	-0.039897	0.022359	-0.017375	-0.0062417	0.20106	-0.023295	0.006573	0.00039093	-0.029753	0.015684	-0.0049148	0.0074648	-0.0040187	-0.0013578	0.016177	0.00010753	-0.0010524	0.0054827	0.03625	0.019871	-0.0066882	-0.0010033	0.0029047	-0.067912	-0.0054777	0.0063973	0.0061843	0.038266
0.0014444	0.0044031	-0.0024643	-0.00067919	0.0012008	0.0036541	-0.0043665	-0.0063398	-0.0049164	-0.0055301	-0.0035024	0.0022636	0.0080256	0.0691	-0.21392	0.090511	0.0051605	0.019805	0.0087019	-0.023076	-0.0056377	-0.0032744	0.0016461	-0.0037024	-0.00076313	-0.003799	0.0010333	-0.0028658	0.0034516	-0.00024269
-0.025784	0.017654	-0.18962	0.086521	-0.02761	0.044517	-0.049782	0.053738	-0.022815	0.00036077	-0.02231	0.007728	-0.00059552	-0.00084501	-0.0019235	-0.002564	0.0024408	0.0019467	-0.012617	0.022164	0.02058	0.012567	0.0010488	-0.0037483	-0.0062907	0.014548	0.0057168	0.014815	0.010953	0.050122
0.0015531	0.011652	-0.0074961	-0.0064489	0.0032857	0.0098536	-0.014447	0.018026	0.0025208	-0.002447	0.07009	0.008544	-0.0020697	0.0013858	0.013295	-0.0023429	-0.0069683	0.0014419	-0.0093123	-0.14329	0.026554	0.12018	-0.004828	0.0030926	-0.0050269	-0.058729	0.013754	-0.009758	0.010466	0.010628
0.0065253	-0.1328	0.003528	-0.0046356	0.014827	0.013176	-0.029221	0.0074606	0.0010314	0.0055525	0.030483	-0.0096865	0.0026932	-0.0018207	-0.00047357	0.0022041	-0.0048383	0.0049762	-0.00040657	-0.027903	-0.0041281	-0.0046213	0.0045146	0.0077682	0.0086064	0.092545	-0.0044756	0.00094446	0.00053491	0.036391
