0.011145	0.2439	0.23743	0.57918	1.3826	0.51971	0.37816	0.39817	0.5693	0.29895	0.21616	0.63114	0.58472	0.286	0.070426	0.21812	0.35777	1.3569	0.60336	0.29329	0.35461	0.29122	0.70701	1.0903	0.53083	0.37517	0.30174	0.72055	0.22082	0.10441
-0.012025	0.01771	0.026629	0.0262	0.11147	0.055019	-0.012054	0.006073	0.047189	-0.039496	0.021807	0.0054151	-0.24909	-1.4382	-0.51982	0.14807	0.039128	0.11029	0.03993	-0.030739	0.036977	0.023177	0.042326	0.06134	0.030506	0.025088	0.0088955	0.0038193	-0.029277	0.053086
0.0072434	-0.27255	-0.12024	0.26939	0.55068	0.031737	-0.65699	-0.13832	0.072129	-0.07601	-0.14708	-0.33782	-0.099486	0.01949	0.069027	0.042517	-0.11187	-0.3	-0.15693	-0.12698	-0.5532	-0.17573	0.040468	0.50139	0.099278	-0.61731	-0.084876	0.23595	0.0047496	0.13047
0.029829	-0.005191	-0.01879	-0.026375	-0.10243	-0.04367	0.022526	0.0052525	-0.02872	-0.00041406	0.0094867	-0.097798	-0.10503	-0.093909	0.61223	1.2349	0.098096	0.1015	0.007228	-0.020319	-0.05341	0.0043195	-0.031486	-0.06329	-0.025375	-0.0014419	-0.017332	-0.0090835	0.020483	-0.075732
-0.065491	0.1095	0.089797	0.10058	0.22719	0.13395	0.20456	0.15399	0.1032	0.074491	0.13942	0.19983	0.067507	-0.096376	0.14175	0.086119	-0.064214	-1.0324	-0.32814	0.24824	0.27651	0.21771	-0.085729	0.1905	0.14066	0.2516	0.092682	0.18691	0.026516	-0.073969
-0.38882	0.21335	0.16232	-0.052748	-0.039629	0.078152	0.066051	0.028379	0.02004	0.010262	0.06339	0.055047	0.00028291	0.045091	0.034162	0.058875	0.085884	-0.058566	0.047049	0.045446	-0.13856	0.089199	0.072714	-0.013048	-0.0065449	-0.10571	0.13573	-0.14537	-0.74801	0.86233
0.69859	-0.033849	-0.0080845	-0.052643	0.016897	-0.031963	0.023727	-0.026379	0.0028305	-0.00096268	0.0059624	0.0090764	0.01515	-0.005427	0.018523	-0.018796	0.0085427	-0.019374	0.015106	-0.019722	0.026615	0.0032924	0.031635	0.1167	0.012856	0.062622	-0.11133	0.049477	-0.61674	-0.17203
-0.019444	-0.023402	0.11337	-0.049962	-0.049433	0.063485	-0.75989	0.22131	0.040403	0.011263	-0.13601	0.033974	0.033929	-0.0098345	0.074807	0.00098108	-0.02861	0.024351	0.04362	0.055061	0.3899	0.0085668	0.052324	-0.078588	0.033694	0.26062	-0.053664	-0.068696	-0.041901	0.069058
-0.029116	0.078956	0.048014	0.043794	0.034864	0.026413	0.13783	0.063028	-0.026565	0.1316	-0.083442	-0.74249	-0.21789	0.041054	0.0081616	-0.057105	-0.033919	0.029291	0.053535	0.11499	0.17084	0.076576	0.048462	0.066177	0.049989	0.13937	0.03896	0.033753	-0.027394	0.007496
-0.025778	0.077904	0.067925	0.024266	0.029574	0.068554	0.09662	0.08196	0.05934	-0.099318	-0.25571	-0.008655	0.038208	0.013463	0.0090597	0.020139	-0.20871	-0.018475	-0.064046	-0.6854	0.030178	0.098357	-0.008668	0.036365	0.021633	0.14356	0.040292	0.026102	-0.010521	0.021821
0.030443	0.0023148	0.01324	-0.048747	-0.036346	-0.0041461	0.022542	0.010035	-0.019087	-0.0004189	0.020007	0.0095045	0.0060056	0.010544	-0.0012205	0.013826	0.01419	-0.038929	-0.0035646	-0.008046	-0.0021983	0.028304	0.11077	0.41023	-0.024347	0.024477	-0.022583	-0.59983	0.089801	-0.026643
-0.00092349	0.013766	-0.024628	-0.064722	-0.14475	-0.074926	-0.0071021	-0.098017	0.69479	-0.015455	0.0094539	-0.067097	0.027736	-0.0056402	0.010379	-0.01122	0.0081643	-0.0036586	-0.0075505	0.02777	-0.027358	0.0012722	-0.033259	0.0086697	-0.02032	5.7474e-05	-0.007433	-0.0081268	0.010571	-0.0061776
0.013479	-0.006799	-0.0088722	0.00057408	-0.021263	-0.014563	0.017795	-0.022348	0.018474	0.00098547	0.007258	-0.0057136	-0.0056749	-0.0059662	0.0090858	0.0031741	-0.0093562	-0.095823	-0.059111	-0.024938	-0.024954	-0.037633	0.61438	-0.16424	-0.050954	-0.018595	-0.011218	0.016306	0.026086	-0.023004
-0.021742	0.046453	0.010796	0.025626	0.04891	-0.010371	0.025821	-0.15671	-0.026683	-0.58615	-0.086238	-0.033939	0.002414	0.017611	0.012775	0.0050603	0.00058381	0.0085882	0.020087	0.13104	0.058441	-0.022659	0.021122	0.03019	0.015561	0.098789	0.018557	0.013361	-0.0084764	0.0062087
0.014478	-0.049071	-0.02836	0.013602	-0.0037645	-0.012917	-0.059001	-0.010176	0.0040035	0.004593	-0.006447	-0.002028	-0.0040044	-0.0012519	-0.0043773	0.000932	-0.0098794	0.0039823	-0.0022014	0.00031252	-0.012789	-0.025558	2.7597e-05	-0.042454	0.056986	-0.036864	0.54682	-0.064315	-0.065128	-0.12518
-0.050991	-0.016044	-0.0071871	0.41324	-0.32583	0.036463	-0.020998	-0.036592	-0.025419	0.0097042	0.010597	0.027621	0.00029033	-0.0086357	-0.0026896	-0.0071487	0.004845	0.0033778	0.017854	-0.0031528	0.0025935	-0.0017601	0.025649	0.11961	0.03206	0.018196	-0.015393	0.062971	-0.055171	-0.041011
0.015176	-0.047619	-0.025667	-0.005776	-0.019916	-0.015279	-0.065111	-0.01439	-0.01483	-0.038474	-0.0082319	-0.004545	-0.004284	0.0050197	-0.011237	-0.012701	0.04338	0.00022374	0.069564	0.022451	-0.11165	0.51455	0.018299	-0.050212	0.0063318	-0.041125	-0.0070486	-0.0043657	0.017855	-0.040472
-0.0081269	0.009944	-0.0044984	0.0035142	0.001372	-0.0068129	0.067945	-0.046625	0.00094683	0.111	-0.47465	0.092206	0.0092004	-0.030903	0.036738	-0.00677	0.00037683	-0.0099779	0.015254	0.15536	-0.038285	-0.0065386	0.0053882	0.0021693	-0.012468	-0.01329	-0.0047604	-0.014613	-0.011878	-0.0085794
-0.0013477	0.0018991	-0.0049869	-0.012009	-0.031508	-0.022156	-0.0037204	-0.026429	-0.051359	0.013096	-0.0027139	-0.1537	0.46951	-0.091051	-0.00036202	0.016684	-0.0034276	-0.016946	-0.0037868	0.011416	-0.015883	-0.0039785	-0.005026	-0.010505	-0.004972	-0.010142	0.0023682	-0.0033452	0.0017793	0.011095
0.011771	-0.017009	-0.023191	-0.099713	-0.070053	0.4115	-0.0050015	-0.076897	0.0042304	-0.0025174	0.0026287	-0.017235	0.0017635	0.0031694	0.0037247	4.4361e-05	0.0040773	0.0021744	-0.0038502	0.0124	-0.02746	-0.0082605	-0.00015008	-0.00084264	-0.00094916	-0.01983	7.0712e-05	0.0080329	0.0075085	-0.028727
0.0019218	0.0039741	0.0089346	0.0056995	-0.0022199	-0.0042833	0.011463	-0.017918	0.0069319	0.0023878	-0.001857	-0.00052805	0.0003845	0.0017762	-0.00098636	-5.4729e-05	-0.0049265	0.009905	-0.030923	0.00027928	-0.038144	-0.019633	0.001738	-0.096148	0.39253	-0.0060415	-0.063923	-0.082511	-0.0038368	-0.0096198
0.03192	0.045593	-0.39114	0.041947	0.01944	0.017029	0.0029832	0.062757	0.0058247	-0.0083504	-0.0096029	0.00070198	0.0022489	-0.0022246	0.0069586	-0.0010257	-0.00054238	-0.0007668	-0.0096377	-0.0042068	0.035266	0.0046039	-0.0015203	-0.019904	0.0075866	0.043406	0.0024406	-0.025995	0.0070453	0.090634
-0.0037359	0.0054962	0.010502	0.003066	-0.0075484	-0.0019498	-0.0068695	0.0033524	-0.0063125	0.00083528	-0.0018538	-0.0016874	0.00033277	4.1397e-05	0.0003916	-0.007348	-0.013345	0.14707	-0.3776	0.048301	0.0056476	0.055578	-0.0011584	0.020817	-0.022402	0.0080879	0.0047123	0.0060259	-0.018515	0.0063714
0.0011444	0.0010483	-0.0031461	-0.00035937	-0.0010278	-0.000177	0.0074561	-0.011531	0.0008308	0.013152	0.051811	0.028475	0.001646	-0.011226	0.01703	0.022127	-0.38483	0.043084	0.046212	0.09141	-0.019034	0.023101	0.008394	0.00080639	-0.0061317	-0.0044205	-0.0039148	-0.0091079	-0.0096211	0.011283
0.011368	-0.015615	0.026814	-0.012699	-0.061095	0.034228	0.041455	0.34876	0.030202	-0.10519	-0.030583	-0.017188	0.012224	-0.0019119	-0.017394	-0.0024831	-0.0039992	0.0014017	0.0024964	0.05365	-0.092927	-0.027465	0.0021026	-0.0032006	0.00067194	-0.076927	-0.0062083	0.0054811	-0.0045596	-0.039371
-0.00017857	0.30953	-9.0008e-05	0.00094068	-0.0011574	-0.00049845	-0.060169	-0.0085423	-0.0090408	0.008008	0.0057421	0.0027693	-0.0030996	0.0012848	-0.0063687	-0.0012053	0.00037209	-0.00039732	0.0032959	0.0014478	-0.026012	0.0022165	-0.0011843	0.0012379	-0.0074404	-0.071691	-0.0050571	0.001313	-0.002621	-0.087947
0.0026513	0.0061525	0.0063953	-0.0008813	-0.00098457	-0.0004146	0.013442	0.0072542	-0.0056442	-0.0096333	0.02424	0.0057086	-0.012237	-0.10901	0.27057	-0.14866	0.011092	0.027993	0.010705	-0.016085	-0.011967	1.682e-05	-4.1657e-05	0.0022375	0.0013157	-0.013781	0.0063985	-0.0029244	0.011782	0.0061617
-0.0082967	0.016849	0.0024009	-0.001148	0.010528	-0.0022216	-0.030507	0.0020709	-0.0069943	0.017776	0.015	-0.006326	-0.0052012	-0.0013008	-0.0014064	-0.0075456	0.0097197	-0.0040705	-0.00047706	0.015351	-0.18108	-0.026272	-0.003359	-0.0010885	-0.013429	0.19383	0.004822	0.0053022	0.0008952	-0.010064
