2.8153	1.0091	0.56749	-0.30827	0.10728	0.37816	0.10563	-0.075136	-0.016421	0.15373	-0.091041	0.027523	-0.040278	0.13971	-0.075228	0.029547	0.061424	0.018262	-0.15356	-0.20191	-0.071632	0.016122	-0.028381	-0.35543	0.12939	0.14207	0.74819	0.20334	2.4525
0.045825	-0.13072	-0.26639	-1.2202	-0.56832	-0.096393	-0.39578	-0.61167	-0.80219	-0.32368	-0.26531	-0.32262	-0.86667	0.12487	-0.2237	-0.29476	-0.34506	0.15398	-0.18328	0.048851	-0.090601	-0.29837	-0.33562	-0.70573	-0.3871	-0.13347	-0.17253	-0.68334	-0.037314
0.26411	0.055509	0.49911	0.74614	0.48026	0.2419	0.2246	0.2454	0.08034	0.03289	0.021748	0.0080749	-0.011125	-0.0097229	-0.027756	-0.0061434	0.02385	0.012761	-0.07937	-0.010772	0.076986	-0.17839	-0.24681	-0.75353	-0.44654	-0.018248	-0.35862	-1.0601	-0.30329
0.0087431	0.17315	4.2559e-05	-0.36746	-0.12228	0.25778	0.13043	-0.0346	0.0030572	0.058515	1.2426	0.12895	-0.0049904	-0.025306	0.14848	-0.14168	0.44871	0.20653	0.21433	0.65922	0.40589	0.2077	0.074311	-0.1777	0.0021726	0.025815	0.13011	-0.11868	-0.11072
-0.014514	-0.031588	-0.063331	-0.128	-0.070244	-0.023938	-0.054193	-0.031555	0.070259	0.017333	-0.0029748	0.098498	0.51494	1.2889	0.52745	-0.10742	-0.054037	-0.14542	-0.057722	-0.05198	-0.020888	-0.064202	-0.069743	-0.078128	-0.053212	0.010739	-0.039756	-0.082263	-0.010286
-0.023677	-0.016045	0.025376	0.091769	0.063535	0.0099191	0.031575	0.043319	0.018314	0.079393	0.048277	0.008365	0.092385	0.019139	-0.43391	-1.1662	-0.12363	-0.32767	-0.057373	0.0077444	0.036453	0.0022693	-0.0070628	0.049528	0.018576	-0.021238	0.071797	0.06813	0.018286
-0.13485	0.040601	0.077508	-0.07937	0.055656	0.21796	-0.016202	0.013656	-0.014394	-0.25697	-0.079864	0.086149	0.050793	-0.0038676	-0.057754	0.010916	-0.088653	0.017833	-0.045654	-0.061788	0.090646	0.029072	0.017805	-0.1218	0.050329	0.78217	0.21556	0.0086067	-0.048706
-0.033923	-0.01454	0.1683	0.015596	0.15079	0.17774	0.071523	0.11653	0.06595	0.01704	-0.10553	0.28898	-0.67007	0.23462	0.16092	-0.10969	0.05188	0.11574	0.053707	-0.020009	-0.053908	0.027854	0.082675	0.11612	0.044187	-0.084919	0.15738	0.081832	-0.089913
-0.066237	-0.015082	-0.0078953	-0.036949	0.035163	0.082984	0.03095	0.02145	-0.11266	0.35025	-0.35637	0.026404	0.14377	-0.069217	0.081259	0.0057925	-0.06353	0.051263	0.038443	0.38312	0.1611	-0.0095729	-0.032496	-0.14882	-0.032624	-0.074364	0.31889	0.028711	-0.039449
0.00054029	0.0012881	0.077379	0.20361	0.072271	0.066026	-0.048399	-0.033948	-0.24696	-0.00118	0.028846	-0.57922	-0.1234	0.12492	0.082994	-0.023447	0.048252	0.014799	0.017857	0.048195	0.086462	0.065985	0.064455	0.091724	0.07428	0.060777	0.034825	0.058423	-0.009053
-0.083414	-0.026941	-0.060598	0.17254	-9.2293e-06	-0.28913	-0.062826	-0.0088935	0.04961	-0.12907	0.14549	-0.028966	-0.04495	0.0030288	0.030034	0.0041871	0.010152	0.027584	-0.027484	-0.068172	-0.075191	-0.10317	-0.051424	-0.15831	-0.1387	-0.057098	0.44493	0.02737	0.043799
-0.076685	0.076327	0.035121	-0.11942	0.012075	0.35694	0.14972	0.034774	-0.040438	-0.21236	-0.013266	-0.09051	0.18107	-0.096059	0.093288	-0.053922	0.0035209	0.086104	0.016704	-0.20395	-0.10247	-0.0212	-0.060562	0.01777	-0.041179	-0.24071	0.15567	0.013513	-0.0539
0.4132	-0.033669	-0.046463	-0.014669	-0.065755	-0.060813	-0.0086951	-0.005847	0.01912	-0.057271	-0.031233	-0.011986	0.043112	-0.0016183	-0.021085	-0.01632	-0.0026628	0.048992	0.011412	-0.01333	0.0093703	-0.013522	0.010658	0.049124	0.010628	0.022593	0.092606	0.084695	-0.46752
-0.0081565	-0.0021308	0.018227	0.05192	0.16811	0.020384	0.1181	-0.5517	0.08383	0.015199	-0.0087489	0.035861	0.0068317	-0.00068869	0.0010411	0.0022518	0.012185	-0.013559	0.019216	-0.0020915	-0.0092616	0.0099839	0.0098431	0.013542	0.014774	-0.0038124	0.01585	0.006878	-0.024892
-0.077718	0.48549	0.010945	-0.016996	0.0082459	-0.088086	-0.040946	-0.0068315	-0.0038443	0.054919	-0.016845	-0.010104	-0.02302	0.007649	0.0030034	0.0026127	-0.040806	-0.030176	-0.0042645	-0.014707	-0.034232	-0.0036563	-0.0024223	0.013981	0.0047698	-0.00098792	-0.011427	-0.0075997	-0.10339
0.0007617	0.0037884	-0.0013096	-0.018593	-0.008062	0.010151	-0.0018768	-0.005315	-0.0082369	-0.019451	-0.0072343	0.0041477	0.031057	-0.0080581	0.0042552	-0.00012176	-0.041411	-0.0067693	-0.086546	-0.0016298	0.0057703	-0.053984	0.46689	-0.025917	-0.099877	-0.03244	0.011842	-0.056453	0.0022185
-0.017307	0.02195	-0.025301	-0.019482	-0.026595	-0.051693	-0.025195	-0.003318	0.019131	-0.023053	-0.14896	-0.01573	0.037209	0.018435	-0.048035	-0.067158	0.36883	0.079192	0.13928	-0.027806	-0.053674	0.01147	0.047962	-0.027872	-0.013554	0.038307	-0.0067392	-0.056404	0.016871
0.013837	0.045227	0.017885	0.067987	-0.0083016	-0.025489	0.015095	0.0017662	0.01894	-0.31469	-0.087711	0.02885	0.01288	0.0098428	0.0093079	-0.014793	-0.01047	-0.0080092	-0.040752	0.28623	-0.020945	-0.0061074	-0.01527	0.045525	0.015232	-0.058308	-0.050562	0.017343	0.034418
0.015833	-0.0018893	-0.0039803	0.0095895	-0.0031984	-0.006229	-0.0013424	0.007628	0.0075417	-0.041835	0.0072743	-0.009866	0.0027384	0.008041	-0.0033216	0.0030019	-0.16373	-0.030088	0.40592	0.0069257	-0.015322	-0.036772	0.043607	0.0028975	-0.029406	0.0072984	-0.0026154	-0.029869	0.024334
-0.024093	-0.047209	0.35002	-0.12376	0.054833	-0.13603	-0.048483	-0.00029554	-0.048256	-0.00939	0.013911	0.0063202	0.068501	-0.017323	0.00018588	0.0014248	0.0038834	0.015152	0.011253	-0.0023767	-0.011622	-0.0027697	-0.00041013	0.028056	-0.0054146	-0.019113	0.0021548	0.035955	-0.024201
-0.0084106	0.011741	-0.014065	0.041621	0.0019528	-0.038914	-0.018613	-0.0086317	0.041796	0.017326	0.0020447	-0.0063998	0.039586	0.013774	-0.002106	-0.083063	-0.10041	0.35668	-0.015311	-0.0093122	0.008424	0.010191	0.0025233	0.0055337	0.0077923	0.016305	-0.058767	0.01414	0.034551
0.0093913	-0.0076624	-0.007245	-0.01807	-0.017152	-0.018426	-0.0097561	-0.0049285	0.0088937	0.018276	-0.00020299	0.0025768	0.014991	-0.0084272	-0.00039953	0.0019613	-0.012616	0.012008	-0.022359	0.014305	0.010982	-0.011257	-0.024494	0.26278	-0.002823	0.025426	0.10616	-0.24814	0.020183
0.0065254	0.011815	-0.00041172	-0.0008025	0.0013619	0.031311	0.017072	-0.0043563	-0.002994	0.023639	0.0030116	-0.0083262	-0.011536	0.004059	-0.0040595	0.0015035	0.027013	0.0043549	-0.0015906	0.023994	0.019693	-0.056512	-0.046356	0.10068	-0.31355	0.055357	-0.044042	0.10775	0.013962
0.020043	-0.0090833	-0.11201	-0.1031	0.27963	-0.05427	-0.015188	0.058113	-0.040591	-0.029581	0.01075	-0.0090091	0.014944	-0.0026624	0.0015352	0.0015934	0.004398	0.0059723	0.00065873	0.0046381	0.0065882	-0.0003991	-0.00064353	0.0098337	-0.0029102	-0.0057163	-0.011976	-0.0014546	0.00087763
-0.0067034	0.020162	0.0027218	-0.0024692	-0.013156	-0.03687	0.012177	-0.0033473	0.021883	-0.070497	-0.044676	0.015682	-0.012211	0.0059225	-0.0030005	0.0028396	0.013619	-0.0046927	0.010846	-0.089047	0.29601	-0.020253	-0.0076471	0.0046555	0.004381	-0.056748	-0.0019789	0.0053644	0.011095
-0.0062072	0.00043467	-0.0055447	-0.038504	-0.032059	-0.10698	0.29373	0.036888	-0.037133	0.0039499	-0.011069	-0.034302	-0.016726	0.017957	-0.0033384	0.00084191	-0.011485	0.0069675	-0.0053519	-0.0017798	-0.015287	0.010201	0.0052958	-0.0052867	0.0061137	0.037816	-0.0054345	-0.0061813	0.0062866
0.022962	-0.0059849	-0.013636	0.0038612	-0.014582	-0.046613	-0.013523	-0.011153	-0.0046514	-0.0017344	-0.017742	0.0089806	-0.0055334	-0.12437	0.26225	-0.10106	0.0039724	-0.030128	0.0015206	-0.019931	-0.00076482	-0.0030181	-0.0019658	-0.0051437	-0.0019675	0.049113	-0.042822	-0.011396	0.012615
0.0076927	0.0099917	-0.016753	0.093689	-0.0059891	-0.0059035	0.00076388	-0.022204	-0.25864	-0.012446	0.024563	0.14172	0.03594	0.0060812	-0.0084982	0.0019167	0.018302	0.018891	0.013709	-0.034185	0.00014694	0.0085841	0.0033826	0.026575	0.0056417	-0.0058232	-0.0046124	0.010168	0.0027328
0.0039078	-0.0028732	-0.0046152	-0.0017624	-0.0060725	-0.021091	-0.013971	-0.0018714	0.0072313	-0.022418	-0.024278	0.0049465	0.0011825	0.0031831	0.0007468	0.0015954	-0.030947	-0.012594	0.0019682	-0.022759	0.00044151	0.28962	0.0052638	-0.016225	-0.085682	-0.021257	0.018335	-0.02349	-0.00099125
