2.8473	0.042444	0.85355	0.29844	-0.14975	0.19404	-0.64255	0.083301	-0.16645	-0.13137	-0.18027	-0.13016	0.071152	0.037562	0.0056661	0.022838	-0.067199	0.3423	-0.036547	0.047472	-0.29184	-0.10032	-0.24587	-0.033886	-0.048774	-0.029955	-0.066482	0.54116	0.44902	2.48	0.91008
0.084911	-0.46638	-0.042528	-0.63276	-0.98305	-0.72653	-0.32879	-0.098722	-0.81603	-1.0046	-0.25673	-0.10419	-0.29651	-1.6619	-0.53742	-0.74546	-0.67394	-0.27046	-1.1269	-0.56875	-0.41169	-0.40283	-0.28328	-0.47616	-0.96407	-0.56867	-0.33437	-0.19453	-0.58867	-0.039079	-0.29249
-0.061611	-0.24482	-0.25777	-0.25398	-0.38475	-0.22848	-0.36532	-0.33282	-0.19586	-0.16203	-0.55279	-0.87301	-0.18095	1.3254	-0.09506	-0.15728	0.10667	-0.083369	1.188	-0.74383	-0.24936	-0.50058	-0.021068	-0.31257	-0.43529	-0.35667	-0.348	-0.18266	-0.31683	0.035198	0.052046
0.12218	0.3124	0.51165	-0.29911	-0.44444	-0.44352	0.90244	0.65576	-0.32756	-0.27017	0.34036	-0.043746	0.0025524	0.34485	-0.095246	-0.015035	-0.096681	-0.026537	0.32896	0.30974	0.15274	0.51046	0.27682	-0.033089	-0.35728	-0.19931	0.41635	0.15508	-0.23186	-0.0020481	-0.020956
0.42437	0.052009	0.18374	0.7039	0.54145	0.62577	-0.0054055	0.025926	0.25563	-0.055755	-0.035644	0.068224	0.10214	-0.044098	-0.013807	0.072607	-0.094922	-0.24497	0.050201	0.15283	0.018843	0.14798	0.071456	-0.23232	-0.68231	-0.5679	-0.042591	-0.41224	-0.83615	-0.38792	0.03395
0.047991	-0.25673	-0.024519	-0.19184	-0.20683	-0.21198	-0.38427	-0.17491	-0.14511	0.14119	0.49852	0.97323	0.53615	0.23255	0.025683	0.047616	0.041685	0.30293	0.24339	0.043454	0.085704	0.019311	-0.16929	-0.071914	-0.14843	-0.16872	-0.17791	-0.11651	-0.16228	0.014405	-0.16563
0.0004732	0.12517	0.028976	0.057813	0.077129	0.11758	0.017306	0.13558	0.053878	-0.071915	0.080759	0.25085	-0.025674	0.022226	0.10511	-0.040076	0.19196	0.12963	-0.2149	-1.0753	0.28409	0.15787	0.5308	-0.15004	-0.053722	0.058219	0.14473	0.10543	0.013555	0.044365	0.061367
-0.02121	0.084689	-0.02345	0.089904	0.081626	0.12876	-0.02985	-0.024547	0.073219	0.015336	0.085107	0.075298	0.077473	-0.034567	-1.1347	-0.53933	0.15657	0.0079373	0.19188	0.0099065	0.022645	0.084873	0.076217	0.057255	0.12519	0.067088	0.017702	0.0024212	0.070691	0.010032	0.082927
-0.023215	0.023362	-0.015965	0.066896	0.088061	0.07258	0.08081	-0.012812	0.058675	0.052643	-0.041338	0.10479	0.062053	0.11654	0.11503	-0.36213	-1.0507	0.12233	0.12342	-0.10603	0.048003	-0.031839	0.032496	0.035783	0.13548	0.049144	0.030361	0.015517	0.060114	-0.011127	0.057055
0.23506	-0.18686	0.19321	-0.064297	0.4891	-0.27025	0.069714	0.089814	0.040069	-0.28253	-0.064339	0.12849	-0.061498	0.083847	0.0065364	-0.099646	0.054044	-0.1816	0.066381	-0.071868	-0.088288	-0.15481	0.012797	0.078144	0.23086	0.015086	-0.042962	0.061029	0.0091692	-0.068637	-0.52364
0.026434	-0.14024	-0.013153	-0.028847	-0.023185	-0.024571	-0.20449	-0.0028152	-0.020248	-0.042139	-0.15379	-0.06721	-0.081306	-0.01341	0.0023485	-0.026241	0.001335	0.41856	-0.039776	0.33726	0.10658	-0.13759	0.68908	0.10002	-0.050532	-0.0083614	-0.0011435	-0.042491	-0.052657	-0.017222	-0.1075
-0.0012651	-0.0082116	-0.0039156	0.00046214	0.026614	-0.00080467	0.0068534	-0.003969	0.022679	-0.014103	0.012679	0.0057902	-0.0066824	-0.019016	0.0049961	-0.013	-0.0034631	-0.0045284	0.038356	0.1586	0.00932	-0.0069166	0.06875	-0.87552	0.15268	0.15915	0.023072	0.0075327	0.061438	0.0071401	-0.033757
-0.0016231	0.018696	-0.010325	0.016767	0.032159	0.011816	0.010601	0.044362	-0.037773	-0.0010872	-0.019125	0.032411	-0.073873	-0.57318	0.090361	0.099601	0.020348	0.083644	0.67313	-0.09038	0.028288	-0.012087	0.016754	0.033542	0.022604	0.018923	0.018297	0.022789	0.002655	0.0096078	0.012857
-0.0008733	-0.003466	-0.13141	0.68094	-0.15718	-0.4319	-0.013073	0.021856	-0.06982	0.0019556	0.0087367	0.0076837	-0.001084	0.014318	0.0078606	-0.013182	0.013991	-0.0029138	-0.0016523	-0.014447	-0.0060245	0.0042775	0.013679	0.0069132	0.042443	0.02616	0.0078067	0.030542	0.031501	-0.020439	-0.018894
-0.025418	-0.15881	-0.061464	-0.0051035	0.0012484	0.035256	-0.11565	0.63937	0.049914	0.30361	0.11102	-0.11436	0.080862	-0.021825	-0.02339	-0.034016	-0.012007	-0.0078295	-0.026363	-0.047443	-0.063361	-0.19682	-0.03513	-0.026642	-0.035097	-0.019164	-0.078936	0.00064326	-0.0070067	0.019944	-0.050782
0.038525	-0.20666	0.022274	0.042324	0.069099	0.016324	0.22577	-0.02254	0.041204	0.026032	0.0094447	-0.089327	-0.14625	0.014353	-0.0893	0.079236	0.014679	0.57095	-0.06341	-0.10003	-0.12008	0.12235	-0.24945	-0.049935	0.01929	-0.056652	-0.050531	0.049947	-0.042311	-0.088479	-0.041418
0.17295	0.01279	0.14974	-0.032197	-0.035179	-0.01932	-0.20212	0.034223	-0.03004	-0.054762	0.01289	-0.0014508	0.014292	0.017915	0.015281	-0.0087608	0.0040804	0.0033911	0.012512	0.0052632	-0.056181	-0.036583	-0.014181	0.0010713	0.0023231	0.050296	-0.0057131	0.339	0.079387	-0.4966	0.24458
0.37918	0.056158	-0.50962	-0.14303	-0.0054847	-0.081085	0.12231	-0.0050315	0.022017	0.092265	0.010976	-0.0073887	-0.0065333	-0.012518	-0.011157	0.01474	-0.0085219	-0.03644	-0.0088004	-0.0043452	0.036015	0.077212	0.043985	0.0095657	0.022736	0.019353	0.02402	-0.082959	0.0042374	-0.15133	-0.028344
0.017457	-0.012941	0.025506	-0.027254	-0.24643	-0.06042	-0.0015968	0.01634	0.606	-0.13689	-0.0019921	0.025554	0.0093565	-0.025126	0.012923	-0.0072022	0.00057603	-0.0053275	0.027529	0.0027345	-0.021843	-0.0090507	-0.0043961	0.0090562	-0.0040354	-0.020365	-0.0017231	0.0093536	-0.0064327	0.0059668	-0.031764
-0.029523	-0.0078797	-0.010253	-0.026606	-0.059668	0.006013	-0.18522	0.14774	-0.023681	0.061858	-0.40063	0.15517	-0.072579	0.030113	-0.0010501	-0.01795	0.0047449	-0.015147	0.0090244	0.016858	-0.059696	0.3407	-0.063011	-0.011921	0.088848	-0.083255	0.097556	0.0088955	-0.026406	0.0022671	-0.065534
-0.10515	0.056262	-0.058609	-0.096734	0.29731	-0.29268	-0.068937	0.020843	0.10176	0.0021696	-0.0018154	-0.0070227	-0.0042296	-0.016995	0.0034793	-0.016467	-0.0043475	0.041438	-0.016379	0.03053	-0.0065549	0.057671	-0.0060725	-0.025083	-0.11406	-0.047813	-0.0054563	0.023342	-0.045651	0.085047	0.24162
-0.002832	-0.013132	0.0081037	0.021801	0.035795	0.014916	0.012299	0.0091981	0.0056212	-0.027371	-0.0040887	0.0094363	0.0068148	-0.0010447	0.00084985	0.0015884	-0.0025039	0.0031712	0.013809	0.0078013	0.0030489	0.021071	0.014066	-0.03227	-0.14868	-0.23628	0.0040008	-0.10907	0.43353	-0.047079	-0.027335
0.010014	0.15527	0.018836	1.2207e-05	-0.018582	-0.0146	0.17651	0.032903	0.00020607	0.067648	-0.24986	0.18563	0.0079693	0.0069391	0.0069974	-0.065777	0.078597	0.074607	-0.021289	0.021517	0.070544	-0.28247	-0.069703	-0.017731	-0.050527	-0.011681	-0.015282	0.0081246	-0.0068416	-0.02206	0.053357
0.003073	-0.046141	-0.0070805	0.015981	0.027223	0.012984	-0.0041316	-0.0032519	0.017862	0.011608	-0.056855	0.024887	-0.0027943	0.018435	-0.016994	0.0054067	-0.019265	-0.0057993	0.020515	0.01004	-0.01077	0.056025	-0.033357	0.014088	-0.30874	0.32325	0.0041244	0.029536	0.066418	0.0067567	-0.092533
0.0097987	0.013998	0.022919	-0.0027413	-0.021674	-0.0055805	-0.035985	-0.018103	0.015346	0.11016	0.11356	0.1185	-0.37974	0.039985	-0.013768	-0.0020383	-0.021814	-0.056757	0.0071436	0.018841	-0.011739	-0.036421	0.010293	-0.0020165	-0.028199	-0.017892	-0.013989	-0.0036701	-0.0028859	0.0067753	0.0056536
0.0036669	0.32061	0.00033775	-0.0030244	0.0087398	-0.0015182	-0.13416	0.046149	-0.0086942	-0.058249	0.057227	-0.046164	-0.0079994	0.01066	0.0067457	0.0049205	-0.012946	0.11882	-0.0065757	-0.009372	-0.080249	-0.0030303	-0.05151	-0.0025361	-0.0023905	0.022966	-0.013268	-0.063929	-0.0013846	-0.016876	-0.13321
-0.042746	0.034371	-0.10172	0.012919	0.021848	0.044746	-0.010586	-0.053844	0.014883	0.039827	0.014157	-0.019366	0.016716	-0.0055015	-0.019178	0.014046	-0.017484	-0.011826	-0.00097594	0.02441	0.031007	-0.027932	-0.0073925	-0.021867	-0.070228	-0.13478	0.068579	0.31651	-0.018464	0.069916	-0.13792
-0.0078733	0.059449	0.010685	0.0018672	-0.011167	0.0029801	0.06195	0.011775	-0.00086438	0.019683	-0.026501	0.0077653	0.0037645	-0.0094304	0.0035105	0.0079628	-0.0092229	-0.027876	-0.00071112	0.010104	0.016533	0.10103	0.063385	-0.00299	0.0079465	-0.0093982	-0.37398	0.076582	0.013677	0.011712	-0.013844
-0.054875	-0.030072	-0.15787	0.036517	0.013222	0.11557	0.015955	0.10922	-0.037696	-0.25383	0.026975	0.096287	-0.048028	0.050087	0.029903	-0.010155	0.019568	0.015924	0.017822	0.045851	-0.072729	-0.022712	-0.011217	0.013979	0.0060838	0.017457	-0.022809	0.037292	0.0078289	0.042289	0.085458
0.012215	-0.014784	-0.0051695	0.0018224	0.0035868	0.00020719	-0.062861	0.03861	-0.0034415	-0.069374	0.0025033	-0.047352	-0.044297	0.010388	-0.00016885	-0.015889	-0.00065438	0.020268	-0.00086301	0.02093	0.2882	0.010718	-0.10303	0.0011053	0.0073381	0.0044813	-0.022297	-0.011765	-0.001073	-0.0064889	-0.013833
-0.0061996	0.0094131	0.0022736	-0.0054019	0.0034836	-0.019941	-0.009787	0.023562	-0.0017405	-0.031783	-0.041491	0.03095	0.0050217	0.013946	-0.14227	0.25722	-0.09661	-0.020761	-0.011502	-0.026066	0.018646	-0.046493	0.017756	-0.0041672	0.016361	0.0048895	-0.00079753	-0.0067386	0.0051605	-4.4098e-05	0.0097051
