0.055714	0.15078	0.32582	0.6002	0.27461	0.10205	0.14913	0.45692	0.50516	-0.11518	0.19886	0.26211	1.1944	0.029686	0.3117	-0.096753	0.75576	2.2498	0.3321	0.27256	0.029156	1.3303	0.65142	0.33441	0.31335	0.1278	0.12159	0.075227
0.031283	-0.38552	-0.54323	-1.1817	-0.42182	-0.6978	-0.4896	-0.49847	-0.26069	-0.99114	-0.80957	-0.62113	0.31342	-0.43175	-0.059302	-0.55065	-0.38738	1.3234	-0.36679	-0.5623	-0.31381	0.13995	-1.3317	-0.35926	-0.50499	-0.3126	-0.63184	0.16993
-0.0059737	-0.049542	-0.10598	-0.13763	-0.077672	-0.10056	0.034873	-0.0064184	0.055409	0.056037	-0.060555	-0.057003	0.57342	1.6629	1.092	-0.049448	-0.14373	-0.17436	-0.064542	-0.054757	0.0043471	-0.14097	-0.14004	-0.088387	-0.14811	-0.047365	-0.08553	0.0053499
0.0089527	0.042355	0.075045	0.07902	0.084789	0.047102	0.090428	0.12137	0.12155	0.019458	0.034652	0.1302	0.23002	0.24511	-0.59366	-1.8091	-0.16951	-0.219	-0.030003	0.036591	-0.052779	-0.048686	0.11421	0.045856	0.12967	0.037287	0.07031	0.013769
0.27274	0.13794	-0.90549	-0.16208	-0.25013	0.5751	0.032639	-0.035467	0.087516	0.63809	0.37101	0.18314	-0.012935	-0.0072626	-0.029591	-0.062388	0.26383	0.18282	0.20635	0.33989	0.033438	-0.096548	-0.62094	-0.12553	0.44936	0.13038	-0.4108	0.039361
0.47039	0.002415	0.3279	-0.2555	0.12722	0.076785	0.01006	-0.17202	0.097479	-0.12495	-5.1299e-05	0.085122	-0.019847	-0.024035	0.13243	-0.026645	0.046103	0.049683	0.013078	0.016082	0.053131	-0.081843	-0.44432	0.16312	0.30593	0.10976	0.61757	-0.72315
-0.0050071	-0.015633	-0.044275	-0.091167	-0.0061955	-0.01021	-0.019665	0.079644	0.1424	0.021253	-0.0053261	0.15314	0.83215	-0.38662	0.034422	0.10861	-0.098916	-0.31042	-0.0295	0.0041606	0.036986	-0.13805	-0.026813	-0.026433	-0.040874	-0.0056069	0.017849	0.010236
0.031684	0.051654	-0.22491	0.7483	-0.12902	-0.049992	-0.16283	0.10205	-0.097837	-0.15144	-0.088779	-0.076215	0.027922	-0.050437	0.092201	-0.023008	-0.065217	-0.015097	-0.18411	-0.058256	-0.050808	-0.048991	-0.30565	-0.020101	0.088823	0.042738	0.2515	0.06209
-0.0010589	-0.0047992	0.086194	0.2433	0.0050604	0.03013	-0.012591	-0.8902	-0.070566	0.11349	0.010704	0.054084	0.14636	0.022338	-0.068417	-0.0084764	0.021334	0.023596	0.0047134	0.012661	0.01547	0.012317	0.067729	-0.025016	-0.03596	-0.010367	-0.075275	0.0034703
-0.15486	-0.068874	0.01636	-0.0085537	-0.0037012	-0.026527	-0.041496	-0.0023595	0.015909	-0.012009	0.00065789	0.018346	-0.0003275	0.0020685	-0.0016929	0.002678	-0.0019954	0.014984	0.0056048	0.00017189	-0.17932	-0.017758	-0.0070208	-0.085061	-0.15897	0.88432	-0.071477	-0.10495
-0.29662	0.036551	0.04669	-0.12644	0.040457	0.25944	-0.15295	-0.024254	0.060815	0.015433	0.18512	-0.0085038	0.0084429	0.019304	-0.00084893	0.016863	0.10577	0.043688	-0.69275	-0.2688	0.020357	0.0033919	0.063332	3.7816e-05	0.25627	-0.0032754	-0.011512	-0.032978
-0.19226	0.0046014	0.0064306	-0.033233	-0.019918	0.29895	-0.30369	-0.051104	0.018898	-0.39796	0.06137	-0.017751	0.024204	0.04161	0.019187	0.028005	-0.066435	-0.070148	0.37179	0.0083018	-0.33451	-0.037655	0.09878	-0.089822	0.29592	-0.070239	-0.011995	-0.0065002
0.0050934	-0.076339	-0.066123	0.0086956	-0.013125	-0.1952	-0.019716	-0.007451	0.0072048	-0.21308	0.16758	0.73337	-0.11282	0.040702	0.0081414	0.0071181	0.11231	0.0088245	-0.0097826	-0.14509	-0.020349	-0.036157	-0.060528	-0.016733	-0.073137	-0.046818	-0.038461	0.04482
-0.11716	-0.027234	0.033696	-0.045197	-0.009902	0.075542	0.031166	0.011022	0.027843	0.28417	0.054713	0.04532	0.0025687	0.0041767	-0.038567	0.010048	0.04048	0.090257	-0.040678	0.045801	-0.53743	-0.026722	-0.088366	-0.086925	-0.29497	-0.15386	0.33987	0.050484
-0.0061022	0.010621	-0.28353	-0.0021676	0.74633	-0.079259	-0.085347	-0.029461	-0.053215	0.0062705	-0.018642	-0.032336	-0.0026222	-0.0034708	0.022662	0.0027251	-0.0020133	-0.01088	0.0067404	-0.0046251	-0.039313	-0.0057816	-0.010901	-0.0083813	-0.0046184	-0.0035484	0.016591	0.0047011
0.013292	7.864e-05	0.005818	-0.029932	-0.002824	0.0094296	-0.0049939	-0.020669	-0.0057244	-0.001537	0.017083	0.019044	-0.013439	0.0028112	0.007721	0.006068	-0.030785	-0.3122	-0.02846	-7.9494e-05	-0.064621	0.68446	-0.1713	-0.04895	-0.0022853	-0.0028013	-0.027918	-0.0059
0.089369	-0.66038	0.037863	0.060401	0.057756	0.20413	0.095345	0.023264	-0.0064041	-0.018662	-0.0092856	-0.013997	-0.002418	-0.0034745	0.0071617	0.0012353	-0.0063067	-0.0018644	-0.028651	0.0090655	0.02809	-0.0019767	-0.018666	0.0077003	0.030871	0.0022405	0.00015359	0.11091
-0.41223	-0.025108	0.041826	-0.01306	0.029716	0.033563	0.021233	-0.016406	0.024343	-0.0080095	0.055392	-0.0060253	0.0031334	0.025743	-0.043255	-0.0061192	0.029039	0.018321	0.1455	0.060541	0.26732	-0.0021349	-0.24076	0.073859	-0.073157	-0.012465	0.14076	0.037554
-0.023236	0.017682	0.010938	0.0045148	0.019187	0.035105	0.023203	0.0063935	0.0016919	0.091494	0.056114	0.11539	-0.029242	0.0050818	-0.010034	0.05606	-0.53664	0.13612	-0.018072	0.018024	0.019017	0.038097	0.0083598	0.03306	0.062961	0.013832	0.0066094	-0.0021343
0.12266	0.10226	-0.028046	0.015124	0.0245	0.36343	-0.11122	0.02039	0.0034053	-0.11864	-0.073872	0.061384	-0.011873	0.020341	-0.019451	-0.0068639	-0.022444	0.014577	-0.040786	0.018529	0.12556	0.014901	0.026501	0.020173	-0.34576	-0.0043589	-0.0045219	-0.032188
-0.015253	-0.00095081	0.0028065	0.015948	-0.0043998	0.0023302	-0.020387	-0.0049844	-0.0079171	-0.0025514	0.0073129	-0.011377	0.0090949	-0.001627	0.010167	0.0053681	0.0070557	-0.03808	-0.008804	-0.00071092	-0.14471	-0.017142	-0.065083	0.50116	-0.029384	-0.00074025	-0.13689	0.0013678
-0.058498	0.0787	-0.10711	0.0060466	0.010711	0.097352	0.42788	-0.048792	0.028661	-0.17608	-0.049889	-0.0094509	-0.0044426	-0.024021	0.029998	0.0090101	-0.012731	-0.0099831	-0.030363	-0.041671	-0.070586	-0.0080069	0.0043508	-0.0027168	0.018314	0.0064791	0.011946	-0.0099341
0.028608	0.0087096	-0.00027451	0.02896	0.003051	0.050894	0.015273	0.017074	0.0029719	0.11167	0.021657	-0.032393	0.010807	-0.012524	0.0047839	-0.010689	-0.0025661	0.0061958	0.15827	-0.40058	0.022079	0.010925	-0.010936	0.0084639	-0.017785	0.011109	0.0058247	-0.0064817
-0.014732	0.015024	0.03892	-0.025853	0.0015428	0.042845	0.038502	0.049617	-0.39783	0.010827	0.021058	0.03462	0.07307	0.0047977	-0.0072522	-0.0067394	0.020299	0.018318	0.0039125	0.0067806	-0.0030179	0.0048924	-0.0010151	-0.0017165	0.024471	0.0071321	0.0030544	-0.025148
-0.039702	0.0046825	0.030941	-0.0039802	0.0018332	0.02411	-0.012413	-0.025563	-0.01597	0.034435	0.023285	0.013731	-0.078663	-0.18085	0.31609	-0.13722	-0.0059798	-0.0068093	0.014898	0.025281	0.008544	-0.0012274	0.028334	-0.0061026	-0.022574	-0.0064799	-0.017052	0.019182
0.05801	-0.0024387	-0.0036862	0.0076036	-0.00045618	-0.036471	0.019357	-0.0076377	-0.0058508	-0.081614	0.28572	-0.10163	0.015943	-0.0049684	-0.0059183	-0.0044938	-0.022561	0.001469	-0.0058344	0.0044872	0.0048597	-0.0075429	-0.0084468	-0.0085582	-0.075756	-0.002016	0.0020799	0.0021148
