-0.13847	0.036671	0.008413	-0.56876	-0.68129	-0.3601	-0.11162	-0.2323	-0.31422	-0.13924	-0.31002	-0.30461	-0.90843	-0.14853	-0.35431	-0.12194	-0.31371	-0.87104	-0.51195	-0.084732	-0.37804	-0.1987	-0.69362	-0.71055	-0.57508	-0.25413	0.079408	-0.71842	0.28674	-0.41383
0.1406	-1.3585	-0.32959	-0.060286	0.019011	-0.029525	-0.26725	-0.030781	-0.015147	0.052066	0.057034	-0.018709	0.032392	0.030498	0.0023938	0.0030997	0.031381	-0.0042532	0.0086087	0.18868	0.10964	0.11242	0.051849	0.058481	0.023412	-0.70113	-0.48203	0.030668	0.021876	-0.27739
0.14892	0.018751	0.06254	0.144	0.22814	0.19545	-0.1581	-0.28056	-0.12636	-0.89295	-0.60009	-0.52004	-0.056635	-0.097262	0.018054	-0.083761	-0.29822	-0.071957	-0.069631	-0.4454	-0.34648	-0.086602	0.14039	0.1799	0.2429	-0.18043	-0.18195	0.36659	-0.12887	0.17956
-0.0326	-0.012875	-0.027868	-0.004137	-0.067742	-0.061378	0.0098152	-0.0034751	0.017602	-0.069228	-0.019208	-0.033889	0.20332	0.81053	0.74184	-0.12678	-0.12972	-0.16968	-0.029995	-0.092719	-0.02198	-0.04228	-0.061066	-0.058282	-0.081809	0.036874	-0.021994	-0.10316	0.066323	-0.02294
-0.019381	0.016055	0.0092662	0.079554	0.069413	0.040718	-0.00078149	0.022435	0.045717	0.028133	0.040425	0.093006	0.11973	0.10315	-0.3022	-0.91355	0.098782	-0.25314	-0.038599	0.06055	-0.018759	-0.0061838	0.0048399	0.074498	0.051865	-0.0018662	-0.0053063	0.077119	0.019901	-0.012877
-0.057662	-0.011879	-0.02959	-0.12899	-0.092535	-0.072998	-0.013938	-0.022742	0.067274	-0.058899	-0.16618	0.010498	0.78954	-0.095274	-0.20743	0.10385	-0.085137	0.0052948	-0.086082	-0.052858	-0.091913	-0.038552	-0.089348	-0.079544	-0.11381	0.027677	-0.014612	-0.13052	0.059518	-0.058871
0.045976	0.027196	0.044712	0.088892	0.084669	0.066002	0.040399	0.02327	0.06101	-0.01125	0.089871	0.059203	0.088235	-0.033313	-0.012083	0.27258	0.20915	-0.71584	0.15666	-0.0072331	-0.013849	-0.010753	0.057607	0.088655	0.058055	-0.094655	0.035104	0.067263	0.02546	0.040687
-0.0028997	0.029284	0.011134	0.0051585	0.036434	0.040275	0.049559	0.10999	0.02945	0.19886	-0.071724	-0.11352	0.011659	-0.040635	-0.040285	-0.003928	-0.6017	-0.16709	-0.028577	0.0080373	0.37513	0.15014	0.057576	0.048361	0.043864	-0.030686	0.022281	0.043974	-0.021723	0.016937
0.015508	-0.082879	0.014282	0.019969	0.052108	0.017389	0.048432	0.10898	0.05774	0.29236	0.034074	0.12368	-0.040395	-0.00036728	-0.033651	0.002797	-0.083526	0.016	-0.023626	-0.4998	-0.20612	-0.18362	-0.021736	0.0044256	0.013207	-0.032324	-0.036665	0.038634	-0.012717	0.026947
0.033684	0.013939	-0.046723	0.034715	0.030081	0.041042	0.1119	0.033438	0.010693	0.22067	-0.54651	0.096583	-0.031954	-0.030383	0.099709	-0.020788	0.14845	-0.0033222	0.003853	0.09538	-0.012132	0.05507	-9.3339e-06	-0.029326	0.01108	-0.084583	0.048595	-0.013683	-0.014383	0.021453
0.082635	0.004772	-0.0334	0.091692	0.14461	-0.56936	0.042514	-0.071697	-0.046138	0.0029154	-0.0033544	-0.017069	0.01337	-0.014143	-0.0069968	-0.018809	0.011825	-0.015508	0.039063	-0.041009	0.053694	0.002062	0.0051088	-0.057832	0.019299	-0.044632	0.054145	0.020424	-0.12749	0.078161
0.17305	-0.049026	0.037529	-0.38769	-0.079942	0.068269	0.044942	0.016244	0.015857	-0.022186	0.035782	0.032574	0.026202	-0.056999	0.076964	-0.07217	0.023095	-0.035608	0.069494	-0.012385	0.029198	0.0012531	0.030766	-0.13419	0.042113	0.0023161	0.038381	0.029937	-0.26664	0.21034
0.044566	0.12246	-0.14637	-0.035851	0.030373	-0.010102	-0.53234	-0.021626	0.034794	0.1393	-0.021325	0.0059485	0.0055384	-0.00019564	0.026457	0.0076622	-0.0059824	-0.026321	-0.0086968	0.020452	-0.050143	0.019856	0.01716	0.0031099	0.010137	0.0086079	0.050227	0.033632	-0.030919	0.040293
-0.019941	-0.069128	0.54841	-0.032997	0.021119	-0.061745	-0.1487	-0.022188	0.00037258	0.06159	-0.051502	0.011354	0.012891	0.0067428	0.023633	-0.0005335	0.015086	0.013061	0.0089799	0.024468	0.0033665	0.025401	0.0077884	0.015812	0.018667	0.0018251	-0.028452	0.0088675	0.0043765	-0.073743
-0.048027	0.011541	-0.021082	-0.040066	-0.083625	-0.050099	-0.023502	-0.0035302	0.00015878	-0.015525	-0.061915	-0.014727	-0.035493	-0.010052	-0.032341	-0.054756	-0.0543	0.0074647	0.41551	-0.058354	-0.054776	0.032894	0.23971	0.055477	-0.082698	0.048127	-0.099032	-0.21454	0.074125	0.0038713
-0.10622	-0.0059775	-0.0058097	0.043901	0.067466	0.029064	-0.0086218	0.0057318	0.021973	-0.001067	0.0082789	-0.0039409	0.0081559	0.0094291	-0.014253	0.002836	-0.011203	-0.0039431	0.076385	0.0099044	-0.0062198	0.012978	0.10132	-0.46307	0.1154	0.027608	-0.055108	0.15166	0.11781	-0.021188
-0.21149	-0.10693	0.039895	0.042106	0.013755	0.0073384	-0.027366	-0.0080708	-0.01033	-0.00075589	0.010418	-0.0018341	-0.0065809	-0.0017481	-0.010003	-0.0012842	-0.015612	0.0081315	-0.033674	0.035503	-0.021033	0.0070858	-0.038673	0.010028	-0.053492	-0.068048	0.080444	-0.060049	0.12754	0.43207
-0.00058865	0.1376	-0.0018607	-0.02468	0.00043031	-0.039398	0.020356	-0.00043065	-0.015176	0.060285	0.0086845	0.017588	-0.004237	-0.011711	0.0099165	0.014941	0.019917	-0.026348	-0.079745	0.046657	-0.00084577	0.024874	-0.049172	0.018099	-0.0034097	0.014467	-0.45477	0.0058354	-0.0045813	0.11324
0.021572	-0.03311	0.020234	0.2565	-0.38966	-0.0082263	-0.025949	-0.0035896	-0.0046333	0.025887	-0.0056013	-0.0050781	0.022572	-0.0095814	-0.0060357	-0.00032832	-0.011645	-0.013788	0.0084077	0.010285	-0.0093222	-0.02583	0.016392	-0.03847	0.037931	0.020455	-0.01125	0.065117	-0.15225	0.052786
-0.055198	-0.00018182	-0.0085131	0.042827	-0.0035726	-0.0128	-0.0092923	0.020642	-0.00489	-0.023577	0.054241	0.02471	0.044232	-0.32773	0.29335	-0.11319	-0.012331	-0.030901	-0.011189	-0.028795	0.00028072	-0.0012258	-0.018715	-0.0046357	-0.018525	-0.0088462	-0.0020252	-0.024696	0.048305	-0.046851
0.0011407	0.022693	0.0087856	-0.0066886	0.032022	0.0079203	0.0013036	-0.016504	-0.0076539	0.033104	-0.014251	-0.029833	0.0085378	-0.010717	0.013163	-0.002555	-0.059942	0.010875	0.065708	0.15446	0.036365	-0.41319	0.012449	0.01151	-0.019096	-0.054085	-0.012625	0.030577	-0.0032551	0.0012107
-0.047102	0.17735	0.024984	-0.011201	-0.052065	0.022315	0.013583	-0.030603	0.026387	9.089e-05	0.056692	-0.0034573	0.029308	0.026591	-0.00065423	-0.012612	0.039046	0.067263	0.013679	-0.058611	0.052229	0.03384	0.040943	-0.018509	-0.0050225	-0.36278	0.021024	-0.011528	-0.010992	-0.027573
-0.042203	-0.022775	-0.0138	-0.0050484	-0.026772	0.01874	-0.060954	-0.050247	0.012106	-0.049869	-0.058591	-0.0009322	-0.011568	0.0008268	-0.018956	-0.0079597	0.13798	-0.0045782	-0.010344	-0.17459	0.30617	-0.074143	-0.020622	-0.014051	-0.02313	0.064675	-0.028905	-0.028554	0.025614	0.0071879
-0.0076133	0.0078715	-0.0034891	0.013206	0.010261	0.021308	-0.0099777	-0.0084514	0.0085753	-0.004426	-0.0055166	-0.0064707	0.0064037	0.0033722	-0.0049621	-0.0083059	-0.025118	0.026309	0.22655	-0.0068544	0.0083626	0.037294	-0.32641	0.0036187	0.027966	-0.017489	-0.0090438	0.070981	-0.0026109	-0.0035991
0.0021578	0.010525	-0.00039624	0.0061377	0.016654	0.038768	-0.016371	0.05032	-0.37593	0.033168	0.012203	0.019351	0.051578	0.011034	-0.0052318	-0.00083014	0.013727	-0.0061269	0.020336	-0.022808	0.016122	0.0040342	0.0083056	-0.0079768	0.0031939	-0.010764	0.0082879	0.0043489	-0.0061976	-0.00089777
0.0026323	-0.0018928	0.0053817	0.0022227	0.008277	0.0035213	0.0062649	0.0032841	0.0015006	-0.00055718	-0.0044114	0.00050846	-0.0044013	-0.00095519	0.0005879	-0.0027169	0.0036843	-0.0016721	0.018473	-0.0047899	0.0011673	0.029077	0.031068	-0.0070557	-0.29981	0.0042334	-0.0020673	0.18228	-0.015635	-0.0016293
-0.0077035	0.0077034	-0.0011038	0.0076515	-0.00038084	-0.0091903	-0.026763	-0.022662	-0.0067323	-0.11916	-0.027832	0.30222	-0.030966	0.0084908	-0.011135	0.018586	-0.092466	-0.0018867	-0.0056682	0.011417	0.015231	-0.0096755	0.00092734	5.2107e-05	0.00075381	-0.016513	-0.0071016	0.004645	-0.0074118	-0.005675
0.0032144	-0.008684	-0.0063187	0.0065402	0.014335	0.047918	0.036468	-0.29211	-0.023864	0.088087	0.025231	0.015788	0.013841	-0.0080831	0.011837	-0.0035228	-0.024816	-0.0078771	0.004114	-0.0046963	-0.010426	0.017839	0.011447	0.0019623	-0.00019698	0.022292	0.0063038	-0.0020371	-0.0075742	-0.00095971
