0.12449	0.29706	0.30555	0.71467	1.4912	0.75368	0.37019	0.59365	0.6527	0.74259	0.52084	0.58884	0.60705	1.1697	0.83888	0.1765	0.67923	0.66757	0.85295	0.72762	0.3965	0.52915	0.54774	0.75408	1.5431	0.66387	0.62806	0.38418	0.64401	0.16217	0.25014
-0.023165	-0.073266	-0.051321	-0.071936	-0.17487	-0.076636	-0.039109	-0.074953	-0.084186	-0.078545	-0.028645	-0.12506	-0.12613	-0.1229	-0.218	0.79976	1.5495	-0.14055	0.44507	0.085579	0.015705	-0.066477	-0.025921	-0.035525	-0.1674	-0.0633	0.023596	-0.047124	-0.087292	-0.037168	-0.024
-0.1305	0.82962	-0.029911	-0.28027	-0.5973	-0.20048	0.29987	0.23108	-0.049779	0.024667	0.40324	0.35043	0.17855	0.13683	0.12838	-0.22825	0.063799	0.25653	0.14144	0.091403	0.38539	0.47046	0.284	-0.06168	-0.67152	-0.18598	0.5182	0.18579	-0.27139	-0.043814	0.2118
-0.043974	-0.086172	-0.06954	-0.10272	-0.19065	-0.1097	-0.083039	-0.035998	-0.043447	0.027157	-0.04662	-0.15343	0.081169	0.4269	1.3368	0.79179	-0.2262	-0.16583	-0.19548	-0.095527	-0.048049	-0.10829	-0.084368	-0.1131	-0.15282	-0.10434	-0.023457	-0.068341	-0.085121	-0.036224	-0.006709
0.020438	-0.067088	-0.033808	-0.11516	-0.20928	-0.14001	-0.037921	-0.00065704	1.3393	0.0049846	-0.056648	-0.022457	0.013266	-0.11168	-0.0082068	0.0129	0.0036907	-0.0061841	0.0055751	-0.019676	-0.023689	-0.038521	-0.034817	-0.036044	-0.048794	0.0036734	0.0055371	-0.0045681	-0.011574	0.029829	0.01082
-0.40418	-0.11666	1.0733	-0.15062	-0.058977	-0.014084	-0.051421	0.059045	-0.0014804	-0.07244	-0.022474	-0.012896	0.0092515	0.00072863	0.031121	-0.039026	0.022557	-0.013094	0.022734	-0.034408	0.040791	-0.049035	-0.045244	-0.025611	0.019879	-0.045741	0.063924	-0.010265	0.011653	0.045407	-0.013015
0.073782	-0.21	0.0012515	-0.086756	-0.03955	-0.053676	-0.086916	-0.183	-0.041763	-0.014467	-0.14519	0.63451	0.27382	-0.047356	0.0071842	0.10917	0.028	0.67717	-0.015363	-0.033119	0.078542	-0.10078	-0.14764	-0.061454	-0.038394	-0.050597	-0.23143	-0.091575	-0.062813	0.050965	-0.076855
0.018829	-0.13172	-0.03436	-0.067121	-0.15603	-0.032841	-0.061129	-0.010822	0.019482	0.072313	-0.058983	-0.041156	-0.015666	0.96549	-0.30519	-0.1644	0.087869	-0.012934	-0.058203	-0.093877	-0.093194	-0.074598	-0.077563	-0.071571	-0.051011	-0.06739	-0.0082236	-0.056472	-0.053991	0.013883	-0.07989
-0.021912	0.072323	0.012591	0.035308	0.067094	0.030594	0.0048199	0.065788	0.027099	0.014608	0.048469	0.021412	0.092057	-0.037994	0.002493	-0.035039	0.31668	0.019343	-0.83088	-0.12421	0.065628	0.043973	0.047171	-0.016288	0.061203	0.028064	0.028615	0.044357	0.060225	0.0025023	0.053203
-0.49535	-0.0448	-0.19463	0.096803	0.071614	0.03144	0.090884	0.027678	0.0070238	0.018096	0.0042488	-0.021879	0.026873	-0.0068181	0.00056812	-0.0085955	0.0053387	0.00063476	0.0092575	0.0048048	0.0010519	0.0094682	-0.024743	-0.011334	-0.069876	-0.038178	-0.050537	-0.018626	-0.073911	0.631	-0.039786
-0.10038	0.068466	0.041903	-0.01214	0.075378	-0.026431	0.060107	-0.032242	0.015368	0.13314	0.069437	-0.066806	0.1418	0.057473	-0.39436	0.5579	-0.28599	0.035495	-0.092911	0.077789	0.027229	0.042641	0.022453	0.059104	-0.10534	0.072616	-0.017164	0.063105	0.072481	-0.061977	0.16667
0.0097933	0.034378	-0.0073848	0.039055	0.024432	-0.023271	0.026618	-0.013499	0.017974	0.02098	0.013582	0.01665	0.022754	-0.0029912	-0.0011686	-0.0037997	0.0058179	-0.018608	0.011262	0.036633	-0.015124	0.03549	0.01617	0.059243	-0.028862	-0.62343	-0.049176	-0.068901	0.48858	0.0080828	-0.01618
-0.0096115	0.31612	0.095708	0.033015	-0.053397	0.063635	0.073404	-0.10265	0.032584	0.1285	0.0093352	0.1556	-0.1637	0.053929	0.040879	-0.010001	0.036848	-0.11707	-0.0075348	0.049846	-0.078879	-0.058312	0.14623	0.051886	-0.045478	0.095391	-0.52265	0.046351	0.022798	0.011733	-0.066204
-0.045748	0.093277	-0.057949	-0.0059198	0.027188	-0.031934	-0.356	0.40799	-0.0078033	-0.03645	-0.26321	0.066099	-0.052561	0.018403	-0.03767	0.039459	-0.032658	-0.077377	0.025665	0.019579	0.32438	-0.023294	-0.0080259	-0.0012269	0.019425	-0.018184	-0.10398	-0.0058765	0.0068465	-0.0087472	0.046828
-0.021446	0.062388	-0.0064735	0.0016305	0.049806	-0.0090074	0.025171	-0.0062927	0.0017992	0.029586	0.022215	0.013946	0.017829	-0.0047741	-0.022875	0.024722	-0.0098861	-0.013872	0.045506	0.025349	0.0010008	0.025415	0.076281	-0.68259	0.1464	0.015742	-0.011528	0.026509	0.085027	-0.0085376	0.0068193
-0.0076625	0.0054546	0.053787	0.463	-0.069724	-0.48378	-0.036097	-0.038753	-0.0097097	0.027469	0.018182	0.013296	-0.011901	0.010765	0.0022459	-0.0085083	0.001922	0.015704	-0.0018198	0.0077703	0.012436	0.020169	0.010149	0.012807	0.027611	0.047251	0.015099	-0.011851	0.0075674	-0.015673	-0.033291
0.070275	0.044702	0.012274	-0.29704	0.38236	-0.35198	0.013686	-0.0056377	-0.0040358	0.077555	-0.00094387	-0.0023962	-0.040653	0.011816	0.021819	-0.046427	0.031184	-0.025165	-0.00043721	0.011875	-0.050909	-0.0055113	-0.001395	0.0096424	-0.077039	-0.021956	-0.018333	0.0069331	-0.057679	0.060867	0.014043
-0.028784	-0.10932	-0.020002	0.019409	0.0072485	-0.011078	-0.01589	0.0030851	-0.001738	-0.0060697	0.0069118	-0.0050717	-0.0020664	0.0015704	0.0099633	-0.0093549	0.0053414	0.0073891	0.010311	-0.010013	0.010301	-0.014882	-0.052582	-0.00082215	-0.0088772	-0.11229	-0.05495	0.59222	-0.046101	-0.045162	-0.065798
-0.1425	-0.1225	-0.050417	0.01625	-0.00041958	-0.016328	-0.0069982	-0.053468	-0.00469	0.007139	-0.0017145	0.053201	-0.062332	0.018229	0.046819	-0.095215	0.0405	-0.0060172	0.024256	0.010548	-0.045485	-0.022137	0.0075131	-0.0035966	-0.0042687	-0.015397	-0.077766	0.0039805	-0.0025475	-0.10849	0.5101
0.056626	-0.17641	0.0044937	-0.031839	-0.05864	-0.075653	0.35069	0.25617	-0.016139	-0.057947	-0.014495	-0.049571	0.081259	-0.00076518	0.0011156	-0.0034273	0.0063742	-0.017476	0.0065963	0.00096922	0.069226	0.10217	-0.017502	-0.0031254	0.023919	0.018111	-0.19587	-0.039297	-0.0032138	-0.032756	-0.0074144
0.045193	0.072824	0.014056	-0.030887	-0.067511	-0.032443	0.014962	-0.022006	-0.0032925	-0.00068108	0.0106	0.0045386	0.0012983	-0.010681	-0.044906	0.061175	-0.030219	-0.024406	-0.026115	0.030498	-0.014269	-0.0015105	0.054711	0.037286	0.31477	-0.23354	-0.013278	-0.025922	-0.29502	0.052123	0.049604
-0.031846	0.12664	0.0063692	0.030037	0.0070937	0.0052785	0.1862	-0.042084	-0.0032737	0.021546	-0.42427	-0.023458	0.0059328	0.0035527	0.0081652	-0.00028235	0.0094655	0.047359	-0.0071201	-0.00047195	-0.076517	-0.048452	0.015572	0.0070129	0.0015334	0.00067776	0.1169	0.043988	0.011021	-0.028588	0.022528
-0.029715	0.13258	-0.0046874	-0.013424	-0.011635	-0.017651	-0.09391	0.025975	-0.0059434	-0.040131	0.022039	-0.32191	0.18536	-0.003332	0.026302	-0.065118	0.039167	0.23302	0.038811	0.00039842	-0.056741	-0.044119	0.00077664	0.0050505	0.015383	0.0044086	-0.14122	0.0015742	0.0028183	-0.025257	0.028189
0.016293	-0.15275	0.0021663	-0.013604	-0.0075443	-0.0031323	-0.042049	-0.031411	-0.0055008	0.0076407	-0.048837	-0.044407	-0.00037184	-0.00076397	0.0011093	-0.0024992	-0.010426	0.039802	-0.011073	0.02226	0.03969	-0.013294	0.40536	0.0085282	-0.059242	-0.013238	0.0041682	0.0004672	-0.016304	0.016788	-0.029592
-0.014472	0.058988	-0.0057898	0.016624	0.090575	-0.0061402	0.030798	-0.066564	0.033989	-0.40515	0.010975	0.023898	-0.067211	0.078252	-0.0072971	0.04281	-0.019188	0.022952	-0.010203	0.014779	0.025924	0.031676	0.033472	0.0075448	0.0076983	0.010782	-0.01822	0.011572	0.015594	-0.0027981	0.0060386
-0.010313	0.0075052	-0.0035021	-0.0015478	-0.030704	-0.0135	-0.070477	0.19835	-0.011186	-0.054947	0.012227	0.10214	0.024708	-0.016008	-0.012316	0.034754	-0.0028403	0.0041757	-0.006	0.02161	-0.34208	0.032325	0.056424	0.004744	-0.0062066	0.013246	0.025033	0.016351	0.012568	0.0076553	-0.0060741
0.0028762	-0.028024	0.015361	-0.011152	-0.0032076	0.013959	-0.083027	-0.080335	0.001141	0.025035	-0.086022	-0.029498	-0.011892	0.00339	0.0095643	0.00026091	0.0066059	-0.001082	-0.0027118	0.0027486	-0.030742	0.34187	-0.027689	0.00049801	0.0029162	0.0068881	-0.055049	-0.0017899	-0.013777	0.0095946	-0.0076272
0.0010705	0.0055605	-0.005928	-0.012396	-0.0042094	-0.016699	-0.03147	-0.073721	-0.0070514	-0.049725	-0.032713	0.056123	0.28501	0.00023849	-0.0056578	-0.042991	0.015082	-0.19424	0.022301	0.036054	0.0070439	-0.01433	0.013973	0.012972	-0.0019994	0.022757	-0.015499	0.0083678	0.0040212	0.0024552	0.0065543
0.0095903	-0.03342	0.004567	-0.0070472	-0.025651	0.0016402	-0.0081504	-0.0064523	-0.0045963	-0.0045806	-0.011226	-0.023643	-0.028117	0.0051514	0.011522	-0.02639	0.00072641	0.013673	-0.070842	0.34485	5.6056e-06	-0.019072	-0.049664	-0.018955	-0.031463	-0.00085464	0.0062316	-0.0064707	-0.013801	0.0033373	-0.014874
