0.053642	-0.27953	-0.016128	-0.71058	-0.91442	-0.65604	-0.35068	-0.51647	-1.0081	-0.87806	-0.19787	-0.31596	-0.32938	-0.35445	-0.77132	-0.89076	-0.35862	-0.22821	-0.49907	-1.074	-0.88728	-0.49658	-0.41264	-0.16179	-0.59384	-0.30994	-0.068899
2.0639	0.46976	0.55439	0.30411	-0.30711	0.19264	0.12959	-0.1102	-0.13387	-0.059919	-0.12944	-0.088034	0.13705	-0.013399	0.16803	-0.12049	-0.056527	-0.25896	-0.15129	-0.18219	-0.20454	0.028417	0.086383	0.50992	0.091857	1.2635	1.1279
0.11357	-0.050159	0.20771	0.93458	0.63066	0.54645	0.078888	0.21521	0.29669	0.057893	0.020412	-0.011782	-0.050935	-0.042755	-0.047867	-0.043188	-0.044963	-0.059455	-0.16468	-0.24468	-0.71457	-0.49468	-0.12457	-0.31688	-0.85876	-0.30137	-0.038623
-0.089397	0.58325	0.072086	-0.25167	-0.23534	-0.1931	0.46104	0.03641	-0.049609	0.0037662	0.56331	0.33813	-0.16762	0.18046	-0.15715	0.16389	0.60432	0.63515	0.038683	-0.044545	-0.33741	-0.24168	0.52317	0.094214	-0.31411	-0.0069039	0.08256
-0.032857	-0.091595	-0.054134	-0.098684	-0.17758	-0.10454	-0.12064	-0.083733	-0.1494	-0.12093	-0.025655	0.078097	-0.037487	0.40156	1.2134	0.10151	0.096513	-0.11115	0.019555	-0.057801	-0.29374	-0.094531	-0.080679	-0.054153	-0.14218	-0.030266	-0.055751
-0.016309	-0.068366	-0.035019	-0.099829	-0.14343	-0.098609	-0.057367	0.031602	0.030535	0.36485	0.097845	0.21974	1.0997	0.12081	-0.089187	-0.067002	0.028969	-0.071827	-0.070651	-0.12027	-0.15009	-0.074053	-0.068726	-0.042369	-0.058806	-0.0050446	-0.01824
0.050484	0.27514	-0.46935	-0.0015157	0.025484	0.028336	0.22195	-0.28321	0.011173	0.06305	-0.37302	0.39654	-0.011611	-0.069389	0.081439	0.036383	-0.45499	0.01032	-0.4188	-0.01498	0.14857	-0.10366	0.36788	-0.20143	-0.067052	-0.047049	0.022318
-0.29656	-0.065019	-0.11311	0.038615	0.018446	-0.020242	0.025773	-0.039907	0.026332	-0.0094015	0.0077968	-0.035452	-0.026962	-0.012275	-0.042863	-0.014814	-0.016242	-0.002948	-0.031541	0.034734	-0.073033	-0.058845	-0.039432	-0.084564	-0.17568	0.86498	-0.29249
-0.055656	0.022347	-0.0183	0.16709	0.0065582	0.24805	0.04567	0.147	-0.73867	0.14358	0.03121	0.030137	0.025674	-0.0064394	-0.0034034	0.0371	-0.0023714	-0.00065078	0.034585	0.03749	0.06492	0.035703	0.050531	-0.012146	0.025511	0.011434	-0.036125
-0.037607	-0.0024273	0.032293	-0.45586	-0.0025909	0.54022	0.041901	0.089547	0.079353	-0.0080088	-0.045712	-0.011653	-0.0068225	-0.0062489	0.010068	-0.027758	-0.0083278	-0.036391	-0.025494	-0.025113	-0.061296	-0.041308	-0.01415	0.004531	-0.014226	0.024579	0.031235
-0.079365	0.11921	-0.014886	0.094325	0.071989	0.048713	0.064715	0.058698	0.057982	0.029293	0.16178	-0.0011981	0.0018542	-0.062643	0.16521	-0.57287	-0.040405	0.082962	-0.013449	-0.16798	0.014567	0.11921	0.071576	0.031719	0.17648	0.014728	-0.03572
0.035263	0.0094217	0.032782	-0.035975	-0.032777	-0.026589	-0.031989	-0.023004	-0.034919	-0.017715	0.01847	-0.025435	0.022265	-0.015686	0.012393	-0.26393	0.034851	-0.015196	-0.10115	0.54463	0.033415	-0.21338	-0.038164	0.0051901	-0.10269	-0.037617	0.01541
-0.05397	0.2597	-0.083216	-0.0044364	0.014538	-0.0027615	0.069674	-0.096287	-0.0024795	0.031094	0.056275	-0.51112	0.10144	-0.001744	0.031507	0.073627	0.038442	-0.20047	-0.053057	-0.015649	-0.0012944	-0.03086	0.13686	-0.0073705	-0.013401	-0.042911	-0.033493
-0.12224	0.11846	0.52127	-0.015086	-0.014266	-0.047725	0.068541	-0.067987	-0.014377	0.014645	-0.14024	0.044717	0.030104	-0.0080758	0.034318	0.022607	-0.13367	-0.030236	-0.043142	0.00061297	0.019262	0.0033485	0.074846	-0.03197	0.027476	0.00043249	-0.11875
0.33018	-0.0082454	-0.022811	-0.044188	-0.0028921	0.020594	0.015472	0.0077732	0.0066731	0.0039092	0.036328	0.0014675	-0.0058825	0.0035125	-0.0092948	0.003742	0.02653	0.028352	0.016889	0.0037751	0.0060108	0.0016054	0.036039	-0.018034	0.03733	-0.047531	-0.50668
-0.030669	0.048695	-0.010908	0.092998	0.036743	0.10029	0.021678	-0.012897	-0.014551	-0.52503	0.043473	0.052528	0.20659	0.029362	-0.011793	0.038708	0.0052134	0.013444	0.024945	0.032537	0.063207	0.032083	0.036476	0.0055675	0.031862	0.00013327	-0.019601
0.02034	0.013377	0.0021876	-0.04581	-0.019723	-0.0095568	-0.0022591	0.00071179	-4.4611e-05	0.0047011	-0.023165	-0.00082551	0.018202	-0.0055282	0.0093282	-0.06216	-0.023153	-0.023477	0.050335	0.039305	0.080379	0.37276	0.044779	0.074979	-0.39169	-0.030503	-0.0084939
-0.052394	0.0099233	-0.013254	0.20311	-0.45801	0.15806	-0.0090018	0.01701	0.11369	0.029456	-0.014697	-0.0053847	-0.032455	-0.012033	-0.013083	0.0042645	0.0031506	-0.012944	0.018065	0.012795	0.033602	0.0043062	0.0047715	-0.018992	0.0046007	-0.028977	-0.037183
-0.019006	0.034301	-0.046811	0.012689	-0.0035521	-0.00018124	0.012885	-0.02119	-0.0026973	-0.0030415	-0.047738	0.013122	-0.0013605	-0.014485	-0.044154	0.020113	-0.080213	-0.010527	0.059954	0.15557	-0.36845	0.19152	0.035481	-0.0026111	0.13518	-0.010474	-0.0066559
-0.058403	-0.036687	-0.025596	0.036801	0.011917	0.011814	-0.0058224	0.0083507	0.0058802	0.0057205	-0.045172	0.0061911	0.0067513	0.0013665	0.0051427	0.021598	-0.054753	0.0061446	-0.063682	-0.015508	-0.035839	-0.075441	0.034887	0.41923	-0.012538	-0.019553	-0.062126
-0.018915	0.05968	-0.0021268	-0.0026421	0.011488	-0.0071564	-0.012025	-0.0093186	0.0081782	0.0011047	0.10973	0.15669	-0.06382	0.014022	-0.039208	-0.009539	0.047823	-0.29961	0.012413	-0.0047733	0.002977	-0.0029372	0.0039624	0.022733	0.010676	-0.003508	-0.017341
-0.0037391	0.00027865	0.0022973	-0.010214	-0.0048267	-0.009196	-0.0021354	-0.0062475	-0.001515	-0.0047538	0.0093326	0.033372	0.032247	-0.30999	0.083711	0.046567	0.064415	-0.0050099	0.017344	0.0029769	-0.013493	-0.0088015	-0.0015553	0.0067383	-0.0094351	-0.00081026	-0.0025545
0.0038214	0.044988	-0.01842	-0.025347	-0.025658	-0.084097	0.020185	0.28746	0.014029	-0.036721	-0.058453	-0.010985	-0.0015477	-0.0092761	0.0090228	0.0076578	-0.040305	-0.036498	-0.029331	0.0010712	-0.0055672	-0.015371	0.018751	-0.01713	-0.0068414	0.0073683	-0.0025478
-0.011682	0.019304	-0.010809	0.020464	0.022058	0.0079176	-0.063339	-0.007184	-0.0033895	-0.0019762	-0.2074	0.015151	0.0068049	0.022733	-0.02428	-0.061011	0.20779	-0.020745	0.010284	-0.022167	-0.0087622	0.0050078	0.066956	-0.0019212	0.015987	0.0037582	-0.010819
0.0058639	0.029366	-0.021104	-0.012356	0.00016274	-0.0082092	-0.0019658	-0.011613	-0.0002287	0.0043846	-0.04006	0.0058051	0.010931	-0.0036611	-0.0021659	-0.032324	-0.074442	-0.0092588	0.23471	-0.0071456	0.0073943	-0.090082	0.040959	0.0073757	-0.03017	0.0015961	0.0048036
-0.0033914	0.098661	0.0075192	-0.0034386	0.010788	0.019794	-0.23667	0.012499	0.0025335	0.0074968	0.042309	0.013011	-0.0073926	-0.0054625	-0.0029777	0.022726	-0.038634	0.045765	-0.02099	-0.0018138	-0.0011583	-0.0018106	0.031413	-0.0051217	-0.0063775	0.010935	-0.006112
-0.00707	0.14238	-0.023127	0.0025959	0.0050437	0.0011429	0.028205	-0.010791	-0.0042232	0.0064387	-0.042619	0.020835	0.00032505	0.0034018	-0.00058513	0.0045996	0.011586	0.027839	0.013	-0.0031775	0.0073199	0.0074687	-0.19058	0.023102	-0.0028514	-0.006848	-0.020014
