-3.3271	-1.1176	-1.0898	-0.92656	0.16907	-0.13513	0.21166	0.013713	-0.11421	0.041448	0.31616	-0.13756	-0.12051	-0.013036	-0.059172	0.18561	-0.12241	-0.0085135	0.12757	0.015613	0.40621	-0.0086701	-0.0048315	-0.034622	0.0074236	-0.47629	-0.12651	-1.2569	-1.381	-5.0578	-2.5387
-0.010163	-0.18654	-0.27794	-0.40051	-1.5212	-0.5655	-0.44177	-0.53038	-0.59116	-0.46824	-0.29348	-0.22777	-0.55492	-1.0135	-0.11305	-0.48638	-0.36558	-0.57216	-1.4638	-0.73582	-0.6069	-0.30045	-0.46143	-0.83259	-1.4224	-0.6038	-0.40192	-0.12691	-0.38029	0.28651	-0.067317
-0.35726	-0.013983	-0.45592	-1.346	-1.0056	-0.51117	-0.12409	-0.31397	-0.37813	-0.19473	-0.0068688	0.046053	-0.053511	0.014059	2.6143e-05	-0.037972	-0.034648	-0.094411	0.0016182	0.16576	-0.017944	0.03695	0.35495	0.34715	1.2581	0.62533	0.18313	0.16362	0.94893	0.21059	-0.020128
2.2599	-0.20277	-0.067774	-0.56727	-0.025391	-0.11619	0.017967	-0.069158	-0.021205	-0.016555	-0.032402	-0.10497	0.042492	-0.035565	-0.0028171	0.015805	-0.0018969	0.015043	-0.025184	0.018284	0.071123	-0.033108	0.031802	0.037616	0.13369	0.046119	-0.017765	-0.12671	-0.10805	-0.94417	-0.64459
-0.016306	0.36192	0.067029	-0.031698	0.038852	0.00060422	-0.031647	0.075821	0.024069	0.020874	0.22127	0.2362	-0.079256	0.01477	0.012235	0.031587	-0.0083157	-0.10386	0.046211	0.013663	0.12514	-1.7712	0.034199	0.0079064	0.015604	0.017784	0.239	0.018443	0.0057601	-0.0079832	-0.11918
0.065971	0.05819	0.082499	-0.054279	-0.3184	-0.028703	0.20498	0.18891	0.049275	-0.010614	1.6544	0.38625	-0.11187	0.00056153	-0.043323	-0.065779	0.0033113	-0.10591	-0.002762	-0.045905	0.16147	0.30653	0.036076	-0.038861	-0.20754	-0.084739	0.11875	0.1585	-0.0071908	0.0038618	0.0078617
0.010948	-0.28759	-0.13821	0.015255	0.51737	-0.11838	-1.3122	0.16994	0.074385	-0.010772	0.38251	-0.28803	-0.30236	-0.073614	0.07441	-0.11214	0.02578	-0.064117	-0.065446	0.012509	-0.093207	-0.046469	0.0049473	0.0046322	0.24563	0.021254	-0.28744	-0.11619	0.0612	0.057786	0.065277
0.0036213	-0.0066414	0.021377	0.08708	0.09242	0.034283	0.0016424	0.034015	-0.00041241	-0.062778	-0.043524	0.096274	0.011557	-0.31959	-1.4227	-0.4462	0.26475	-0.021028	0.061243	0.036373	-0.0023299	-0.0093941	0.042784	0.039364	0.11274	0.036651	0.010032	0.0037281	0.039735	-0.050589	0.019393
-0.010835	-0.02079	-0.012714	-0.048872	-0.12376	-0.04543	-0.027138	-0.029103	-0.042028	-0.024959	0.022186	-0.1322	-0.066309	-0.060227	0.023331	0.62198	1.2622	-0.065903	0.010867	-0.015854	-0.056438	-0.019707	-0.019962	-0.046641	-0.095545	-0.051753	-0.019245	0.0086595	-0.019546	0.028397	-0.013766
-0.012257	0.12152	0.014672	0.015513	0.10891	0.105	0.3135	0.077462	0.058677	0.024534	0.17117	-0.84625	-0.040439	0.025055	-0.031917	-0.042366	-0.073963	-0.57302	0.026397	-0.13724	-0.3828	-0.03566	0.05553	0.019659	0.11325	0.079224	0.13823	0.0050269	0.04546	-0.042173	0.025406
-0.022793	-0.01301	-0.056701	-0.14241	-0.20518	-0.12815	-0.013093	-0.001901	1.1223	0.14128	-0.097894	0.053269	-0.047167	-0.10536	0.016764	-0.05495	0.026752	-0.079977	0.025032	-0.0074561	-0.00084986	0.0050707	-0.0020933	-0.010759	-0.035159	0.0022053	-0.0304	-0.0088784	-0.010586	0.022892	0.0026843
-0.036148	-0.18076	-0.086327	0.13033	0.073105	-0.019991	0.017505	-0.014296	0.033289	-0.016286	-0.039451	-0.066536	0.0011684	-0.0081452	0.03147	-0.064211	0.016949	0.050782	-0.019469	-0.07026	-0.0005173	-0.044366	-0.15891	-0.04294	0.037616	-0.18756	-0.10116	1.0319	0.22225	-0.085289	-0.30291
0.015982	-0.047321	0.019535	-0.016012	-0.31279	-0.091456	-0.14532	-0.078486	-0.09562	-0.085619	-0.013576	-0.13965	-0.061603	-0.078716	0.0037758	-0.051174	-0.087208	0.025094	1.0051	0.087017	-0.10825	-0.036982	-0.060953	0.018998	-0.24711	-0.10359	-0.091826	0.021647	-0.092057	0.042832	-0.0091424
-0.021163	-0.047852	-0.013665	0.14743	-0.014251	0.0096575	-0.086986	-0.0083912	0.0059429	-0.0077118	-0.0060549	0.013457	0.010851	0.02457	-0.0079356	0.021473	-0.0011962	-0.010167	-0.0052095	0.0043593	-0.010373	0.0091468	0.069588	-0.078593	-0.45312	0.94542	0.015327	0.095167	0.14616	-0.093913	-0.12751
0.0042984	-0.097037	0.070696	0.11972	0.053222	0.016128	0.061263	-0.013122	0.026964	0.012513	0.0030166	0.00014166	-0.010069	0.010142	0.011295	0.0021049	-0.0016369	0.0095892	0.039114	-0.046651	0.031561	-0.027888	-0.070121	-0.054883	-0.23289	-0.25855	-0.047762	-0.30337	0.91994	-0.15844	-0.00055398
-0.013992	-0.20384	-0.076606	0.059756	0.056339	0.029193	0.10631	-0.014205	0.015637	0.012223	0.045779	-0.03642	-0.022375	0.013718	-0.058433	0.07426	-0.04779	-0.0058658	0.013663	-0.0060967	0.056442	0.0059529	0.011872	0.016255	0.043117	-0.018143	-0.020206	-0.24473	-0.013312	0.54827	-0.78137
-7.4485e-06	-0.00043514	0.0013013	0.011139	0.010337	-0.006464	-0.085553	-0.0099306	0.0025433	-0.0075183	-0.059877	-0.0068554	0.011479	0.03161	-0.0025645	0.0063369	-0.010324	0.012438	0.0087529	-0.056248	0.0025519	0.026621	0.92733	-0.17267	-0.14729	-0.18956	0.11687	0.098274	0.01171	-0.0027555	-0.041082
0.0099606	-0.037402	-0.054845	-0.10591	-0.11108	-0.019594	-0.060111	0.0054676	0.010702	0.04422	-0.046954	-0.012763	-0.15238	0.89205	-0.18625	-0.13279	0.063803	-0.031872	-0.037605	-0.048444	-0.025174	-0.019302	-0.071194	-0.059639	-0.13152	-0.062327	-0.052964	0.00039658	-0.042824	0.028927	0.01765
-0.0030369	-0.012141	0.027535	0.033904	-0.055601	-0.020197	-0.072054	-0.0033176	-0.0098625	-0.01207	-0.024071	0.014328	0.016436	0.0079231	0.0035988	-0.007627	0.0054705	-0.078829	-0.11696	-0.012064	-0.055228	-0.0019478	0.089371	0.88033	-0.25143	-0.086785	-0.0028783	0.035487	-0.0060371	-0.011436	-0.03231
0.01524	0.055383	0.031077	0.025182	0.076636	0.030436	0.17234	-0.019358	-0.0121	-0.014173	-0.074824	-0.010511	-0.8571	-0.08588	0.035594	-0.021697	-0.0049005	0.11782	0.0097179	0.069804	0.10382	0.048268	0.037112	0.059316	0.025606	0.040918	0.073901	0.020004	0.0066672	-0.02115	0.014236
0.046543	-0.00070568	0.1144	0.60844	-0.38759	-0.073377	-0.078364	-0.052386	0.01959	-0.080779	-0.012673	0.039669	-0.034447	0.075508	0.069492	-0.083426	0.050157	-0.085744	-0.040244	-0.021517	-0.025313	-0.0045251	0.056633	0.0098467	0.33421	0.032751	-0.030112	-0.070681	-0.0094362	-0.13438	-0.077364
0.0091243	-0.03974	0.0029013	-0.027163	0.16435	0.0057687	0.046219	-0.0023518	-0.017208	-0.00086631	-0.035985	0.45012	-0.085042	0.0091705	0.040998	0.031819	0.0063821	-0.22579	0.075619	-0.0291	-0.58686	0.03259	0.016855	-0.024226	0.060892	0.0080122	-0.039273	0.0049015	0.015717	-0.024376	-0.049424
0.00067558	0.00103	-0.021437	0.095983	0.18288	-0.71787	0.13414	0.00051641	-0.030802	0.055629	0.017374	-0.029454	0.021072	0.02335	-0.012124	-0.002404	-0.00038751	0.024379	0.0086666	0.0022607	0.0052178	-0.0033649	0.0022738	0.0025889	-0.02725	0.0069029	0.029387	-0.02093	-0.024562	0.01573	0.031763
-0.0028205	0.0019514	-0.03127	-0.012993	0.12234	-0.0030778	0.048221	-0.047959	0.12642	-0.72611	0.017713	-0.0013779	0.030016	0.0633	0.027332	-0.013468	0.01256	0.019396	-0.0011808	0.0022568	0.018292	-0.0056942	-0.0068323	0.0064327	-0.010296	0.001441	0.022987	-0.018607	-0.008276	0.007172	0.017266
-0.0023386	-0.010842	0.048721	-0.041157	-0.12008	-0.061221	0.017511	0.69237	-0.041066	-0.074892	-0.11117	0.0090604	-0.013667	-0.023049	0.019206	-0.0097932	0.002701	0.010409	-0.0050326	0.0025463	-0.015905	0.010272	0.0009235	-0.013508	-0.0074106	0.0013798	-0.021996	0.0016809	0.019012	0.0043622	-0.038366
0.005897	0.0030264	-0.021917	0.029571	-0.016759	-0.010417	-0.19037	0.011744	0.0096482	0.0025882	-0.051811	0.021523	0.0058188	0.0048138	-0.0097577	0.014259	-0.0065276	0.0063473	0.012703	-0.030736	-0.043936	0.093299	-0.14089	-0.024619	-0.038005	-0.059917	0.66483	0.010075	0.012882	-0.0080562	-0.061737
-0.06834	-0.0098249	0.64595	-0.15858	0.0094619	-0.058721	-0.072472	-0.062227	0.014118	-0.022808	-0.013315	-0.032787	-0.00077194	0.019471	-0.020862	0.027443	-0.018638	0.0042961	-0.032006	-0.0094852	-0.0060707	0.022858	-0.016246	-0.022608	0.019389	0.015219	-0.0066064	0.042606	-0.01461	-0.023223	-0.096479
0.013157	-0.60221	0.0481	0.01104	-0.032189	0.029536	0.11988	0.0058228	0.001033	0.0057893	0.019262	-0.0065151	-0.0081402	-0.0065099	-0.0055374	0.032265	-0.020872	-0.00096027	-0.0079728	0.003789	0.0084724	-0.11996	0.026086	0.014578	0.027217	0.030955	0.099298	-0.0062166	-0.050138	0.029155	0.20308
0.00062161	-0.005042	0.00060903	0.018218	-0.026329	-0.0073894	-0.0089262	-0.0077644	-0.0012169	-0.0082092	0.0026598	-0.02403	0.010363	0.0084086	-0.01079	0.022166	-0.021931	-0.093795	-0.074391	0.48508	-0.032789	0.00046966	-0.0088187	-0.041903	-0.053664	-0.045426	0.0083991	0.021682	0.0072412	-0.0018153	-0.012641
0.0038907	-0.01616	0.0043426	-0.013306	0.050427	-0.0099099	-0.025678	0.0010859	-0.036883	-0.0062447	-0.074	0.10952	-0.01571	-0.0073858	0.021618	-0.007071	0.0074037	-0.37059	0.059035	-0.037947	0.26076	0.043278	-0.013598	-0.013517	-0.0062961	-0.0045651	-0.0058107	0.021435	-0.0042429	0.008899	0.012858
0.010202	0.024063	-0.022009	0.039078	-0.039447	-0.01706	-0.040996	0.0089432	0.022237	-0.024044	0.0036841	-0.0016285	-0.033447	0.023575	-0.14928	0.35779	-0.17633	-0.01152	-0.0099292	-0.035989	0.0020668	0.0058226	-0.0098957	-0.00066925	0.01565	-0.012785	-0.031731	0.030328	0.0056391	-0.01935	0.028612
