1.3545	0.28549	0.2511	-0.0089953	-0.22234	0.017218	0.052197	-0.021749	-0.016485	0.061773	0.070798	0.11956	0.03181	0.057855	0.04396	0.033772	0.072717	-0.098653	-0.00045614	-0.046924	-0.24423	-0.01677	-0.0053198	0.25687	-0.028572	1.0211	0.71345
0.012647	-0.061171	-0.15404	-0.56756	-0.34304	-0.50935	-0.093393	-0.19615	-0.50346	-0.56797	-0.12418	-0.099866	-0.28937	-0.18384	-0.58645	-0.5423	-0.13327	-0.098101	-0.15515	-0.42115	-0.7128	-0.33909	-0.11906	-0.10036	-0.4247	-0.025183	-0.11639
0.27749	-0.4744	-0.11398	0.359	0.23722	0.20653	-0.42368	-0.25067	0.105	-0.048117	-0.48744	-0.46559	-0.020792	-0.27572	0.06453	-0.42826	-0.29791	-0.49663	-0.27492	-0.040048	0.23331	0.10444	-0.76997	-0.16363	0.37393	0.22803	-0.23899
-0.165	0.034669	-0.20386	-0.7652	-0.42383	-0.38804	-0.024545	-0.089644	-0.23333	-0.091075	-0.014093	-0.0098142	0.031109	0.009011	0.031408	0.04077	0.061705	-0.092314	0.053911	0.23176	0.52515	0.36049	-0.0058657	0.1755	0.7531	0.27445	-0.0038896
0.035928	0.045495	0.032502	0.098924	0.093569	0.056986	0.071984	0.0079636	-0.011705	-0.23106	-0.072516	-0.13017	-0.66383	-0.11476	0.012401	0.065683	0.12449	0.099625	0.0028799	0.07102	0.094513	0.062642	0.1273	0.041486	0.059236	0.015878	0.013825
-0.0050805	-0.061952	-0.041356	-0.06298	-0.072493	-0.085567	-0.028532	-0.048755	-0.08663	-0.08477	-0.039611	-0.0064546	-0.048197	0.13041	0.7111	-0.025203	0.00051877	0.017064	-0.04025	-0.038561	-0.1204	-0.068128	-0.020924	-0.029024	-0.086651	-0.014644	-0.027914
0.0089378	-0.063613	-0.0304	-0.088018	-0.072575	-0.053734	-0.077985	-0.081417	-0.036413	0.025622	-0.12767	-0.20154	-0.021583	0.010751	-0.055167	0.53969	-0.21764	-0.03995	0.034367	0.15836	0.0053564	-0.043948	-0.10306	-0.021195	-0.23409	0.010634	0.031864
0.047247	-0.31013	-0.013854	-0.01245	-0.028856	-0.0096172	0.17017	-0.049282	-0.032955	0.093785	-0.19053	-0.079841	0.099197	-0.054917	-0.032879	0.015627	0.18408	0.35871	-0.09607	-0.010283	-0.046395	0.02256	0.015384	0.049018	0.014423	0.03807	-0.017596
0.34373	-0.0029992	0.017191	-0.073714	-0.046275	-0.029092	-0.011214	-0.0061052	-0.0097534	0.0035734	-0.0029439	-0.0063812	0.0031287	0.006872	-0.0010823	-0.00081834	-0.0036386	0.013163	0.0274	0.014932	0.058085	0.031154	-0.0060036	-0.056383	0.076386	-0.45	0.01835
-0.0060512	0.023634	0.014659	0.09283	-0.037142	0.20265	-0.0035629	0.066577	-0.51044	0.10188	0.011752	-0.0015907	0.0074843	-0.0068241	-0.0037774	0.014258	0.012073	-0.037588	-0.012108	0.011963	0.027543	0.0099433	0.0025403	-0.01305	0.015041	-0.011016	-0.013143
-0.0060822	0.097388	0.0083772	-0.0094455	0.061247	-0.011556	0.041314	-0.11782	-0.0012924	-6.833e-05	-0.33542	0.044804	0.085811	-0.012255	0.0028169	0.02238	0.12906	-0.25252	-0.11539	-0.0096258	0.036992	-0.021887	0.27007	-0.0049214	-0.040053	-0.029691	0.0092963
0.0080888	-0.10671	-0.031918	-0.013735	0.0028057	-0.0048441	-0.08179	-0.032858	0.0033152	-0.0037921	0.058608	0.12451	-0.063443	0.16151	-0.056629	0.095303	0.39152	-0.13583	0.054225	0.0071069	0.0029154	-0.034192	-0.19065	-0.055857	-0.052454	0.004231	-0.039905
-0.042462	-0.027198	0.018899	0.14128	-0.47606	0.14477	-0.030896	-0.0081504	0.11071	-0.040212	-0.04678	0.012143	-0.019981	-0.013317	-0.011721	-0.040659	0.012566	-0.020033	0.010797	-0.021831	0.068639	-0.01452	0.037791	0.0068678	-0.054139	-0.021182	-0.0054725
-0.037638	0.002212	0.00016226	0.042503	-0.038646	0.059978	-0.019633	-0.010098	0.028958	-0.01545	-0.031016	0.015578	0.0002059	0.002821	-0.0061018	0.083246	0.0037991	-0.054809	0.022023	0.076443	-0.37615	0.21276	0.011452	-0.00057863	0.18719	-0.036702	-0.0075693
0.034648	-0.047131	0.019846	0.069041	0.05184	0.056716	0.013633	0.0089465	-0.043409	-0.39861	0.011471	0.039806	0.17575	0.032939	-0.012038	0.067325	-0.00831	0.036562	0.040725	0.010098	0.051744	0.020895	0.016335	0.034283	0.010932	0.014062	-0.033356
-0.0063226	0.0088121	-0.0003966	0.0076128	0.0038481	-0.0018265	-0.0032124	-0.003191	0.0026902	0.020005	-0.0093186	-0.010574	-0.018203	0.0048234	0.0074081	0.14467	-0.01518	-0.0015316	0.039072	-0.42131	0.031756	0.086249	-3.7979e-05	0.0033917	0.064821	0.0019256	-0.0097601
-0.0085474	-0.011756	0.031826	-0.24522	0.033203	0.28501	0.029872	0.027548	0.062667	-0.019757	-0.0078011	-0.028029	-0.0074781	0.0014539	0.013436	-0.014299	-0.00010533	-0.011543	-0.01197	-0.020598	-0.014926	-0.02262	-0.014713	-0.012773	-0.024807	0.0052792	0.0033597
0.0041897	-0.010541	-0.0041264	0.0012912	-0.015688	0.0021155	0.0036147	0.019818	0.011503	-0.019223	0.070575	0.12364	-0.03488	0.027497	-0.016683	0.071582	-0.047205	0.01231	-0.33174	-0.002346	0.014102	0.01102	-0.016099	-0.038946	0.024355	-0.0056897	-0.0027397
-0.046116	-0.033795	0.35478	-0.025713	-0.0072512	-0.051697	-0.023243	-0.034165	-0.016872	0.0022208	-0.0048433	-0.0038455	-0.003226	0.0012295	0.0038954	-0.0032019	-0.0001224	-0.0077592	-0.005495	0.0025703	0.0062818	0.0027664	-0.024559	-0.013194	0.018067	-0.0044934	-0.011221
0.0060694	-0.0074601	0.0024037	-0.023463	0.010222	-0.010841	-0.0033079	0.0045935	-0.0070403	0.0015892	0.0085936	0.0033783	0.003249	-0.0012027	0.0067895	-0.06197	0.0051681	-0.0076651	-0.014784	0.0070645	0.044418	0.28065	-0.010592	0.00058549	-0.18848	0.00038594	0.0064631
0.011438	-0.0078296	-0.0068171	-0.0034062	-0.0090368	-0.0073463	0.0097502	0.0026921	-0.00069696	-0.010645	-0.0052509	0.0081691	0.0050205	-0.00088088	-0.0045064	0.0010416	-0.008524	0.037658	0.043383	0.0081384	0.013578	0.01775	0.058236	-0.32477	0.022592	0.064885	0.018207
0.08186	0.042682	0.013339	-0.011202	-0.015321	-0.0024593	0.012491	0.013489	0.012419	0.026803	0.018179	0.001127	-0.0010695	-0.0030284	0.001035	0.02077	-0.0019592	0.0045784	0.0068087	0.012159	-0.0091504	0.0031516	0.036385	0.0053238	-0.01315	0.05107	-0.26244
-0.0065437	0.0027602	0.0020932	0.018084	-0.016778	-0.015022	0.24221	-0.01955	0.00031179	-0.006934	0.016803	-0.01006	-0.0045207	0.0028045	0.006047	0.0028151	-0.020236	-0.081314	0.0093884	0.0016901	0.0012165	0.0010201	-0.078076	-0.016304	0.00072239	-0.0085389	-0.0043104
0.020699	-0.19239	-0.005243	-0.0078653	0.012002	-0.0045576	0.0072381	0.015825	-0.0036579	0.019233	0.05511	0.055609	-0.037208	-0.00053344	-0.0039624	-0.0018509	-0.061142	-0.086885	0.038502	-4.2813e-05	0.0025671	-0.0056516	0.11067	0.023145	-0.00063142	0.010814	0.001681
-0.0016137	0.012262	-0.011136	0.0075997	0.009859	0.041438	-0.0026675	-0.2259	-0.010714	0.011753	0.064034	0.027836	-0.0058319	-0.0043091	-0.0025488	-0.0044029	-0.015809	0.031508	0.011353	0.0021469	0.0062847	0.0040438	0.015224	0.0042928	0.00068846	-0.0019807	-0.0045747
0.001609	-0.00020979	4.9351e-05	0.010094	0.0045356	0.0070015	0.008205	-0.0075869	-0.0031274	0.0057144	-0.046631	-0.027202	-0.029145	0.20867	-0.03962	-0.038846	-0.053793	0.023104	0.0015023	-0.00098272	0.004732	0.0074218	0.012057	0.0075662	0.013646	0.005858	-0.0059204
-0.00034616	0.0069626	-0.00072715	-0.0088671	0.0085121	0.0068113	0.003488	0.0050336	-0.0055566	0.007809	-0.097453	0.16303	-0.033058	-0.021351	0.0012005	0.0019935	-0.055153	0.036041	0.051704	0.0067634	0.0074478	-0.00067371	-0.057633	0.0079504	-0.0041218	0.0024806	-0.0080404
