-0.23169	-0.18523	-0.21063	-0.16399	-0.21377	-0.26817	-0.26639	-0.16423	-0.013003	0.096259	0.52857	0.78661	0.22125	0.38392	0.43353	0.84097	1.0029	0.61335	-0.20682	-0.3891	-0.52021	-0.51052	-0.24427	-0.24523	-0.38336	-0.17436	-0.20609	-0.09477
-0.18901	-0.17215	0.057919	0.045365	0.038436	-0.14697	0.14066	0.1392	0.42473	0.15719	0.37575	0.70971	0.22901	0.18231	0.058665	-0.092902	0.55996	-0.42393	0.61021	1.0074	-0.045348	1.2499	-0.11172	0.0127	0.10238	-0.09404	0.046921	-0.1218
0.54301	0.22869	0.33912	0.31781	0.38115	0.34076	0.11241	0.16585	-0.092449	0.00076904	0.2514	0.15709	0.011792	0.34694	0.45052	0.64145	0.20038	-0.8803	-0.89967	-0.056178	0.26487	0.020267	0.1197	0.25251	0.30594	0.28657	0.38244	0.11452
-0.1922	-0.043608	-0.27061	-0.32551	-0.37379	-0.16728	-0.072276	-0.49711	-0.2545	-0.15571	0.023665	0.07616	-0.43683	-0.31865	-0.44844	0.0063223	0.037196	-1.0457	-0.38841	0.25876	-0.36244	-0.14881	-0.46252	-0.50558	-0.1244	0.1283	-0.33152	0.1527
0.012325	-0.22449	-0.45002	0.15835	0.0066256	0.16198	0.011983	-0.002264	-0.079831	0.043132	-0.034252	-0.14654	-0.081301	-0.0095547	0.06157	0.094244	-0.033893	-0.19476	-0.1527	-0.17991	0.12627	0.17026	0.052267	0.098186	0.094631	-0.31728	-0.36959	-1.3418
0.18118	0.16527	0.074605	-0.26591	-0.30961	0.20136	0.2631	-0.85408	-0.51713	0.15968	0.036159	0.2178	-0.13715	0.16819	0.12915	0.07356	-0.059848	0.16518	0.23212	-0.059702	0.26583	0.21114	0.18507	0.1867	0.19609	0.06683	-0.062549	0.019575
-0.047221	0.017019	0.0057135	-0.022305	-0.016145	-0.011085	0.085566	-0.042567	0.30754	0.28805	-0.05604	0.72412	0.29943	0.14799	-0.047844	-0.36089	-0.53733	-0.18975	-0.17138	-0.37129	-0.10743	-0.091609	0.0094714	0.022744	-0.056244	-0.025673	-0.025879	-0.041685
0.092391	-0.013245	0.072056	-0.017132	-0.012906	-0.068766	0.018634	-0.057143	-0.0012597	-1.0145	-0.29217	0.16706	0.064106	0.11563	0.087192	0.012806	-0.010825	-0.07871	0.15594	-0.27276	-0.28465	0.19806	0.078318	0.093858	0.012785	0.033291	0.031461	-0.051858
-0.011678	-0.791	0.12826	0.16815	0.080449	-0.18286	0.01034	-0.15223	-0.12675	0.10953	-0.061738	-0.070003	-0.065139	0.016521	0.042986	-0.0012093	-0.056565	-0.0031522	-0.1039	-0.1049	-0.071435	0.13934	0.056861	0.070014	-0.015558	0.0243	0.060456	0.13929
-0.22502	-0.01212	-0.13157	-0.019601	-0.11004	-0.04344	-0.01501	0.032713	-0.04453	-0.040233	0.010751	-0.18514	0.013454	0.30102	0.67793	-0.27067	-0.10337	-0.13342	0.040593	0.085139	0.085908	-0.085212	-0.10038	-0.10471	-0.027599	0.055724	-0.10641	0.071996
-0.029431	0.08517	0.035108	0.060867	0.024677	0.025858	0.027834	-0.049474	-0.075411	-0.023121	-0.033257	-0.033974	-0.027869	0.036682	0.030574	0.044942	-0.044595	-0.070033	-0.073221	-0.068239	0.094803	0.13026	0.10103	-0.25674	-0.15814	-0.75974	0.14963	0.16777
0.001111	-0.086378	0.011621	-0.030242	0.030844	0.053758	0.74305	0.040948	0.09885	-0.024462	-0.03836	-0.030464	-0.003891	-0.0066672	0.011189	0.030692	0.064565	0.012546	0.022028	0.07389	-0.08961	-0.19266	-0.0084009	-0.091768	-0.041361	-0.017308	-0.0063455	-0.032839
0.0087665	-0.18141	0.050412	-0.0013531	-0.039267	-0.054855	-0.081931	0.015531	0.023522	-0.19741	0.14448	0.17051	0.0082885	0.020281	-0.0782	0.050039	-0.092543	-0.050805	0.10406	0.23548	0.32983	-0.3457	0.18695	-0.017217	0.059316	-0.073333	-0.044357	-0.033942
0.36508	-0.05236	-0.35967	0.062694	-0.024623	0.013498	0.018752	0.081996	0.049787	0.0087494	0.036799	-0.0037025	0.032796	0.01531	-0.0010365	0.010722	-0.0012364	-0.022059	0.063235	-0.021271	-0.024139	0.022462	0.007023	0.11831	0.048127	-0.096543	-0.30402	0.25574
-0.0099239	0.057618	0.021711	0.36972	-0.33941	-0.0037842	0.034616	0.13565	-0.14974	0.024896	-0.012282	0.071339	-0.024084	-0.028714	-0.017858	-0.029191	0.014808	0.016384	-0.0039935	0.0056482	-0.073033	0.01501	0.16441	-0.11244	-0.0018677	0.079	0.0057036	-0.008003
-0.16679	0.07502	0.018059	0.032256	-0.044247	-0.063575	0.022139	-0.03289	-0.024659	-0.0020932	-0.014441	-0.019702	-0.0080439	-0.0080187	0.00072947	-0.0042925	-0.006404	-0.020474	-0.11498	0.15047	-0.13753	-0.064588	0.086235	0.41366	-0.077962	-0.12432	-0.057752	0.028579
0.042754	-0.016311	0.02986	0.0071234	0.0055864	0.023149	0.0029738	-0.032368	-0.0079166	-0.029503	0.00049006	0.024653	-0.0086648	-0.025892	-0.040815	-0.35173	0.33923	-0.024579	-0.087699	-0.095892	0.11363	-0.0576	0.017802	0.049625	0.013766	-0.034171	0.0048982	0.00073387
-0.00487	-0.012113	0.0056274	-0.0033956	-0.014672	-0.0034083	0.0066098	-0.052504	-0.13752	-0.0025538	0.0045723	-0.1077	0.44297	-0.026836	-0.054094	0.010296	0.019225	-0.059569	0.00095799	0.025363	-0.0025309	-0.015298	-0.014935	-0.022825	-0.0011208	0.0027614	-0.010215	-0.0057024
-0.061826	0.027349	-0.00022567	-0.084461	0.1091	-0.0090421	-0.012717	-0.012492	0.02938	0.02391	-0.012367	-0.025542	0.0076517	-0.00041451	0.0098275	-0.00061031	0.034444	-0.010181	-0.056884	-0.00031239	-0.053867	0.049769	0.3252	-0.11152	-0.010484	0.067147	-0.1493	0.022558
0.22974	0.023742	0.061796	0.017398	0.077009	-0.056199	-0.05357	-0.070003	-0.043313	0.025094	-0.05215	0.03216	-0.0037532	-0.026384	0.088417	-0.088838	-0.028637	0.055469	-0.02631	0.18005	-0.15001	-0.071315	0.0040971	-0.06189	-0.051864	-0.026806	0.033473	-0.093906
-0.018303	-0.013872	-0.033985	-0.016664	-0.049527	0.015195	0.026335	-0.0058274	0.026256	-0.091192	-0.02342	0.032413	0.030625	0.0056658	-0.019215	-0.017066	-0.049791	0.18583	-0.26921	0.11376	0.090696	0.10644	-0.064581	-0.046972	0.036072	0.016864	-0.053981	0.020416
-0.061546	0.0035704	-0.0010137	0.0009993	0.018382	-0.030535	-0.0094914	0.00020934	-0.0093215	0.012679	0.0032677	0.0053788	3.6761e-05	-0.0045613	0.0078268	-0.015367	0.0071625	0.01877	-0.004506	0.0028976	-0.11666	-0.053202	-0.006758	-0.029492	0.37028	-0.088951	0.012145	0.01505
-0.019199	-0.0034762	-0.0029315	-0.0033429	-0.00049794	0.004822	0.010757	-0.0076357	0.012408	-0.014752	0.012852	0.067659	0.031949	-0.33825	0.17543	0.026018	-0.0051767	-0.0065467	0.0029903	-0.031022	0.043283	0.016352	0.0036483	0.016862	0.0051354	-0.0039371	-0.005074	0.01901
0.088455	-0.052758	0.14702	-0.21842	-0.18263	-0.010903	-0.0086604	0.15948	-0.0068699	0.034881	-0.0093545	-0.029704	0.0036415	-0.00083011	0.023266	0.00547	0.00016553	-0.023277	-0.024119	-0.020786	-0.022047	0.02701	0.019732	0.024994	0.015748	-0.047025	-0.031099	-0.025771
0.020334	0.0075494	0.018688	-0.0019647	0.012864	-0.0063547	0.030777	-0.0069377	-0.021891	-0.066919	0.32805	-0.059427	-0.01353	-0.018645	-0.015953	-0.075846	-0.076935	0.027175	-0.020627	-0.045794	-0.073733	0.037895	0.0098059	-1.8833e-05	-0.015271	-0.000336	0.017856	-0.017277
0.037608	0.082816	-0.012077	0.0026412	0.0071087	-0.33302	0.05887	1.1861e-05	-0.0056742	0.017292	-0.001906	-0.018083	-0.0040224	0.0044167	-0.0056209	0.018356	0.0020346	-0.0089479	-0.01516	-0.047688	0.090124	0.026749	-0.00020229	0.0027186	0.019985	0.014603	0.004482	-0.025262
-0.026967	-0.0019446	-0.038036	-0.043009	0.086304	-0.00089372	0.020281	0.11111	-0.18279	-0.0014391	-0.0080693	0.075691	-0.020134	-0.00030607	-0.012002	-0.020695	-0.012623	0.011006	0.0050409	0.0070532	0.003286	0.0071185	-0.016015	0.0067097	-0.010778	0.0052535	-0.0026735	0.0069159
