6.1496	1.1036	1.7153	2.2082	0.20568	1.1993	-0.76759	-0.22661	-0.41818	0.1741	-0.38451	-0.33915	-0.38957	0.24517	0.24215	-0.60224	0.30794	-0.0958	-0.39206	0.17862	-0.46289	-0.13023	0.31551	0.21606	0.65715	0.86671	1.2559	1.2918	5.8566	3.8785
0.62253	-0.23678	0.30944	2.5843	1.2687	1.243	0.20187	0.33063	0.70278	0.2048	0.42702	-0.23828	-0.087384	0.0032802	-0.049103	0.17284	-0.24233	-0.20708	-0.11415	-0.14445	0.021565	0.037325	-0.50742	-0.65937	-1.3877	-1.3628	-0.46357	-2.0576	-0.67822	-0.31599
-0.11988	0.32867	0.24659	-1.2283	-0.94187	1.2985	0.68899	0.74048	-0.44295	1.1587	0.56199	0.5628	0.5611	0.93065	0.33825	-0.041639	0.66185	0.66933	0.4999	1.2465	0.73734	0.80836	0.57799	0.49796	0.35177	-0.46776	-0.92071	-1.6479	-0.056646	1.4818
-0.18598	-0.028042	-0.084858	-0.26804	-0.053667	0.26694	-0.024688	0.16255	-0.16096	0.11031	0.15848	-0.1126	0.21072	0.17463	0.067629	-0.2028	0.18924	0.074295	0.12516	0.34656	0.039138	-0.047957	-0.076915	0.037901	0.078237	-0.63256	3.6027	-0.69885	-0.26566	-0.035013
0.3016	0.56131	0.59438	0.15281	-0.5519	-0.58137	1.6753	0.21637	-0.31993	-0.61376	1.3713	0.92476	0.30245	-0.21803	0.045334	0.53759	-0.1857	0.18741	0.78825	-1.0679	0.59539	1.1846	0.24386	-1.0326	-0.73529	0.19951	0.33861	0.44275	0.28609	-0.36876
0.078763	0.054936	0.078353	-0.67261	-0.43424	-0.23229	-0.0077582	-0.16699	-1.1223	-0.34706	-0.075327	-0.27938	0.020996	-0.74177	-0.2547	-0.28323	0.087408	-0.25738	-1.4279	-0.24767	-0.07119	-0.14955	-0.20293	-0.81171	-0.52623	-0.53868	-0.1633	-0.58615	0.054539	0.44295
-0.067659	0.034822	0.015277	0.34854	0.18005	0.20677	0.063702	0.26424	0.39532	0.17569	0.45911	0.53838	0.43338	-0.14074	0.0063485	0.11053	0.20056	0.043821	-1.5515	0.20398	0.36582	0.3385	0.13688	0.38239	0.33239	0.39953	0.13579	0.3399	-0.12234	-0.23423
0.2777	0.1289	0.18305	0.16081	-0.00070222	-0.03626	-0.12931	-0.055258	-0.088058	-0.042427	0.003518	0.0159	-0.036809	0.06891	-0.018964	0.10549	-0.0032821	-0.0096006	0.032328	-0.094821	-0.051858	-0.015907	0.041241	-0.073487	-0.048333	0.22527	0.088969	0.36097	-1.1161	0.80831
1.0343	-0.10188	-0.13538	-0.42158	-0.0054165	-0.045048	0.084268	0.023181	-0.040097	0.098648	0.017431	-0.060015	0.020408	0.024421	0.0018501	-0.083718	0.029742	0.015179	0.0014166	0.047485	0.0090823	-0.030717	0.046105	0.056874	0.12458	0.064428	-0.056899	-0.15162	-0.39661	-0.66439
-0.086785	0.30788	0.070586	-0.10252	0.1676	0.19448	0.95867	0.1494	0.22059	0.1434	-0.41833	-0.45292	-0.33038	-0.088423	0.0052304	-0.11697	-0.015617	-0.12665	-0.18077	-0.10922	-0.20717	0.016446	0.043461	0.090178	0.13809	0.061227	0.047061	0.074026	-0.060819	0.063411
-0.015336	0.008404	0.050904	0.02992	0.041742	0.063131	0.012101	0.038166	0.057772	0.030399	0.056945	0.15712	-0.01988	-0.23311	-1.1804	-0.48526	0.025591	0.045404	0.18585	0.080657	0.070944	0.063254	0.0089299	0.072423	0.040406	0.093105	0.0028984	-0.017277	-0.02039	0.0264
-0.017293	-0.076337	0.01745	0.18106	-0.020336	-0.063818	0.034384	-0.03912	-0.046271	-0.06832	0.16672	-0.016468	0.024411	-0.048439	-0.045602	0.10233	-0.04771	-0.056764	0.040584	-0.29499	-0.011172	-0.068612	-0.055621	-0.26999	1.0567	-0.22416	-0.055682	-0.21549	-0.037258	0.060504
0.0058083	-0.010592	-0.022452	0.03346	0.0023834	-0.0077175	0.0037129	-0.023079	0.022917	-0.029025	0.0035058	-0.1422	-0.072824	-0.032635	0.00074878	-0.041245	-0.096678	1.1423	-0.12206	-0.14247	-0.13085	-0.057095	-0.051894	-0.022617	-0.0050356	-0.039436	-0.0023701	0.018125	-0.0027646	-0.0045545
0.0020242	0.040057	0.022988	-0.069656	-0.0027445	0.038144	-0.0033511	0.019488	-0.059641	0.026271	0.059029	0.04134	0.09253	0.11094	0.043522	-0.23295	-1.1265	-0.068931	-0.080324	0.094011	0.046179	0.055682	0.023032	0.085002	0.031508	-0.0084678	0.010471	-0.01871	-0.004448	0.050462
-0.10415	0.017144	0.22755	0.16396	0.052673	-0.0092341	-0.024467	0.010105	-0.15283	-0.13941	0.12192	-0.015618	0.053347	-0.0046829	0.43583	-0.95131	0.21147	-0.0024722	0.08259	-0.011087	-0.028257	0.084417	-0.045243	-0.02426	0.075956	0.18398	-0.051338	-0.017176	-0.088878	-0.10599
0.045283	0.10656	-0.29507	0.03481	0.011333	0.011095	-0.18617	-0.1896	0.051713	-0.071131	-0.4379	0.19571	-0.023655	0.037212	0.0076797	-0.063826	0.015807	0.0017921	-0.037501	-0.1029	-0.29533	0.86844	0.13214	-0.04376	0.059548	-0.20379	0.012485	-0.039628	-0.03354	-0.0034725
-0.010115	0.021246	0.085233	0.29033	-0.88788	0.068523	-0.065275	-0.02769	0.21575	0.13558	-0.13768	-0.017587	-0.13319	-0.031293	-0.0085514	-0.0095284	-0.054469	-0.042515	-0.062431	-0.068518	-0.10953	-0.066069	0.0085133	-0.039673	-0.027503	0.24804	0.041916	-0.17341	-0.051047	-0.13919
-0.093976	0.045215	0.042098	-0.033277	0.31164	-0.052698	-0.08293	-0.0904	-0.17523	0.1403	-0.069755	-0.017187	-0.063317	0.11254	-0.048332	0.15941	-0.038347	0.0292	-0.022224	-0.04958	-0.059227	0.073828	0.092762	-0.26	0.012828	0.74988	0.065015	-0.44096	0.056013	-0.025969
0.029332	-0.89637	-0.0091929	-0.0091259	-0.021709	-0.023582	0.23525	-0.06898	0.043519	0.0086469	-0.013649	0.031094	-0.10277	-0.0489	0.033819	-0.033482	-0.025302	-0.011468	-0.021929	0.0018631	-0.022064	0.14155	0.018044	0.0089475	-0.040115	0.089534	0.036416	0.01751	0.030536	0.18397
0.01059	0.0026587	-0.040709	-0.25217	0.056878	-0.054877	-0.16185	0.10431	0.41543	0.43282	0.12775	-0.036186	0.13909	-0.13295	0.062927	-0.13117	-0.004253	-0.045121	0.021326	-0.30427	-0.062534	0.018985	-0.10522	-0.22435	-0.072331	-0.019232	0.0076823	0.031034	0.044924	0.12972
-0.015892	-0.052831	-0.010698	-0.021984	-0.041082	-0.024001	0.0444	5.2497e-05	0.013679	-0.033601	0.013482	-0.044474	0.050953	0.73206	-0.17979	-0.098058	0.066324	-0.038056	-0.16787	-0.19458	-0.043437	-0.060762	-0.047238	-0.11737	-0.053265	-0.063222	-0.011413	0.082835	0.032918	-0.028438
0.024793	0.056096	-0.66293	0.13144	-0.077309	0.054112	0.1011	-0.061137	-0.056745	-0.044849	0.24316	-0.22836	0.091056	-0.018893	0.0025435	-0.068659	0.013934	-0.028882	0.033354	0.0205	0.034364	0.0042414	-0.064301	0.011913	-0.026062	0.14258	-0.0073962	0.0037545	0.021506	0.11798
-0.013654	-0.051778	0.21094	0.011883	-0.054214	-0.04007	-0.079615	0.10538	-0.021732	-0.042975	0.02697	-0.47802	0.25697	-0.0022329	-0.075913	0.11816	0.00089726	-0.0062301	0.029803	0.097727	0.033271	0.28543	-0.21562	0.044593	0.023489	0.05131	-0.015909	0.04685	-0.0010043	-0.045732
0.02553	-0.03355	-0.040319	0.050948	-0.003362	0.021013	0.14448	0.03118	0.0043811	-0.085644	-0.32473	0.14983	0.56388	-0.051827	0.0037106	-0.0052109	-0.00015378	0.034071	0.061257	-0.047407	-0.0682	-0.17074	-0.033429	-0.027202	-0.011604	0.05894	-0.0047138	-0.041512	-0.00093688	0.031836
0.024524	0.04476	-0.019573	-0.045299	-0.0011414	-0.013121	0.06052	-0.018554	0.013584	-0.013441	-0.030747	0.19762	-0.10496	0.026506	0.021567	0.016558	-0.0031873	0.0065061	-0.0014178	0.090669	-0.016717	0.033095	-0.54601	0.012038	0.025323	0.058399	0.0005443	-0.019501	0.0017681	0.027756
0.00048364	0.0051806	0.031138	-0.012454	0.0034425	-0.041007	-0.014384	-0.028986	-0.091672	0.0087759	0.053377	0.0098556	0.017057	-0.014559	-0.0082148	0.02217	0.0091211	-0.032421	0.00011568	-0.35983	-0.031508	0.01005	-0.047891	0.43388	-0.039919	0.013119	0.0042209	-0.148	0.0034439	0.037173
-0.034562	-0.032613	-0.0095792	0.12284	0.0016633	0.083566	0.022644	-0.029114	-0.32142	0.3781	-0.037567	0.022646	0.022023	-0.013345	-0.010396	0.014608	0.0006146	0.0056979	0.027187	-0.033384	-0.029101	0.012503	-0.044832	-0.025689	0.0050312	-0.047988	0.0065286	0.17759	-0.009621	-0.1016
-0.021612	-0.04567	-0.0040507	-0.11822	-0.0079259	0.44033	-0.09271	0.11895	-0.043513	-0.1589	0.012698	0.014616	-0.030824	-0.035458	0.0033436	0.035173	-0.015543	-0.015861	0.026686	-0.14221	-0.033922	2.7286e-05	-0.027331	-0.055588	0.0056183	0.07455	0.0038303	0.086902	-0.0014007	-0.053491
0.0083395	-0.0030783	-0.026984	0.010904	-0.00044856	0.012004	-0.024699	-0.029235	0.01035	0.01246	-0.15011	-0.035313	-0.039383	0.0038461	0.015788	-0.028367	-0.0028473	0.022309	0.002591	-0.088661	0.35836	0.013625	-0.024094	-0.020374	0.0046515	0.0043093	0.010724	0.00062834	-0.0035453	0.0062546
0.0082809	-0.016276	-0.053518	0.035306	-0.0026284	-0.084744	-0.02826	0.26885	-0.047748	-0.007085	-0.046245	0.021078	-0.047283	0.0042422	0.0017553	-0.0026773	-0.0049804	0.0015197	0.0028597	-0.011288	-0.0073277	0.0043563	0.0056151	-0.001492	0.0025685	0.0061256	0.00025971	-0.0064394	0.0043443	0.012036
