-0.086084	-0.18978	-1.1049	-0.92703	-0.75523	-0.45559	-0.7073	-1.5347	-0.22887	-0.64194	-0.32447	-1.5496	-0.34927	-0.21189	-0.15297	-0.79493	-1.1644	-0.56755	-0.24276	-0.54126	-0.70482	-0.77713	-1.2624	-0.49774	-0.45199	-0.38856	-1.2156	-0.011041	-0.42101
1.7445	0.14237	0.44291	-0.17122	0.059604	-0.079901	-0.23313	-0.12078	0.077881	-0.017192	0.12463	0.041129	0.018602	-0.00097037	0.0015743	0.013545	-0.0064635	0.12376	-0.035117	-0.11478	-0.065044	-0.11569	-0.28474	-0.095555	-0.13277	0.013098	0.010289	1.6166	0.6506
-0.080024	0.028392	-0.0075924	-0.067543	-0.097537	0.0065569	-0.078578	-0.0036887	-0.011116	0.048577	0.15343	0.047074	1.7802	1	-0.082818	-0.073594	-0.34936	-0.026369	0.048644	-0.012815	-0.025399	-0.036303	-0.10293	-0.0035156	-0.079676	-0.01417	-0.038648	0.027804	-0.038207
0.027667	-0.42652	-0.25508	-0.30756	-0.43881	-0.27114	0.21309	1.2626	-0.26465	-0.10346	0.35353	0.63473	-0.070073	-0.050115	0.097673	-0.40478	0.12438	-0.12525	-0.40821	-0.40343	-0.48422	-0.06014	-0.098584	-0.28249	-0.59942	-0.32295	-0.19075	0.085711	-0.17848
-0.0070671	-0.03489	0.058246	0.051092	0.048511	-0.0085938	0.0023976	0.17712	-0.028848	-0.0087658	-0.009636	0.10398	0.259	-0.73797	-1.7936	0.060375	-0.44024	-0.10155	-0.05738	0.045993	-0.065848	0.03847	0.11051	0.014628	0.028047	0.082555	0.070655	0.036534	0.0066916
-0.0076093	0.1625	0.15795	0.2098	0.1636	0.1066	0.083742	0.057781	-0.70868	-0.86678	-0.26638	-0.071249	0.037036	0.050361	0.095073	-0.11047	-0.17975	0.0046741	-0.55906	-0.21717	0.021942	0.054088	0.10932	0.20107	0.20117	0.10314	0.19774	0.02454	0.092151
0.021598	0.37385	-0.67011	0.063661	0.14956	0.47148	-0.17806	0.32133	-0.088757	-0.23382	0.15404	0.25195	-0.038699	-0.028621	0.042004	0.25218	-0.16472	0.16251	0.12751	0.48615	0.13586	-0.05134	-0.26406	0.021549	0.14361	-0.0018457	-0.4719	0.1017	0.064654
0.0099138	0.019027	0.048595	0.052555	0.088018	0.033208	0.072957	0.092352	0.24693	-0.026802	-0.054084	0.026672	-0.062202	0.013243	0.031019	-0.89962	-0.24224	0.090659	0.092056	0.29112	0.12032	0.085804	0.03883	0.087068	0.08049	0.046188	0.02042	0.025736	0.027738
-0.028259	-0.14187	-0.019369	-0.13798	-0.23064	-0.12482	-0.038099	-0.05096	-0.052256	-0.15628	-0.042077	-0.028139	0.01895	-0.019051	-0.096873	0.014457	0.093593	0.74054	0.080278	-0.15105	0.44363	0.22515	-0.045318	0.083926	-0.16822	-0.062372	-0.10354	0.0096294	-0.064465
-0.097174	-0.16535	0.27636	-0.07046	-0.20697	0.32698	-0.21412	-0.21877	-0.11597	-0.015617	-0.23355	0.48249	-0.071159	-0.0064954	0.048426	0.031423	-0.22831	-0.093353	0.076585	0.14535	0.12087	-0.20144	-0.015073	-0.018156	-0.32648	-0.14303	0.094151	-0.056666	0.1477
-0.080544	-0.32306	0.086319	-0.026935	-0.10787	0.061896	-0.035187	0.047655	0.022819	-0.093426	0.1329	-0.078135	-0.036844	0.028769	0.033795	0.069953	-0.043218	0.0421	0.0079942	0.14516	-0.13357	-0.036451	-0.041532	0.094289	-0.083735	0.67861	-0.06303	0.060818	0.015255
0.056876	0.0040845	-0.050761	0.0060888	-0.05971	-0.037775	0.50851	0.051322	-0.067473	0.15841	0.074005	-0.11125	-0.098246	0.042149	0.09143	0.17188	-0.50929	-0.050953	0.019199	-0.018356	0.23832	-0.0068571	0.03968	0.017521	-0.11505	0.0067826	0.040903	0.03023	0.025766
0.085155	-0.26775	-0.12694	-0.037968	0.061547	0.061995	0.31336	-0.26504	-0.03411	-0.014756	0.0088599	0.27163	0.021875	0.032441	-0.052332	-0.051243	0.10712	0.040282	-0.049617	-0.043831	-0.047106	-0.031616	-0.026767	-0.069548	0.26659	-0.0023635	-0.12551	-0.023704	0.022136
0.00032365	-0.040575	-0.0014913	-0.093697	0.013341	-0.35825	0.0044557	0.028047	-0.30463	0.077227	-0.17995	0.0069594	0.014898	0.014799	0.0021548	0.018455	0.047197	-0.016735	0.097244	0.34246	-0.020574	-0.0025458	0.021273	-0.016289	0.04483	-0.0068189	-0.040972	0.020484	0.049261
0.029908	0.33853	-0.032708	-0.012569	-0.12705	-0.0050567	0.15222	-0.11295	-0.035265	0.026729	-0.10884	0.13555	0.029058	-0.023883	-0.034815	-0.076309	0.16228	-0.086098	-0.024982	-0.02243	0.06603	0.022854	-0.011959	-0.056185	-0.18038	0.2444	-0.051303	0.0241	-0.16702
0.37508	-0.042216	-0.051561	0.00038253	-0.044027	0.00058146	-0.044349	0.020975	0.002824	-0.065903	0.028956	-0.03075	0.023723	-0.0013726	-0.0035756	0.0018146	0.013997	-0.044342	0.011175	0.059541	0.046563	0.0028142	0.023331	0.02561	-0.050268	0.030187	0.043753	-0.37561	-0.014558
-0.080562	0.091159	-0.063486	-0.02071	-0.0094241	-0.032178	0.048111	-0.00061976	0.0071437	0.028541	-0.00079119	-0.022674	0.020734	-0.016579	-0.016613	-0.046649	0.058803	0.019049	0.0026193	-0.093634	-0.021614	0.0008142	-0.013117	-0.024666	-0.076249	0.060173	-0.047053	-0.11754	0.48727
-0.026308	-0.0037101	-0.020373	0.011032	0.038896	-0.005932	0.060929	0.011028	-0.030814	0.034669	0.011841	0.017521	-0.0042249	-0.010471	-0.021584	-0.0091037	0.048399	0.013558	0.0057638	0.024718	-0.0066472	0.017654	-0.45039	0.096306	-0.0083359	-0.0035448	0.27121	-0.025646	-0.0040591
0.050707	-0.092805	-0.080257	0.0075096	0.053631	0.11433	0.047208	0.12514	0.09106	0.056194	-0.40577	-0.078581	0.046315	-0.0023726	0.017568	0.04282	-0.00051399	0.030628	0.01177	-0.05395	-0.073799	0.05305	-0.019349	-0.0069344	-0.029628	0.026309	-0.022564	0.01737	-0.0079301
0.026123	0.13071	0.049368	-0.0081789	0.035466	-0.010329	0.053739	-0.050274	-0.0061411	-0.011134	0.014216	0.055259	-0.0034427	-0.033366	0.039927	0.025718	-0.12776	0.2637	0.077554	0.013186	-0.32168	-0.02307	0.032866	-0.084158	-0.023423	-0.00016676	0.071415	-0.07383	-0.038081
0.022208	0.037683	0.033593	-0.046275	-0.0079296	-0.0084741	0.027491	-0.029745	-0.0083729	0.073626	-0.0020312	0.049708	0.00041263	-0.018402	0.0075211	0.0032088	-0.0068261	-0.0099528	-0.01019	-0.036091	-0.11516	0.014885	0.010796	0.43963	-0.026303	-0.055675	-0.14643	-0.014286	-0.010026
0.0028508	-0.014964	0.025518	-0.014398	-0.03489	0.031745	-0.040134	-0.060232	-0.028965	4.8354e-05	0.033883	0.037381	-0.020991	0.0074782	0.019987	0.021271	-0.068279	-0.097461	0.0031302	0.0198	-0.072718	0.45557	-0.04099	-0.063183	-0.0052868	-0.014949	-0.042372	-0.0014939	0.022131
0.00071488	-0.046896	-0.017215	-0.031003	0.39546	-0.05577	-0.05689	-0.042882	-0.046162	0.040609	0.032287	0.054074	-0.0049513	0.0012291	0.0071359	-0.017996	-0.033169	0.0069553	-0.02062	-0.073496	0.057461	0.013021	-0.0063539	-0.020849	-0.19705	0.053705	-0.05897	-0.029774	-0.04597
0.015848	-0.06762	-0.11879	0.41874	-0.061943	-0.11259	-0.051254	-0.064308	-0.014278	0.030967	-0.0077985	0.048593	-0.0018441	0.0041624	0.0054377	-0.014352	-0.021554	0.019304	0.01061	-0.020712	-0.034672	-0.00026158	0.0008108	0.022449	-0.084821	-0.0068463	-0.013755	0.038395	0.0061759
-0.02837	-0.044699	-0.017092	0.0045271	0.042708	0.013337	0.1501	-0.039788	0.079958	-0.23454	0.030006	-0.068269	0.030161	-0.0089198	-0.02151	0.028215	0.10446	-0.068359	0.14639	0.10341	-0.046484	0.013831	0.043744	0.032119	-0.17293	-0.10174	0.028104	0.058129	0.010021
-0.015135	0.028444	0.0042079	-0.026214	0.0053699	-0.17107	-0.023141	0.011818	0.17768	-0.11749	-0.0526	0.1186	-0.0034665	-0.0027273	0.028272	0.069456	-0.074646	-0.033252	-0.020859	-0.021428	0.028077	-0.00069112	-0.031502	0.011304	0.052868	0.029364	-0.0021518	-0.013966	0.0087254
-0.0091994	-0.002614	2.8957e-06	-0.00011019	-0.0005066	0.0039967	0.022345	-0.040423	0.079753	0.035573	0.0048986	-0.029838	0.0093097	0.0037482	-0.0046773	0.027848	0.020529	0.052509	-0.25897	0.1464	-0.011841	0.0069861	0.0053677	-0.0096928	-0.067292	-0.042414	-0.0019843	-0.0022148	0.013418
-0.0030873	-0.015134	0.0013542	0.0011356	-0.0026512	0.0016289	0.0035742	-0.0080296	-0.006299	0.0062484	0.010933	-0.0029105	0.09197	-0.16075	0.08065	-0.0051884	-0.0056787	-0.0049757	-0.0027419	0.0033045	0.016299	0.0010186	-0.001882	-0.0034472	0.0078691	0.0027899	-0.0014382	0.0048938	-0.0013074
