0.41775	0.19396	0.52107	0.98196	0.76386	0.54531	0.71513	0.88155	0.30295	0.48997	1.0571	0.66865	0.79401	0.76079	0.5843	0.68934	1.4886	0.94552	0.53109	0.57798	0.81799	1.6729	0.70267	0.6703	0.24562	0.71285	-0.22297
-0.23871	-0.71027	-0.74898	0.00049263	-0.3493	0.07245	0.32695	0.29956	0.082601	0.09059	0.19164	-0.052851	-0.013109	0.0016087	0.04128	0.035687	0.050204	0.30908	0.17347	0.17392	0.077556	0.17893	-0.40485	0.25157	-1.016	-1.2005	-1.6504
0.67727	0.15281	-0.79267	-0.48729	-0.55156	0.36111	0.10052	0.12404	0.27125	0.18533	0.31712	0.12016	0.095868	0.095792	0.018179	0.21894	0.11253	0.25741	0.1729	0.30929	0.19442	-0.42176	-0.30139	0.50686	0.15685	-0.5354	0.94864
-0.081429	-0.071543	-0.10162	-0.15449	-0.12148	-0.12706	-0.29035	-0.10226	-0.062833	-0.036195	-0.28663	-0.075667	0.15892	0.52633	1.4766	0.094008	0.56777	0.022272	-0.18941	-0.25237	-0.31657	-0.24503	-0.078142	-0.2544	-0.030424	-0.070565	0.016463
-0.11143	-0.042516	-0.10424	-0.0075394	-0.053762	-0.23163	-0.028105	0.31811	-0.38364	0.060873	1.0494	0.25074	0.2723	0.093119	-0.116	-0.064016	-0.051141	-0.13127	-0.28401	-0.5269	-0.21305	-0.10572	-0.08404	-0.32353	-0.036613	-0.02832	0.10942
-0.052251	-0.012271	-0.050889	-0.022087	-0.065608	-0.093985	-0.067868	-0.083011	-0.080509	-0.15805	-0.13495	0.017673	-0.058855	-0.20078	-0.49451	-0.074835	1.092	-0.044956	-0.091814	-0.037752	-0.11022	-0.077528	-0.064627	-0.10641	-0.03983	-0.076531	0.051443
0.0099094	-0.061249	0.68756	0.0064245	-0.98794	-0.03553	0.063219	0.096819	0.041754	0.022237	0.049715	-0.016357	-0.005314	-0.0035048	0.0078759	-0.004933	0.013686	0.06545	0.018524	0.027424	0.0045721	0.020459	0.059596	0.02368	0.028683	0.010058	-0.047683
0.042151	0.0050751	0.0019309	0.027584	0.022609	0.13783	0.00016433	-0.027896	-0.054793	0.18325	0.33617	-0.15846	-1.0605	-0.14287	0.21446	0.080229	0.12129	-0.058471	0.0042671	-0.19145	0.13762	0.043181	0.039051	0.077227	0.0057553	0.058465	-0.007072
0.017091	0.048666	0.37345	-0.92682	0.27635	0.064153	0.11319	0.14057	-0.04815	0.022953	0.012391	0.027494	0.0012341	0.03995	-0.027152	0.060568	0.047696	0.0028341	-0.061856	0.00011921	0.063245	0.051454	-0.019156	0.023211	-0.06283	-0.041882	-0.11211
-0.037013	0.012863	0.0023847	-0.0097895	0.0037383	0.070924	0.082485	0.056672	0.50615	0.10848	0.15774	0.016261	0.045475	0.03213	0.050612	-0.074691	0.085464	-0.70336	0.090906	0.17828	-0.11922	-0.060332	0.0029293	-0.037506	-0.0048655	0.054029	-0.077904
-0.25365	-0.020509	-0.020029	-0.053721	-0.021712	-0.25375	-0.26163	0.0091958	0.12561	0.10141	0.017805	0.0049991	0.028446	0.039842	-0.025821	0.14228	0.022704	-0.0017319	0.2931	-0.021953	0.61673	-0.084627	-0.041936	-0.30348	-0.00065486	-0.043528	0.060254
-0.013463	0.041073	-0.003355	-0.036337	-0.030209	-0.11323	-0.066104	-0.046932	0.13366	-0.022979	-0.037657	-0.04126	-0.056283	-0.016609	0.013865	-0.04726	-0.054442	-0.029397	-0.0097161	-0.044131	-0.13532	0.67671	-0.25056	-0.17472	-0.0045223	-0.26397	0.24738
0.21012	-0.042116	0.04205	0.02548	-0.013017	0.10193	-0.3658	-0.020374	-0.34383	0.15807	0.043564	0.021385	0.012569	-0.047058	-0.0059908	0.22161	-0.013064	-0.16921	-0.094565	0.43913	-0.032522	0.058019	-0.081174	-0.15249	-0.047239	0.011945	-0.075727
0.022993	-0.0092526	0.016529	-0.022878	0.024529	-0.001711	-0.0022929	0.027731	0.031891	-0.075268	0.08456	-0.029157	0.19195	-0.72317	0.26735	0.02381	0.017816	0.01317	0.034799	-0.026158	0.054204	0.015668	0.011686	0.027415	-0.0060822	0.012674	0.013771
0.12403	0.02217	-0.019105	-0.019774	-0.007722	-0.032071	0.10681	-0.033464	-0.031313	-0.6007	0.15878	0.0085041	-0.098947	0.073026	0.06327	-0.03058	-0.020216	-0.0060422	0.11879	0.19955	0.060193	-0.010343	0.015638	-0.17959	0.05595	-0.0040169	-0.044856
-0.0033054	0.0021442	0.038788	0.0064649	-0.014812	0.49862	-0.34882	-0.018412	0.14601	-0.1649	0.039964	0.012374	0.063213	0.035458	-0.058065	-0.046671	-0.0072844	0.041119	-0.016568	-0.22888	0.055059	0.027563	-0.03699	-0.018704	-0.0064269	0.0029811	-0.074889
0.01692	0.0088552	0.0074068	0.0076236	0.017926	0.013746	0.024612	0.010897	-0.055203	-0.0070142	0.11136	-0.66627	0.14246	0.06625	-0.039833	0.019423	0.033579	-0.031352	-0.0013499	-0.0092754	0.042178	0.013001	0.004508	0.042546	-0.0015554	0.0029501	0.023312
-0.17497	-0.061481	0.063629	-0.0069942	0.039639	-0.20154	-0.28443	0.010599	0.032136	-0.17767	0.10391	0.029044	-0.026768	0.043691	0.02033	-0.040529	-0.0030674	-0.044017	-0.08496	0.101	0.012331	0.026898	0.036097	0.4463	-0.13159	-0.011015	0.098064
-0.011509	0.032967	0.017878	-0.042327	0.058571	-0.1028	-0.18061	0.050426	0.25709	0.073439	0.12729	-0.071789	-0.063314	-0.033242	-0.04582	-0.0015533	-0.0094656	0.3109	0.084198	0.14845	-0.28933	-0.094685	0.082927	-0.12985	0.062606	0.019087	-0.062387
-0.0034162	-0.00030996	0.047044	-0.043065	-0.00087047	-0.0051666	0.050706	-0.55846	0.023758	0.066411	0.17859	0.03979	0.07716	0.017771	-0.0028183	0.041008	0.014008	0.035929	0.024036	-0.0054555	0.0024875	0.012248	0.002279	0.043873	0.0039277	-0.020415	-0.058382
0.052856	-0.55528	0.082261	0.0086001	0.081839	0.038188	0.042532	-0.0086856	0.044384	-0.00055954	-0.0010839	-0.004498	-0.0069053	0.007817	-0.01269	-0.0015354	-0.0017966	0.018957	0.0074438	0.0056007	-0.0093206	-0.023894	0.0042983	-0.046646	0.039581	0.0070733	0.15066
-0.027225	-0.0082231	0.013595	0.010898	-0.0017638	-0.018785	0.040031	0.010183	0.037932	-0.010538	0.020524	-0.0054158	-0.0074356	0.0031916	0.0042946	0.0056192	0.007081	0.069158	0.0066076	0.027305	0.00037645	-0.038886	-0.47442	0.049448	-0.0070742	0.28123	-0.044134
0.051206	0.0022855	0.0089412	-0.021432	0.010891	0.023372	-0.042912	-0.0124	-0.087529	0.11116	0.039696	-0.0009555	0.0068077	0.0069262	0.063306	-0.50605	0.030931	0.039301	0.073363	0.10054	0.087668	0.0087966	-0.0079801	-0.017653	-0.011495	0.0057365	0.0046616
0.035914	-0.013586	0.018125	-0.023402	0.0050172	-0.0094255	-0.056648	0.013283	-0.14551	-0.0020336	-0.017787	0.01352	0.011575	0.01067	-0.011376	0.03542	0.0079255	-0.071347	0.4321	-0.11647	-0.16097	0.012887	-0.013474	0.087637	-0.011299	0.012919	0.00087594
0.062573	0.024298	0.0061062	0.0041307	-0.010972	0.017817	0.032361	-0.021663	0.038711	-0.0046353	-0.0058546	-0.0027095	-0.0036288	0.0048553	-0.0044233	0.01068	-0.009912	0.030734	0.017268	-0.0040521	-0.0097748	-0.0058837	0.060204	-0.08009	-0.40801	0.12149	0.1229
-0.33436	0.0026239	-0.032961	-0.021732	-0.028505	0.17179	0.078508	-0.0014458	-0.085634	0.0013421	0.025294	-0.0012915	-0.0082316	-0.013781	0.020263	0.012551	6.3983e-06	0.026456	0.038655	0.13299	-0.059683	0.0026719	0.014132	-0.032322	-0.0001038	0.0030135	0.10311
