0.29583	0.013996	0.25454	0.94267	0.51293	0.35068	0.46279	0.67068	0.20238	0.35137	0.89176	0.19687	0.58408	0.52011	0.21264	0.54273	1.7792	0.70009	0.41482	0.40713	0.66162	1.0544	0.55774	0.49007	0.17908	0.53489	-0.21335
-0.18406	-0.71904	-0.84332	-0.00196	-0.3854	0.10367	0.29341	0.32179	0.066486	0.070889	0.15421	-0.090092	-0.03295	-0.0080669	0.030885	0.02288	0.027727	0.29616	0.14503	0.14412	0.057943	0.1206	-0.38955	0.24468	-1.0597	-1.1979	-1.49
-0.1757	-0.056924	-0.14252	-0.15587	-0.198	-0.24821	-0.24767	-0.24464	-0.25355	-0.34224	-0.43203	-0.0056567	-0.1537	-0.24516	-0.28005	-0.17487	1.6455	-0.0989	-0.30787	-0.24313	-0.44261	-0.22921	-0.20526	-0.33336	-0.096719	-0.19493	0.13248
0.025834	0.36968	1.096	0.6686	0.65142	0.13652	0.19389	0.037239	-0.0013774	0.0050831	0.04493	0.030164	-0.03785	0.013431	0.099428	0.029077	0.034638	0.050492	0.051126	0.038149	-0.023486	-0.59303	-0.53182	-0.043796	-0.25022	-1.0556	0.23304
0.70639	0.12932	-0.6708	-0.30237	-0.44867	0.2676	0.0015635	0.09817	0.24384	0.12668	0.20742	0.10121	0.075395	0.061917	-0.003545	0.17069	0.11646	0.29018	0.13158	0.20203	0.11869	-0.3361	-0.31595	0.40686	0.12177	-0.50081	0.96922
-0.043964	-0.049746	-0.064801	-0.12056	-0.079132	-0.10809	-0.20345	-0.04239	-0.0629	0.029191	-0.080395	-0.025447	0.37431	0.62837	1.4822	0.1035	0.069392	0.042197	-0.17192	-0.22806	-0.28384	-0.14606	-0.03981	-0.20149	-0.00035244	-0.032058	-0.0062526
0.078999	0.040222	0.10378	-0.047063	0.044579	0.2266	0.046954	-0.36783	0.3061	-0.013743	-0.9552	-0.29581	-0.32596	-0.044935	0.26082	0.1037	0.10146	0.14161	0.26376	0.46453	0.20978	0.10157	0.094585	0.3048	0.027946	0.024812	-0.10606
-0.028667	-0.050159	-0.33769	0.92745	-0.25214	-0.12137	-0.086457	-0.3027	0.052373	-0.063876	-0.04306	0.01494	-0.019644	-0.023921	0.028613	-0.090432	-0.11198	-0.024234	0.049828	0.010119	-0.11274	0.056458	-0.014692	-0.059889	0.089392	-0.0015197	0.10702
-0.018793	0.1113	-0.56493	-0.014954	0.83966	0.016933	-0.06609	-0.091841	-0.037161	-0.016108	-0.043851	0.020134	0.0076277	0.0082206	-0.0049636	0.0084492	-0.013842	-0.061327	-0.012662	-0.020052	-0.00086157	-0.006647	-0.063203	-0.018738	-0.022705	-0.0078149	0.023496
-0.41642	-0.020538	-0.040736	-0.081058	-0.053044	-0.29744	-0.26215	-0.034982	0.14429	0.1332	0.036931	0.012036	0.034692	0.044404	-0.027168	0.16243	0.04111	0.044045	0.39458	0.052482	0.54452	-0.097033	-0.075536	-0.38257	-0.0033979	-0.078231	0.12739
0.042654	-0.0069373	-0.010675	0.014641	0.0047209	0.089711	-0.062595	-0.056397	-0.020316	0.12073	0.31425	-0.059142	-0.77332	-0.03141	0.20646	0.037923	0.070544	-0.060134	-0.0057565	-0.19073	0.10037	-0.0083285	0.015465	0.018387	0.0066165	0.036886	-0.015277
-0.044875	0.019883	-0.020777	-0.023549	-0.015746	0.075639	0.097407	0.046539	0.49344	0.10077	0.133	0.023159	0.041527	0.023609	0.041282	-0.079144	0.11428	-0.6452	0.091942	0.21917	-0.1648	-0.078923	-0.0072705	-0.038969	-0.01334	0.028911	-0.040679
-0.20482	0.045423	-0.043659	-0.024768	0.016368	-0.089676	0.35002	0.028728	0.3395	-0.13615	-0.052188	-0.020598	-0.0080614	0.04376	0.0069176	-0.21509	0.010693	0.16338	0.083063	-0.43833	0.027549	-0.046746	0.081612	0.1546	0.044207	-0.014675	0.075765
-0.030789	0.012003	-0.0099964	0.0050371	-0.025132	0.020431	0.011763	-0.021621	-0.041202	0.055674	-0.092399	0.027566	-0.15585	0.7025	-0.27973	-0.023603	-0.010871	-0.011015	-0.037809	0.031755	-0.058165	-0.018366	-0.012165	-0.020606	0.002808	-0.013998	-0.0096937
0.10405	0.023527	-0.014869	-0.04625	-0.0012506	-0.032049	0.12899	-0.019002	-0.038748	-0.59897	0.14913	0.0083168	-0.080261	0.070618	0.060443	-0.019878	-0.017352	0.0011037	0.13379	0.19286	0.058949	-0.023009	0.014536	-0.15149	0.062964	-0.0040098	-0.044103
0.048578	0.0074748	0.048943	0.022836	-0.010014	0.40504	-0.40775	-0.01713	0.20766	-0.1879	0.0098965	0.012536	0.094055	0.036785	-0.068449	-0.031945	-0.0067991	0.023165	0.00041767	-0.23151	0.077521	0.044367	-0.048821	-0.028779	-0.0070777	0.0023565	-0.09881
0.0056697	0.0022392	-0.013524	0.014106	0.00080844	-0.0054377	-0.003537	-0.010819	-0.052355	-0.010191	0.1209	-0.67763	0.10475	0.041543	-0.052143	0.0038035	0.013783	-0.055982	-0.010659	-0.03231	0.022252	-0.025219	-0.010542	0.020792	0.0039274	-0.0063924	0.038571
0.185	0.070499	-0.065224	0.0094235	-0.03723	0.19353	0.25097	7.3e-06	-0.026399	0.16024	-0.094534	-0.029883	0.022318	-0.038975	-0.020248	0.035966	0.0051906	0.039518	0.077655	-0.11185	-0.00087389	-0.024054	-0.047564	-0.42178	0.14662	0.0081444	-0.11272
0.017906	-0.037949	-0.045074	0.074737	-0.0072617	0.061869	-0.0060622	0.018775	-0.065757	0.014571	0.0021253	0.025913	0.042275	7.6127e-05	-0.018603	0.02137	0.04207	0.018925	0.018093	0.011107	0.088893	-0.52594	0.18529	0.096891	-0.0039298	0.1593	-0.14014
-0.0093184	-0.0087631	-0.056336	0.1089	0.0019076	-0.015892	-0.075655	0.53527	-0.010195	-0.059761	-0.19767	-0.054665	-0.11229	-0.017578	0.034495	-0.037901	-0.024963	-0.039137	-0.0086518	0.014517	0.0025912	-0.0037502	0.0012437	-0.060307	-0.0027593	0.028034	0.079911
0.049593	0.0004752	0.011029	-0.023395	0.012426	0.032009	-0.048758	-0.012195	-0.084307	0.097318	0.037449	0.00015998	0.015751	0.01115	0.057695	-0.50348	0.03142	0.044394	0.07808	0.099371	0.090602	0.011074	-0.011835	-0.019867	-0.012549	0.0075345	0.0037822
0.044686	-0.50132	0.068962	-0.00092787	0.10701	0.030458	0.032624	-0.0204	0.042833	-0.0030953	-0.010209	-0.0017545	-0.0049801	0.0060493	-0.01236	-0.0045844	-0.0087484	0.010384	-0.00047056	-0.0042981	-0.012472	-0.021256	-0.011945	-0.046975	0.083199	-0.0054281	0.11399
-0.012326	0.03074	0.016006	-0.031027	0.046737	-0.070251	-0.12128	0.028861	0.18233	0.049253	0.090622	-0.053154	-0.059514	-0.027947	-0.034552	-0.010627	-0.017638	0.2721	0.053671	0.12873	-0.28558	-0.057686	0.07275	-0.091344	0.05253	0.0073937	-0.052892
0.02633	0.007245	-0.012122	-0.015582	0.0073483	0.012824	-0.04226	-0.0097462	-0.034024	0.0084241	-0.015542	0.0051415	0.0076677	-0.0021034	-0.0057342	-0.0077545	-0.004894	-0.070449	-0.0060911	-0.02671	0.0090055	0.050981	0.41401	-0.052867	0.033061	-0.26527	0.040811
-0.035445	0.016257	-0.02064	0.016804	-0.0053823	-0.0010307	0.043062	-0.012676	0.1448	-0.0053414	0.019083	-0.012596	-0.011105	-0.0071086	0.0090678	-0.031392	-0.0051323	0.071695	-0.39763	0.11663	0.16973	-0.017669	0.0099461	-0.093137	0.016254	-0.013143	-0.0026652
0.072772	-0.009579	0.014798	0.013612	0.003669	0.01446	0.034892	-0.032407	0.036435	-0.0078845	-0.007281	-0.006442	-0.0035443	0.0050985	-0.0031387	0.0092065	-0.012832	0.029071	0.012791	-0.01198	-0.01148	0.0070249	0.075519	-0.097992	-0.35707	0.10875	0.12141
0.2673	0.0019582	0.034957	0.0063591	0.028807	-0.23867	-0.06523	0.00043303	0.087548	0.0099125	-0.033763	-0.00079136	0.0054355	0.020445	-0.022027	-0.0074462	0.0060085	-0.035041	-0.0058933	-0.081037	0.065886	-7.6244e-05	-0.016395	0.010811	0.0043581	-0.0041832	-0.098635
