1.5139	-0.10059	0.071425	0.10698	0.048328	-0.1399	0.061993	-0.0013538	0.10093	-0.0081143	0.080988	0.15232	-0.059255	-0.12179	0.07633	0.10032	0.19115	-0.0068637	0.073771	0.050948	0.11852	0.12873	-0.17487	0.20192	0.087555	1.4215	0.93338
-0.030045	0.25572	0.19431	0.54824	0.41886	0.26057	0.16296	0.6207	0.20901	0.13758	-0.092426	1.1617	0.46441	0.53964	0.47346	0.25625	0.70354	0.42803	0.0038693	0.17741	0.16067	0.28288	0.15438	0.18866	0.67754	-0.17678	-0.16656
0.021875	0.10154	0.059523	0.0716	0.063859	0.046002	0.05769	0.062127	0.23112	1.0575	0.096822	-0.14643	0.03934	0.31075	-0.044631	0.41111	-0.8381	-0.012104	0.4123	0.055344	0.059724	0.02324	0.10112	0.068338	0.13672	0.039621	0.018432
0.037097	0.15958	0.29715	0.32241	0.34545	0.20783	0.17319	0.033848	0.25693	0.086415	0.14247	-1.1526	0.0041741	0.045928	-0.054571	-0.12628	0.51172	0.15614	-0.10581	0.23257	0.16838	0.20805	0.11621	0.10588	0.26554	-0.0044929	-0.10306
-0.2082	-0.056499	-0.19436	-0.71219	-0.3173	-0.062244	-0.023211	-0.12044	-0.023265	-0.089738	0.063234	-0.076631	-0.034764	-0.021435	-0.026409	-0.01273	-0.0051842	0.061972	0.07832	-0.024557	0.0057406	0.31979	-0.040275	0.13894	1.0752	0.12975	0.053556
-0.013417	-0.1892	0.10254	0.4682	0.47614	-0.34702	-0.15232	0.032043	-0.19368	-0.14683	-0.032174	-0.099602	-0.056722	0.0079498	-0.072255	0.064741	-0.20748	-0.06259	-0.02108	-0.7372	-0.25254	-0.013892	-0.28837	-0.056003	0.40594	-0.02368	-0.017202
0.013268	-0.047227	-0.099071	-0.099154	-0.093931	-0.14224	-0.049618	-0.12257	-0.098025	-0.074911	-0.064243	-0.2901	0.68115	0.41059	0.78238	-0.14267	-0.11895	-0.088178	-0.057014	-0.066821	-0.0050127	-0.028786	-0.13267	-0.0394	-0.10256	0.015954	0.089773
-0.031662	-0.082798	-0.10772	-0.14958	-0.15822	-0.19742	-0.080939	-0.10264	-0.07506	0.20408	-0.010884	-0.15113	-0.03231	0.0017051	0.072785	0.80859	0.61604	0.12581	0.21712	-0.16905	-0.17191	-0.16807	-0.12154	-0.10333	-0.14385	-0.043259	-0.01501
0.026797	0.030001	-0.057744	0.038262	0.015554	0.027932	0.021571	-0.07124	0.065721	-0.12487	-0.75162	-0.08192	0.00049599	0.027177	-0.06097	0.10999	-0.072818	0.023343	0.068136	0.014919	0.0042206	0.03675	0.19565	0.044819	0.030209	0.023193	0.019949
0.14205	-0.19658	0.12077	-0.068319	-0.075898	-0.0919	-0.037929	-0.13859	-0.16465	0.25787	-0.011134	0.044954	0.037015	0.20294	-0.12127	-0.24737	0.15906	0.068422	-0.12519	-0.14761	-0.16451	-0.1225	0.43316	0.0063972	0.028553	0.064034	-0.18297
0.031479	-0.056605	-0.060286	-8.2118e-06	0.043215	0.149	-0.017792	-0.012667	0.10805	-0.42075	0.27178	-0.042011	0.048816	0.21052	-0.061683	0.20678	-0.15014	0.098813	0.21118	-0.076495	-0.09889	0.063456	0.38176	-0.07652	-0.056263	0.047028	-0.0067071
-0.01677	0.6744	-0.031328	-0.068449	-0.052676	-0.063444	0.0052894	0.032295	-0.07226	0.015246	0.036362	-0.016492	-0.030455	0.0084953	0.0022141	-0.06341	0.037883	0.020253	-0.008219	-0.30581	-0.041071	-0.03193	0.13861	0.12784	-0.055795	0.00077102	0.13858
0.0075421	-0.08653	0.011723	-0.023163	-0.049858	-0.080975	-0.030657	-0.0010625	-0.099938	0.0072622	-0.00042609	0.0015873	-0.023375	0.0057041	-0.011081	-0.0020068	0.0048606	0.13907	0.06871	-0.23984	0.57384	0.20845	0.031468	-0.013835	-0.11469	0.0033412	-0.095172
-0.010929	-0.07406	-0.069228	-0.075803	-0.05853	-0.10602	-0.026824	0.11148	0.56017	0.037959	-0.021038	0.017428	0.0047513	0.0025561	-0.0068245	-0.13216	0.073925	-0.026275	-0.0053194	-0.21133	-0.035614	0.0014096	-0.028315	-0.023586	-0.062957	-0.0029556	-0.022216
-0.39051	-0.1412	-0.0020156	0.051982	0.058548	0.020993	0.023153	0.020397	-0.031188	0.076518	4.3253e-07	0.010294	-0.017868	0.027743	-0.0071575	-0.031644	0.067866	-0.0010698	-0.036505	-0.031096	0.0037862	0.046213	0.11422	0.043018	-0.074137	0.15443	0.38555
0.20819	-0.074792	-0.021868	-0.023935	0.0072657	-0.041666	0.040858	-0.023379	-0.0080942	0.026119	0.014472	-0.0032794	-0.028125	0.01482	-0.01845	-0.036778	0.026447	-0.013823	0.03075	0.0012735	0.015626	0.066742	0.070844	-0.049055	0.040981	-0.44923	0.33516
0.0019823	0.043356	0.0066703	0.046358	0.0071379	0.020868	-0.54644	-0.017542	0.030483	0.021142	-0.00019369	-0.0048844	-0.010772	-0.0012982	0.0036877	-0.017586	0.018135	0.0076695	0.0079066	0.096225	0.023054	0.029045	0.029215	0.010077	0.017302	-0.014805	0.040868
-0.015714	0.096112	-0.056371	0.015781	0.025206	0.00042248	0.012802	0.00098372	-0.0029669	0.048749	-0.021562	0.0080727	-0.0063313	-0.012965	0.0064584	-0.03132	0.01819	-0.012946	-0.0265	0.021683	0.032117	0.01403	0.045363	-0.50262	0.072747	0.077049	0.023405
0.006909	-0.031965	-0.0056088	0.026553	0.012818	0.0091195	-0.0019822	0.031979	0.0027385	0.045408	0.025878	-0.0019624	0.20905	-0.39306	0.07901	0.03998	-0.029165	0.013023	0.010613	-0.043247	-0.019674	0.010993	0.16978	0.015758	0.028301	-0.010554	-0.017061
0.049064	-0.023623	-0.38326	-0.0055631	0.14882	0.17643	-0.0081281	-0.038193	-0.031527	0.077984	0.014139	-0.0082503	-0.00055445	0.013753	-0.021013	-0.014521	0.030975	-0.0023438	-0.089404	-0.059173	0.006039	0.018311	-0.01695	0.05112	-0.017543	0.00097444	-0.037187
0.0083202	-0.031887	0.00036353	0.0071078	0.013985	0.016896	0.0064792	0.0094537	0.0083279	0.010002	-0.0020462	-0.0086719	-0.30816	-0.044428	0.31358	-0.0034835	-0.027391	0.012592	-0.010694	-0.015079	-0.019795	-0.0060414	0.098856	0.010606	0.014681	-0.0023627	-0.0373
-0.03338	0.050578	0.045888	0.039869	0.085128	-0.014053	0.03061	-0.39825	0.10856	0.0045838	0.034461	0.090955	0.0084029	-0.02645	0.02493	0.0092093	0.012584	0.012786	0.0019186	0.0073585	0.026745	0.029046	-0.016873	0.012439	0.0079425	-0.0057524	-0.0017505
0.011195	0.0021182	0.11913	-0.28814	0.30198	0.0034974	-0.025459	0.045305	-0.0035751	0.00066583	-0.027472	0.014938	0.01335	-0.005395	0.0082714	0.020872	-0.0040497	-0.0025727	-0.011524	0.0021778	0.010497	-0.020893	-0.002876	-0.013034	-0.058255	0.0018016	-0.0011927
0.016986	-0.0267	0.12955	-0.023991	-0.077876	0.31581	-0.02008	-0.026322	-0.0062957	0.021266	-0.03431	0.0019172	0.011702	-0.011533	0.018653	-0.02514	0.016828	0.0045239	0.048693	-0.15245	-0.017029	-0.038066	-0.082518	-0.035917	0.011126	-0.0090996	0.032337
0.0017717	0.003671	0.01937	0.0086019	0.0012094	0.018874	0.00043668	0.0013528	-0.0034005	-0.0017199	0.010641	0.013734	-0.0006161	0.022318	-0.00018241	0.050515	0.060498	-0.35042	0.012285	-0.019311	0.059336	0.039625	0.063399	0.015955	0.022117	0.0024407	-0.032489
0.015515	0.0017261	0.052255	-0.013672	-0.054068	0.024565	-0.0090629	0.0010658	0.040584	-0.0095862	0.0093047	-0.0045592	0.0039685	0.019154	-0.011811	0.14976	-0.069609	0.013271	-0.3141	-0.025809	0.020877	0.029297	0.018656	-0.005136	0.0047853	-0.012885	0.019664
0.0088837	0.0066386	0.022645	-0.010779	-0.01371	0.00081891	0.00085234	0.0026057	-0.030508	0.032594	-0.01302	0.0066747	-0.0035778	-0.0045623	0.0030289	-0.01001	0.0057953	0.001081	0.0078664	-0.0063953	-0.13871	0.28487	-0.030957	-0.016088	-0.084515	0.0057641	-0.036831
